{"learner":{"attributes":{"scikit_learn":"{\"use_label_encoder\": true, \"n_estimators\": 50, \"objective\": \"multi:softprob\", \"max_depth\": 4, \"learning_rate\": 0.1, \"verbosity\": null, \"booster\": null, \"tree_method\": null, \"gamma\": 0.1, \"min_child_weight\": 3, \"max_delta_step\": null, \"subsample\": null, \"colsample_bytree\": 1, \"colsample_bylevel\": null, \"colsample_bynode\": null, \"reg_alpha\": null, \"reg_lambda\": null, \"scale_pos_weight\": null, \"base_score\": null, \"missing\": NaN, \"num_parallel_tree\": null, \"kwargs\": {}, \"random_state\": null, \"n_jobs\": null, \"monotone_constraints\": null, \"interaction_constraints\": null, \"importance_type\": \"gain\", \"gpu_id\": null, \"validate_parameters\": null, \"classes_\": [1, 2, 3, 4, 5, 6, 7, 8, 9, 10], \"n_classes_\": 10, \"_le\": {\"classes_\": [1, 2, 3, 4, 5, 6, 7, 8, 9, 10]}, \"_features_count\": 6, \"n_features_in_\": 6, \"type\": \"XGBClassifier\"}"},"gradient_booster":{"model":{"gbtree_model_param":{"num_trees":"500","size_leaf_vector":"0"},"tree_info":[0,1,2,3,4,5,6,7,8,9,0,1,2,3,4,5,6,7,8,9,0,1,2,3,4,5,6,7,8,9,0,1,2,3,4,5,6,7,8,9,0,1,2,3,4,5,6,7,8,9,0,1,2,3,4,5,6,7,8,9,0,1,2,3,4,5,6,7,8,9,0,1,2,3,4,5,6,7,8,9,0,1,2,3,4,5,6,7,8,9,0,1,2,3,4,5,6,7,8,9,0,1,2,3,4,5,6,7,8,9,0,1,2,3,4,5,6,7,8,9,0,1,2,3,4,5,6,7,8,9,0,1,2,3,4,5,6,7,8,9,0,1,2,3,4,5,6,7,8,9,0,1,2,3,4,5,6,7,8,9,0,1,2,3,4,5,6,7,8,9,0,1,2,3,4,5,6,7,8,9,0,1,2,3,4,5,6,7,8,9,0,1,2,3,4,5,6,7,8,9,0,1,2,3,4,5,6,7,8,9,0,1,2,3,4,5,6,7,8,9,0,1,2,3,4,5,6,7,8,9,0,1,2,3,4,5,6,7,8,9,0,1,2,3,4,5,6,7,8,9,0,1,2,3,4,5,6,7,8,9,0,1,2,3,4,5,6,7,8,9,0,1,2,3,4,5,6,7,8,9,0,1,2,3,4,5,6,7,8,9,0,1,2,3,4,5,6,7,8,9,0,1,2,3,4,5,6,7,8,9,0,1,2,3,4,5,6,7,8,9,0,1,2,3,4,5,6,7,8,9,0,1,2,3,4,5,6,7,8,9,0,1,2,3,4,5,6,7,8,9,0,1,2,3,4,5,6,7,8,9,0,1,2,3,4,5,6,7,8,9,0,1,2,3,4,5,6,7,8,9,0,1,2,3,4,5,6,7,8,9,0,1,2,3,4,5,6,7,8,9,0,1,2,3,4,5,6,7,8,9,0,1,2,3,4,5,6,7,8,9,0,1,2,3,4,5,6,7,8,9,0,1,2,3,4,5,6,7,8,9,0,1,2,3,4,5,6,7,8,9,0,1,2,3,4,5,6,7,8,9,0,1,2,3,4,5,6,7,8,9,0,1,2,3,4,5,6,7,8,9,0,1,2,3,4,5,6,7,8,9,0,1,2,3,4,5,6,7,8,9],"trees":[{"base_weights":[1.2441746E-8,1.2025815E0,-4.7551134E-1,-1.1248559E-1,1.9339085E0,1.488296E-1,-5.497067E-1,8.8522685E-1,-5.4493004E-1,2.778082E0,1.571192E0,-4.8160967E-1,1.2865107E0,-5.5429906E-1,-4.2981133E-1,-2.052951E-1,2.3218565E0,3.2352612E0,1.9261674E0,-5.2942985E-1,2.1533053E0,-5.384033E-1,-3.5752602E-2,-4.7262216E-1,2.0130084E0,6.980447E-3,-5.2418613E-1],"categories":[],"categories_nodes":[],"categories_segments":[],"categories_sizes":[],"default_left":[true,true,true,true,true,true,true,true,false,true,true,true,true,false,true,false,false,false,false,false,false,false,false,false,false,false,false],"id":0,"left_children":[1,3,5,7,9,11,13,15,-1,17,19,21,23,-1,25,-1,-1,-1,-1,-1,-1,-1,-1,-1,-1,-1,-1],"loss_changes":[4.1286932E2,1.9697968E2,2.4049942E1,3.2435818E1,3.5908752E1,4.060135E1,1.6494751E-2,3.61575E1,0E0,8.657196E0,1.16451935E2,9.074173E-1,2.6701168E1,0E0,8.90785E-1,0E0,0E0,0E0,0E0,0E0,0E0,0E0,0E0,0E0,0E0,0E0,0E0],"parents":[2147483647,0,0,1,1,2,2,3,3,4,4,5,5,6,6,7,7,9,9,10,10,11,11,12,12,14,14],"right_children":[2,4,6,8,10,12,14,16,-1,18,20,22,24,-1,26,-1,-1,-1,-1,-1,-1,-1,-1,-1,-1,-1,-1],"split_conditions":[2.75E0,2.4999999E-2,2.95E0,2.15E0,4.5E-1,1.025E1,1.8499999E0,1E1,-5.4493006E-2,2.35E0,9.5E-1,1.75E0,2.4999999E-2,-5.5429906E-2,2.5E0,-2.052951E-2,2.3218565E-1,3.235261E-1,1.9261675E-1,-5.2942988E-2,2.1533053E-1,-5.3840328E-2,-3.5752603E-3,-4.7262218E-2,2.0130084E-1,6.980447E-4,-5.2418616E-2],"split_indices":[2,1,2,2,4,3,4,3,0,2,4,4,1,0,0,0,0,0,0,0,0,0,0,0,0,0,0],"split_type":[0,0,0,0,0,0,0,0,0,0,0,0,0,0,0,0,0,0,0,0,0,0,0,0,0,0,0],"sum_hessian":[7.2E2,2.0358891E2,5.164111E2,7.305968E1,1.3052924E2,5.474398E1,4.6166708E2,2.1774862E1,5.1284817E1,3.7227695E1,9.330154E1,3.5595577E1,1.9148403E1,4.4114648E2,2.0520609E1,1.2865769E1,8.909093E0,2.2405931E1,1.4821764E1,2.0264671E1,7.3036865E1,3.138958E1,4.205998E0,5.6988134E0,1.3449591E1,3.8105242E0,1.6710085E1],"tree_param":{"num_deleted":"0","num_feature":"6","num_nodes":"27","size_leaf_vector":"0"}},{"base_weights":[-4.6212204E-8,5.514431E-1,-3.5719E-1,9.9228E-1,4.0827233E-1,-5.5354035E-1,-2.3931365E-2,1.4469473E0,7.754836E-1,-1.2108505E-1,6.1892694E-1,5.5304325E-1,-4.3887547E-1,1.7392449E0,5.5214673E-1,5.723787E-1,1.7912755E0,3.6839837E-1,-5.3921986E-1,9.148162E-1,3.6025378E-1,3.7349617E-1,1.6074991E0,-5.0382715E-1,2.5333704E-2],"categories":[],"categories_nodes":[],"categories_segments":[],"categories_sizes":[],"default_left":[true,true,true,true,true,false,true,true,true,true,true,true,true,false,false,false,false,false,false,false,false,false,false,false,false],"id":1,"left_children":[1,3,5,7,9,-1,11,13,15,17,19,21,23,-1,-1,-1,-1,-1,-1,-1,-1,-1,-1,-1,-1],"loss_changes":[1.4221231E2,1.750837E1,2.865905E1,5.667511E0,2.4155014E1,0E0,3.9385998E1,4.554348E0,9.041943E0,1.2951096E1,1.1505985E1,1.243222E1,2.8970222E0,0E0,0E0,0E0,0E0,0E0,0E0,0E0,0E0,0E0,0E0,0E0,0E0],"parents":[2147483647,0,0,1,1,2,2,3,3,4,4,6,6,7,7,8,8,9,9,10,10,11,11,12,12],"right_children":[2,4,6,8,10,-1,12,14,16,18,20,22,24,-1,-1,-1,-1,-1,-1,-1,-1,-1,-1,-1,-1],"split_conditions":[3.05E0,4.5E-1,2.4999999E-2,2.4999999E-2,9.5E-1,-5.5354036E-2,3.65E0,2.75E0,2.85E0,2.55E0,1.45E0,1.75E0,1.0950001E1,1.7392449E-1,5.5214673E-2,5.723787E-2,1.7912756E-1,3.683984E-2,-5.3921986E-2,9.148162E-2,3.602538E-2,3.734962E-2,1.6074991E-1,-5.0382715E-2,2.5333704E-3],"split_indices":[2,4,1,1,4,0,2,2,2,2,4,4,3,0,0,0,0,0,0,0,0,0,0,0,0],"split_type":[0,0,0,0,0,0,0,0,0,0,0,0,0,0,0,0,0,0,0,0,0,0,0,0,0],"sum_hessian":[7.2E2,2.8282318E2,4.371768E2,6.78808E1,2.1494238E2,2.7467938E2,1.6249742E2,2.0084723E1,4.7796078E1,6.1307343E1,1.5363504E2,6.7837456E1,9.465996E1,1.44279375E1,5.656786E0,4.113477E1,6.6613083E0,2.829876E1,3.3008583E1,7.04792E1,8.315584E1,5.9124294E1,8.713161E0,8.296608E1,1.1693876E1],"tree_param":{"num_deleted":"0","num_feature":"6","num_nodes":"25","size_leaf_vector":"0"}},{"base_weights":[-3.923697E-8,2.8413808E-1,-4.3624756E-1,6.570613E-1,1.822002E-1,-5.3203875E-1,-2.714301E-1,-1.5130064E-2,8.672853E-1,-5.565245E-2,4.1776326E-1,-3.06144E-1,-5.430324E-1,1.4999534E-1,-4.172738E-1,3.4708428E-1,-5.0177824E-1,6.760775E-1,1.3083434E0,-1.79659E-1,8.042929E-1,9.077963E-1,3.3291683E-1,-4.8220256E-1,1.00842796E-1,-1.2065075E-1,3.3260375E-1,-5.385579E-1,5.579621E-2],"categories":[],"categories_nodes":[],"categories_segments":[],"categories_sizes":[],"default_left":[true,true,true,true,true,true,true,true,true,true,true,true,false,true,true,false,false,false,false,false,false,false,false,false,false,false,false,false,false],"id":2,"left_children":[1,3,5,7,9,11,13,15,17,19,21,23,-1,25,27,-1,-1,-1,-1,-1,-1,-1,-1,-1,-1,-1,-1,-1,-1],"loss_changes":[8.949519E1,1.6501396E1,4.351631E0,1.3222137E1,1.933936E1,2.7843094E-1,6.621558E0,4.272819E0,5.121952E0,1.8531582E1,6.9042625E0,8.0831635E-1,0E0,1.432447E0,4.5939283E0,0E0,0E0,0E0,0E0,0E0,0E0,0E0,0E0,0E0,0E0,0E0,0E0,0E0,0E0],"parents":[2147483647,0,0,1,1,2,2,3,3,4,4,5,5,6,6,7,7,8,8,9,9,10,10,11,11,13,13,14,14],"right_children":[2,4,6,8,10,12,14,16,18,20,22,24,-1,26,28,-1,-1,-1,-1,-1,-1,-1,-1,-1,-1,-1,-1,-1,-1],"split_conditions":[3.55E0,4.5E-1,2.4999999E-2,2.25E0,2.4999999E-2,3.5000002E-1,6.95E0,1E1,7.5E0,1.75E0,7.5E-1,1E1,-5.430324E-2,9.5E-1,1.015E1,3.470843E-2,-5.0177824E-2,6.760775E-2,1.3083434E-1,-1.79659E-2,8.042929E-2,9.077963E-2,3.3291683E-2,-4.822026E-2,1.008428E-2,-1.2065075E-2,3.3260375E-2,-5.3855788E-2,5.579621E-3],"split_indices":[2,4,1,2,1,4,3,3,0,4,4,3,0,4,3,0,0,0,0,0,0,0,0,0,0,0,0,0,0],"split_type":[0,0,0,0,0,0,0,0,0,0,0,0,0,0,0,0,0,0,0,0,0,0,0,0,0,0,0,0,0],"sum_hessian":[7.2E2,4.3622513E2,2.8377484E2,9.247493E1,3.4375018E2,1.7805945E2,1.05715416E2,2.2252045E1,7.022289E1,1.7142387E2,1.7232631E2,9.602267E0,1.6845717E2,2.717189E1,7.8543526E1,1.2921387E1,9.330658E0,5.075318E1,1.9469707E1,1.5051086E2,2.091301E1,2.400211E1,1.4832419E2,6.573725E0,3.0285418E0,1.1083779E1,1.608811E1,6.240572E1,1.6137802E1],"tree_param":{"num_deleted":"0","num_feature":"6","num_nodes":"29","size_leaf_vector":"0"}},{"base_weights":[-3.3997797E-8,3.373055E-1,-1.4888082E-1,9.596533E-2,4.9459508E-1,-3.2594377E-1,1.7816932E-1,5.4030955E-1,-1.367611E-1,7.3596704E-1,3.2997675E-2,1.8280989E-1,-4.6244165E-1,-2.1141458E-1,3.743722E-1,3.038757E-1,1.0770166E0,-5.2433896E-1,3.0456722E-2,8.3354163E-1,2.7352715E-1,-2.2809052E-1,5.14994E-1,-6.279286E-2,4.1931218E-1,-2.7352843E-1,-5.344993E-1,-4.584441E-1,-1.0929206E-1,4.357567E-1,4.2853985E-2],"categories":[],"categories_nodes":[],"categories_segments":[],"categories_sizes":[],"default_left":[true,true,true,true,true,true,true,true,true,true,true,true,true,true,true,false,false,false,false,false,false,false,false,false,false,false,false,false,false,false,false],"id":3,"left_children":[1,3,5,7,9,11,13,15,17,19,21,23,25,27,29,-1,-1,-1,-1,-1,-1,-1,-1,-1,-1,-1,-1,-1,-1,-1,-1],"loss_changes":[3.6257618E1,8.345255E0,2.906488E1,9.223489E0,1.48625145E1,2.2676289E1,1.3576765E1,3.5575342E0,3.8309443E0,3.7287445E0,6.022629E0,4.065398E0,3.3493576E0,1.4580805E0,2.378563E0,0E0,0E0,0E0,0E0,0E0,0E0,0E0,0E0,0E0,0E0,0E0,0E0,0E0,0E0,0E0,0E0],"parents":[2147483647,0,0,1,1,2,2,3,3,4,4,5,5,6,6,7,7,8,8,9,9,10,10,11,11,12,12,13,13,14,14],"right_children":[2,4,6,8,10,12,14,16,18,20,22,24,26,28,30,-1,-1,-1,-1,-1,-1,-1,-1,-1,-1,-1,-1,-1,-1,-1,-1],"split_conditions":[6.6499996E0,2.75E0,1.005E1,2.4999999E-2,1.45E0,3.05E0,2.55E0,7.5E0,4.5E-1,3.85E0,1.75E0,2.4999999E-2,9.15E0,4.5E-1,3.85E0,3.0387571E-2,1.0770166E-1,-5.2433897E-2,3.0456723E-3,8.335417E-2,2.7352715E-2,-2.2809053E-2,5.1499404E-2,-6.279286E-3,4.193122E-2,-2.7352843E-2,-5.344993E-2,-4.584441E-2,-1.0929206E-2,4.357567E-2,4.2853984E-3],"split_indices":[3,2,3,1,4,2,2,0,4,2,4,1,3,4,2,0,0,0,0,0,0,0,0,0,0,0,0,0,0,0,0],"split_type":[0,0,0,0,0,0,0,0,0,0,0,0,0,0,0,0,0,0,0,0,0,0,0,0,0,0,0,0,0,0,0],"sum_hessian":[7.2E2,2.2009204E2,4.9990793E2,8.747828E1,1.3261377E2,3.243242E2,1.7558374E2,2.961423E1,5.7864048E1,8.6689125E1,4.5924637E1,6.853646E1,2.5578773E2,5.878389E1,1.1679985E2,2.164515E1,7.9690814E0,1.6796776E1,4.1067272E1,7.092211E1,1.5767018E1,3.0130371E1,1.5794266E1,3.3981678E1,3.455478E1,7.1950745E1,1.8383699E2,1.6173002E1,4.261089E1,9.828652E1,1.851333E1],"tree_param":{"num_deleted":"0","num_feature":"6","num_nodes":"31","size_leaf_vector":"0"}},{"base_weights":[-4.0508015E-9,2.1854386E-1,-1.638073E-1,-5.8937375E-2,4.0525922E-1,-3.9885277E-1,7.739875E-2,-4.839337E-1,8.009993E-2,5.757016E-1,1.24125876E-1,3.3101064E-1,-4.6326378E-1,-1.5856196E-1,3.4389964E-1,-5.158428E-1,-1.4387584E-1,6.298302E-1,-1.3220218E-1,3.4641978E-1,9.564977E-1,-1.2605456E-1,7.5342304E-1,-1.8340671E-1,5.4897064E-1,2.9464942E-1,-4.927588E-1,-5.008091E-1,-2.586037E-2,-3.644292E-1,5.2659136E-1],"categories":[],"categories_nodes":[],"categories_segments":[],"categories_sizes":[],"default_left":[true,true,true,true,true,true,true,true,true,true,true,false,true,true,true,false,false,false,false,false,false,false,false,false,false,false,false,false,false,false,false],"id":4,"left_children":[1,3,5,7,9,11,13,15,17,19,21,23,25,27,29,-1,-1,-1,-1,-1,-1,-1,-1,-1,-1,-1,-1,-1,-1,-1,-1],"loss_changes":[2.5846931E1,1.6049755E1,2.342751E1,7.4423027E0,8.7945385E0,9.986759E0,1.291478E1,2.6245642E-1,1.1201507E1,9.701958E0,1.1290652E1,2.0679677E0,4.451275E0,4.9444547E0,1.2660754E1,0E0,0E0,0E0,0E0,0E0,0E0,0E0,0E0,0E0,0E0,0E0,0E0,0E0,0E0,0E0,0E0],"parents":[2147483647,0,0,1,1,2,2,3,3,4,4,5,5,6,6,7,7,8,8,9,9,10,10,11,11,12,12,13,13,14,14],"right_children":[2,4,6,8,10,12,14,16,18,20,22,24,26,28,30,-1,-1,-1,-1,-1,-1,-1,-1,-1,-1,-1,-1,-1,-1,-1,-1],"split_conditions":[8.55E0,2.85E0,9.75E0,4.5E-1,1.45E0,2.85E0,3.05E0,7.25E0,9.5E-1,8.5E-1,1.75E0,7.25E0,4.5E-1,4.5E-1,1.005E1,-5.158428E-2,-1.4387584E-2,6.298302E-2,-1.3220218E-2,3.4641977E-2,9.564977E-2,-1.2605456E-2,7.5342305E-2,-1.8340671E-2,5.4897066E-2,2.9464943E-2,-4.9275883E-2,-5.0080907E-2,-2.586037E-3,-3.644292E-2,5.2659135E-2],"split_indices":[3,2,3,4,4,2,2,3,4,4,4,5,4,4,3,0,0,0,0,0,0,0,0,0,0,0,0,0,0,0,0],"split_type":[0,0,0,0,0,0,0,0,0,0,0,0,0,0,0,0,0,0,0,0,0,0,0,0,0,0,0,0,0,0,0],"sum_hessian":[7.2E2,3.0832E2,4.1167996E2,1.2429186E2,1.8402815E2,2.0817162E2,2.0350835E2,3.0027128E1,9.426473E1,1.13916405E2,7.011174E1,1.6545847E1,1.9162576E2,1.08153725E2,9.535462E1,2.6978674E1,3.0484543E0,2.571423E1,6.855051E1,7.229591E1,4.1620483E1,5.0739624E1,1.9372118E1,4.971326E0,1.1574522E1,6.841246E0,1.8478453E2,2.9443317E1,7.871041E1,1.934721E1,7.600741E1],"tree_param":{"num_deleted":"0","num_feature":"6","num_nodes":"31","size_leaf_vector":"0"}},{"base_weights":[-1.323744E-8,2.1980746E-1,-1.9678679E-1,-1.6114697E-1,4.2462844E-1,1.0110718E-1,-3.6730096E-1,3.1505227E-1,-4.483061E-1,7.761148E-1,3.3971572E-1,-5.1279742E-2,6.9862723E-1,-5.092398E-1,-1.7748983E-1,-3.9918098E-1,4.7463673E-1,-5.223159E-1,1.3293704E-1,4.3476954E-1,1.4240686E0,2.2503196E-1,6.495023E-1,-4.608775E-1,5.682449E-2,1.3467407E-1,1.3685462E0,1.5399328E-1,-5.2667415E-1,-4.524006E-1,1.09386794E-1],"categories":[],"categories_nodes":[],"categories_segments":[],"categories_sizes":[],"default_left":[true,true,true,true,true,true,true,true,true,true,true,true,true,true,true,false,false,false,false,false,false,false,false,false,false,false,false,false,false,false,false],"id":5,"left_children":[1,3,5,7,9,11,13,15,17,19,21,23,25,27,29,-1,-1,-1,-1,-1,-1,-1,-1,-1,-1,-1,-1,-1,-1,-1,-1],"loss_changes":[3.1230255E1,2.6679804E1,1.9387476E1,1.654738E1,6.3643227E0,1.2734296E1,6.442623E0,5.40063E0,3.3067942E0,8.7658E0,6.271639E0,4.9877977E0,1.0548259E1,1.6791763E0,8.3527E0,0E0,0E0,0E0,0E0,0E0,0E0,0E0,0E0,0E0,0E0,0E0,0E0,0E0,0E0,0E0,0E0],"parents":[2147483647,0,0,1,1,2,2,3,3,4,4,5,5,6,6,7,7,8,8,9,9,10,10,11,11,12,12,13,13,14,14],"right_children":[2,4,6,8,10,12,14,16,18,20,22,24,26,28,30,-1,-1,-1,-1,-1,-1,-1,-1,-1,-1,-1,-1,-1,-1,-1,-1],"split_conditions":[9.15E0,2.75E0,1.05E0,2.4999999E-2,5E-3,3.65E0,9.75E0,4.5E-1,7.95E0,6.5E0,3.75E0,9.35E0,1.1299999E1,1.45E0,2.95E0,-3.99181E-2,4.7463674E-2,-5.223159E-2,1.3293705E-2,4.3476954E-2,1.4240687E-1,2.2503195E-2,6.495023E-2,-4.6087753E-2,5.6824493E-3,1.3467408E-2,1.3685463E-1,1.5399328E-2,-5.2667417E-2,-4.524006E-2,1.093868E-2],"split_indices":[3,2,4,1,1,2,3,4,3,0,2,3,3,4,2,0,0,0,0,0,0,0,0,0,0,0,0,0,0,0,0],"split_type":[0,0,0,0,0,0,0,0,0,0,0,0,0,0,0,0,0,0,0,0,0,0,0,0,0,0,0,0,0,0,0],"sum_hessian":[7.2E2,3.400514E2,3.7994858E2,1.189762E2,2.210752E2,1.384605E2,2.4148808E2,4.471977E1,7.425643E1,4.1432007E1,1.7964317E2,1.11052666E2,2.7407839E1,1.3720483E2,1.0428324E2,7.892932E0,3.6826836E1,6.595921E1,8.297219E0,2.8230844E1,1.3201163E1,1.3236699E2,4.7276184E1,2.2508102E1,8.8544556E1,1.553291E1,1.1874928E1,3.3136914E0,1.3389114E2,5.295758E1,5.1325665E1],"tree_param":{"num_deleted":"0","num_feature":"6","num_nodes":"31","size_leaf_vector":"0"}},{"base_weights":[-1.1697722E-8,2.2438058E-1,-2.507529E-1,4.920301E-1,-1.1383531E-1,-5.000765E-1,-9.3724206E-2,1.3459344E-1,1.3344189E0,3.017549E-1,-4.7524053E-1,-5.315166E-1,-2.3869498E-1,2.8477857E-1,-2.234222E-1,-3.5647857E-1,3.604544E-1,6.428868E-1,1.4933825E0,1.7142484E0,-8.459306E-2,1.3724059E-1,-5.487241E-1,-5.501848E-1,-3.5751787E-1,-5.116341E-1,6.219782E-1,-7.676631E-2,8.533199E-1,-3.4938283E-2,-3.7082365E-1],"categories":[],"categories_nodes":[],"categories_segments":[],"categories_sizes":[],"default_left":[true,true,true,true,true,false,true,true,true,true,true,true,true,true,true,false,false,false,false,false,false,false,false,false,false,false,false,false,false,false,false],"id":6,"left_children":[1,3,5,7,9,11,13,15,17,19,21,23,25,27,29,-1,-1,-1,-1,-1,-1,-1,-1,-1,-1,-1,-1,-1,-1,-1,-1],"loss_changes":[4.0622665E1,3.4548775E1,1.3302143E1,6.3923702E1,2.5547737E1,9.5402145E-1,1.0394024E1,1.6830519E1,5.999634E0,4.3411583E1,4.164509E0,1.8201828E-1,4.0621047E0,1.1195059E1,4.356975E0,0E0,0E0,0E0,0E0,0E0,0E0,0E0,0E0,0E0,0E0,0E0,0E0,0E0,0E0,0E0,0E0],"parents":[2147483647,0,0,1,1,2,2,3,3,4,4,5,5,6,6,7,7,8,8,9,9,10,10,11,11,12,12,13,13,14,14],"right_children":[2,4,6,8,10,12,14,16,18,20,22,24,26,28,30,-1,-1,-1,-1,-1,-1,-1,-1,-1,-1,-1,-1,-1,-1,-1,-1],"split_conditions":[2.4999999E-2,1.55E0,2.75E0,1.325E1,3.75E0,2.3E1,3.5E0,6.95E0,4.5E-1,1.6500001E0,7.5E0,2.65E0,1.55E0,1.3499999E0,9.55E0,-3.5647858E-2,3.6045443E-2,6.428868E-2,1.4933825E-1,1.7142485E-1,-8.459306E-3,1.3724059E-2,-5.4872412E-2,-5.501848E-2,-3.5751786E-2,-5.1163413E-2,6.2197823E-2,-7.676631E-3,8.533199E-2,-3.4938285E-3,-3.7082367E-2],"split_indices":[1,4,2,5,2,5,0,3,4,4,0,2,4,4,3,0,0,0,0,0,0,0,0,0,0,0,0,0,0,0,0],"split_type":[0,0,0,0,0,0,0,0,0,0,0,0,0,0,0,0,0,0,0,0,0,0,0,0,0,0,0,0,0,0,0],"sum_hessian":[7.2E2,3.800373E2,3.3996268E2,2.1189662E2,1.6814067E2,1.3052924E2,2.0943344E2,1.4958536E2,6.2311268E1,7.828433E1,8.985634E1,1.1559182E2,1.4937409E1,5.3144386E1,1.5628906E2,4.694285E1,1.0264252E2,1.2589216E1,4.972205E1,1.6075396E1,6.2208935E1,9.532865E0,8.032347E1,1.0243923E2,1.3152589E1,1.1648838E1,3.2885711E0,3.301474E1,2.0129644E1,6.912946E1,8.71596E1],"tree_param":{"num_deleted":"0","num_feature":"6","num_nodes":"31","size_leaf_vector":"0"}},{"base_weights":[5.042834E-9,-4.275611E-1,3.4447768E-1,-1.4562061E-1,-5.5305946E-1,5.874605E-1,-2.1643169E-1,-3.6596087E-1,4.642068E-1,1.9400911E-2,1.1705099E0,-3.9343208E-1,2.2343165E-1,-5.453725E-1,1.20094106E-1,-5.1061046E-1,1.1985148E0,1.3544122E0,-3.6770248E-1,4.5059747E-1,2.4003847E0,-2.0157184E-2,-5.465513E-1,-5.296284E-1,1.2773734E0],"categories":[],"categories_nodes":[],"categories_segments":[],"categories_sizes":[],"default_left":[true,true,true,false,false,true,true,true,true,true,true,true,true,false,false,false,false,false,false,false,false,false,false,false,false],"id":7,"left_children":[1,3,5,7,-1,9,11,13,15,17,19,21,23,-1,-1,-1,-1,-1,-1,-1,-1,-1,-1,-1,-1],"loss_changes":[1.0633995E2,1.1318142E1,5.462313E1,1.3685511E1,0E0,9.2470375E1,9.554287E0,6.557622E0,2.0037714E1,7.412241E1,1.2092264E2,4.96509E0,2.8872757E1,0E0,0E0,0E0,0E0,0E0,0E0,0E0,0E0,0E0,0E0,0E0,0E0],"parents":[2147483647,0,0,1,1,2,2,3,3,5,5,6,6,7,7,8,8,9,9,10,10,11,11,12,12],"right_children":[2,4,6,8,-1,10,12,14,16,18,20,22,24,-1,-1,-1,-1,-1,-1,-1,-1,-1,-1,-1,-1],"split_conditions":[3.15E0,1.5E-2,3.5E-2,1.075E1,-5.5305947E-2,5E-3,6.5E0,9.85E0,8.65E0,8.200001E0,1.45E0,7.95E0,9.55E0,-5.4537248E-2,1.2009411E-2,-5.1061045E-2,1.19851485E-1,1.3544123E-1,-3.677025E-2,4.5059748E-2,2.4003847E-1,-2.0157185E-3,-5.465513E-2,-5.296284E-2,1.2773734E-1],"split_indices":[2,1,1,5,0,1,0,3,3,3,4,3,3,0,0,0,0,0,0,0,0,0,0,0,0],"split_type":[0,0,0,0,0,0,0,0,0,0,0,0,0,0,0,0,0,0,0,0,0,0,0,0,0],"sum_hessian":[7.2E2,3.2115076E2,3.988492E2,9.9585526E1,2.2156523E2,2.7826083E2,1.2058838E2,7.344763E1,2.613789E1,1.4146555E2,1.3679529E2,8.606251E1,3.452587E1,5.355681E1,1.9890823E1,1.1360759E1,1.4777132E1,3.1237457E1,1.1022809E2,8.7148766E1,4.9646526E1,2.5363317E1,6.069919E1,2.0427523E1,1.4098349E1],"tree_param":{"num_deleted":"0","num_feature":"6","num_nodes":"25","size_leaf_vector":"0"}},{"base_weights":[-8.184272E-9,5.663867E-1,-5.5403346E-1,1.0310782E-1,3.1909714E0,1.9228148E0,-5.530817E-1,-5.1510864E-1,4.360548E0,-5.3978133E-1,3.7386973E0],"categories":[],"categories_nodes":[],"categories_segments":[],"categories_sizes":[],"default_left":[true,true,false,true,true,true,false,false,false,false,false],"id":8,"left_children":[1,3,-1,5,7,9,-1,-1,-1,-1,-1],"loss_changes":[2.2656155E2,4.3377652E2,0E0,3.6464508E2,2.3427887E2,3.6388547E2,0E0,0E0,0E0,0E0,0E0],"parents":[2147483647,0,0,1,1,3,3,4,4,5,5],"right_children":[2,4,-1,6,8,10,-1,-1,-1,-1,-1],"split_conditions":[5.5E0,3.95E0,-5.5403348E-2,5E-3,3.5E0,4.5E0,-5.530817E-2,-5.1510867E-2,4.360548E-1,-5.3978134E-2,3.7386975E-1],"split_indices":[0,2,0,1,0,0,0,0,0,0,0],"split_type":[0,0,0,0,0,0,0,0,0,0,0],"sum_hessian":[7.2E2,3.5601974E2,3.6398022E2,3.0348868E2,5.253106E1,7.992235E1,2.2356635E2,1.2735426E1,3.9795635E1,3.42191E1,4.5703247E1],"tree_param":{"num_deleted":"0","num_feature":"6","num_nodes":"11","size_leaf_vector":"0"}},{"base_weights":[-8.184272E-9,-5.5459225E-1,2.201203E0,4.47685E0,-5.472269E-1,-4.749701E-1,4.8792987E0],"categories":[],"categories_nodes":[],"categories_segments":[],"categories_sizes":[],"default_left":[true,false,true,true,false,false,false],"id":9,"left_children":[1,-1,3,5,-1,-1,-1],"loss_changes":[8.81396E2,0E0,9.1121906E2,1.6093921E2,0E0,0E0,0E0],"parents":[2147483647,0,0,2,2,3,3],"right_children":[2,-1,4,6,-1,-1,-1],"split_conditions":[3.95E0,-5.5459227E-2,5E-3,8.5E0,-5.4722693E-2,-4.749701E-2,4.8792988E-1],"split_indices":[2,0,1,0,0,0,0],"split_type":[0,0,0,0,0,0,0],"sum_hessian":[7.2E2,5.757005E2,1.4429947E2,7.8595245E1,6.570422E1,5.893991E0,7.2701256E1],"tree_param":{"num_deleted":"0","num_feature":"6","num_nodes":"7","size_leaf_vector":"0"}},{"base_weights":[-6.3533394E-4,1.018115E0,-4.688644E-1,-1.0851657E-1,1.5457611E0,1.3788572E-1,-5.4588526E-1,7.8641135E-1,-5.415522E-1,1.179309E0,2.0934827E0,-4.7605613E-1,1.1010138E0,-5.507113E-1,-4.2088217E-1,-1.9847281E-1,1.8674338E0,1.7543663E0,-2.4263154E-1,2.568113E0,1.547086E0,-5.3475046E-1,-3.23947E-2,-4.674122E-1,1.6390866E0,1.567539E-2,-5.19066E-1],"categories":[],"categories_nodes":[],"categories_segments":[],"categories_sizes":[],"default_left":[true,true,true,true,true,true,true,true,false,true,true,true,true,false,true,false,false,false,false,false,false,false,false,false,false,false,false],"id":10,"left_children":[1,3,5,7,9,11,13,15,-1,17,19,21,23,-1,25,-1,-1,-1,-1,-1,-1,-1,-1,-1,-1,-1,-1],"loss_changes":[3.442023E2,1.3523994E2,2.317823E1,2.8873827E1,2.8603607E1,3.3923676E1,3.2974243E-2,2.629052E1,0E0,7.814247E1,1.1785889E1,8.991332E-1,1.9577995E1,0E0,8.892267E-1,0E0,0E0,0E0,0E0,0E0,0E0,0E0,0E0,0E0,0E0,0E0,0E0],"parents":[2147483647,0,0,1,1,2,2,3,3,4,4,5,5,6,6,7,7,9,9,10,10,11,11,12,12,14,14],"right_children":[2,4,6,8,10,12,14,16,-1,18,20,22,24,-1,26,-1,-1,-1,-1,-1,-1,-1,-1,-1,-1,-1,-1],"split_conditions":[2.75E0,2.4999999E-2,2.95E0,2.15E0,1.005E1,1.025E1,1.8499999E0,1E1,-5.415522E-2,6.3500004E0,2.25E0,1.75E0,2.4999999E-2,-5.5071127E-2,2.5E0,-1.9847281E-2,1.8674338E-1,1.7543663E-1,-2.4263155E-2,2.5681132E-1,1.5470861E-1,-5.347505E-2,-3.23947E-3,-4.674122E-2,1.6390866E-1,1.5675391E-3,-5.1906597E-2],"split_indices":[2,1,2,2,3,3,4,3,0,3,2,4,1,0,0,0,0,0,0,0,0,0,0,0,0,0,0],"split_type":[0,0,0,0,0,0,0,0,0,0,0,0,0,0,0,0,0,0,0,0,0,0,0,0,0,0,0],"sum_hessian":[7.195844E2,2.2621729E2,4.9336713E2,7.2407295E1,1.5380998E2,5.5484474E1,4.3788263E2,2.3345192E1,4.9062103E1,9.4043495E1,5.9766483E1,3.419362E1,2.1290857E1,4.183266E2,1.9556023E1,1.2642984E1,1.0702207E1,6.679619E1,2.724731E1,3.0003613E1,2.9762873E1,3.0017174E1,4.176446E0,5.4719667E0,1.5818891E1,3.744975E0,1.5811048E1],"tree_param":{"num_deleted":"0","num_feature":"6","num_nodes":"27","size_leaf_vector":"0"}},{"base_weights":[1.5904565E-3,4.9890336E-1,-3.4772655E-1,8.767995E-1,3.7151468E-1,-5.497314E-1,-2.2638123E-2,1.2230699E0,7.010286E-1,2.0699137E-1,1.003554E0,5.01797E-1,-4.31918E-1,8.231883E-1,1.8509786E0,3.4682125E-1,1.0839716E0,3.9388403E-1,-4.1732734E-1,1.3449486E0,6.5727824E-1,2.643899E-1,1.0752798E0,-4.987461E-1,2.6846925E-2],"categories":[],"categories_nodes":[],"categories_segments":[],"categories_sizes":[],"default_left":[true,true,true,true,true,false,true,true,true,true,true,true,true,false,false,false,false,false,false,false,false,false,false,false,false],"id":11,"left_children":[1,3,5,7,9,-1,11,13,15,17,19,21,23,-1,-1,-1,-1,-1,-1,-1,-1,-1,-1,-1,-1],"loss_changes":[1.2504689E2,1.3971458E1,2.7754337E1,3.6551094E0,2.3069704E1,0E0,3.5222137E1,4.4070854E0,6.6123505E0,2.1035988E1,4.5510216E0,9.511606E0,2.8382053E0,0E0,0E0,0E0,0E0,0E0,0E0,0E0,0E0,0E0,0E0,0E0,0E0],"parents":[2147483647,0,0,1,1,2,2,3,3,4,4,6,6,7,7,8,8,9,9,10,10,11,11,12,12],"right_children":[2,4,6,8,10,-1,12,14,16,18,20,22,24,-1,-1,-1,-1,-1,-1,-1,-1,-1,-1,-1,-1],"split_conditions":[3.05E0,4.5E-1,2.4999999E-2,2.4999999E-2,1.75E0,-5.4973137E-2,3.65E0,1.055E1,2.45E0,1.45E0,2.45E0,1.055E1,1.0950001E1,8.2318835E-2,1.8509786E-1,3.4682125E-2,1.0839716E-1,3.9388403E-2,-4.1732736E-2,1.3449487E-1,6.572782E-2,2.643899E-2,1.07527986E-1,-4.987461E-2,2.6846926E-3],"split_indices":[2,4,1,1,4,0,2,3,2,4,2,3,3,0,0,0,0,0,0,0,0,0,0,0,0],"split_type":[0,0,0,0,0,0,0,0,0,0,0,0,0,0,0,0,0,0,0,0,0,0,0,0,0],"sum_hessian":[7.178206E2,2.95994E2,4.2182666E2,7.314068E1,2.2285332E2,2.5973834E2,1.6208832E2,2.262025E1,5.052043E1,1.7787816E2,4.497516E1,7.094988E1,9.113844E1,1.5231268E1,7.388983E0,2.7234892E1,2.3285538E1,1.3718138E2,4.0696774E1,2.1194944E1,2.3780212E1,5.121091E1,1.9738972E1,7.9474304E1,1.1664141E1],"tree_param":{"num_deleted":"0","num_feature":"6","num_nodes":"25","size_leaf_vector":"0"}},{"base_weights":[1.6655808E-3,2.6364595E-1,-4.2807642E-1,5.951829E-1,1.6989726E-1,-5.2697253E-1,-2.635044E-1,-9.422894E-3,7.702244E-1,3.6067235E-1,-8.309105E-2,-2.9880923E-1,-5.3845835E-1,1.3997875E-1,-4.100089E-1,3.2761645E-1,-4.9569857E-1,6.082074E-1,1.1280788E0,5.027538E-1,2.4721885E-1,-2.1700867E-1,8.241186E-1,-4.7762525E-1,1.00857355E-1,-1.1769017E-1,3.0861002E-1,-5.348071E-1,5.4820318E-2],"categories":[],"categories_nodes":[],"categories_segments":[],"categories_sizes":[],"default_left":[true,true,true,true,true,true,true,true,true,true,true,true,false,true,true,false,false,false,false,false,false,false,false,false,false,false,false,false,false],"id":12,"left_children":[1,3,5,7,9,11,13,15,17,19,21,23,-1,25,27,-1,-1,-1,-1,-1,-1,-1,-1,-1,-1,-1,-1,-1,-1],"loss_changes":[8.104451E1,1.3798929E1,4.2984695E0,1.0398163E1,1.6923965E1,2.8277588E-1,6.2250443E0,3.9371307E0,3.7290955E0,3.095459E0,1.8559671E1,7.886402E-1,0E0,1.2763642E0,4.484437E0,0E0,0E0,0E0,0E0,0E0,0E0,0E0,0E0,0E0,0E0,0E0,0E0,0E0,0E0],"parents":[2147483647,0,0,1,1,2,2,3,3,4,4,5,5,6,6,7,7,8,8,9,9,10,10,11,11,13,13,14,14],"right_children":[2,4,6,8,10,12,14,16,18,20,22,24,-1,26,28,-1,-1,-1,-1,-1,-1,-1,-1,-1,-1,-1,-1,-1,-1],"split_conditions":[3.55E0,4.5E-1,2.4999999E-2,2.25E0,2.95E0,3.5000002E-1,6.95E0,1E1,7.5E0,7.25E0,1.75E0,1E1,-5.3845834E-2,9.5E-1,1.015E1,3.2761645E-2,-4.9569856E-2,6.082074E-2,1.12807885E-1,5.027538E-2,2.4721885E-2,-2.1700867E-2,8.241186E-2,-4.7762524E-2,1.00857355E-2,-1.1769017E-2,3.0861003E-2,-5.348071E-2,5.482032E-3],"split_indices":[2,4,1,2,2,4,3,3,0,3,4,3,0,4,3,0,0,0,0,0,0,0,0,0,0,0,0,0,0],"split_type":[0,0,0,0,0,0,0,0,0,0,0,0,0,0,0,0,0,0,0,0,0,0,0,0,0,0,0,0,0],"sum_hessian":[7.178559E2,4.4621793E2,2.7163794E2,9.7183876E1,3.4903403E2,1.6829971E2,1.0333824E2,2.2031538E1,7.5152336E1,1.987407E2,1.5029333E2,9.361011E0,1.589387E2,2.753888E1,7.579936E1,1.3205225E1,8.826313E0,5.3589523E1,2.1562817E1,8.671427E1,1.12026436E2,1.3162442E2,1.8668922E1,6.332644E0,3.0283663E0,1.1013031E1,1.6525846E1,5.9637287E1,1.6162071E1],"tree_param":{"num_deleted":"0","num_feature":"6","num_nodes":"29","size_leaf_vector":"0"}},{"base_weights":[1.727438E-3,1.2146034E-1,-3.7167287E-1,3.3982843E-1,-6.8630953E-3,2.216721E-2,-4.9773788E-1,9.0598546E-2,5.3230315E-1,-1.713636E-1,1.8359983E-1,-2.632972E-1,4.280201E-1,-5.477492E-1,4.9601373E-1,4.8694855E-1,-1.2997113E-1,7.3758173E-1,9.882429E-2,2.7830592E-1,-3.389146E-1,-6.449036E-2,5.222952E-1,-4.2269114E-1,3.3389682E-1,7.421898E-1,1.2880622E-1],"categories":[],"categories_nodes":[],"categories_segments":[],"categories_sizes":[],"default_left":[true,true,true,true,true,true,true,true,true,true,true,true,true,false,false,false,false,false,false,false,false,false,false,false,false,false,false],"id":13,"left_children":[1,3,5,7,9,11,13,15,17,19,21,23,25,-1,-1,-1,-1,-1,-1,-1,-1,-1,-1,-1,-1,-1,-1],"loss_changes":[3.2182392E1,1.5275426E1,8.688574E0,9.6303425E0,1.0818291E1,5.1335196E0,6.8537865E0,7.854701E0,1.0039028E1,1.4051498E1,1.34808445E1,2.62184E0,1.6223936E0,0E0,0E0,0E0,0E0,0E0,0E0,0E0,0E0,0E0,0E0,0E0,0E0,0E0,0E0],"parents":[2147483647,0,0,1,1,2,2,3,3,4,4,5,5,6,6,7,7,8,8,9,9,10,10,11,11,12,12],"right_children":[2,4,6,8,10,12,14,16,18,20,22,24,26,-1,-1,-1,-1,-1,-1,-1,-1,-1,-1,-1,-1,-1,-1],"split_conditions":[3.85E0,6.6499996E0,1.45E0,2.75E0,1.005E1,2.4999999E-2,1.75E0,2.4999999E-2,1.45E0,2.85E0,2.95E0,9.5E-1,8.35E0,-5.477492E-2,4.9601372E-2,4.8694856E-2,-1.2997113E-2,7.375818E-2,9.88243E-3,2.7830591E-2,-3.389146E-2,-6.4490363E-3,5.222952E-2,-4.2269114E-2,3.3389684E-2,7.421898E-2,1.2880622E-2],"split_indices":[2,3,4,2,3,1,4,1,4,2,2,4,3,0,0,0,0,0,0,0,0,0,0,0,0,0,0],"split_type":[0,0,0,0,0,0,0,0,0,0,0,0,0,0,0,0,0,0,0,0,0,0,0,0,0,0,0],"sum_hessian":[7.178205E2,5.440444E2,1.7377615E2,2.0076099E2,3.4328336E2,4.233655E1,1.314396E2,8.812335E1,1.1263764E2,1.8424954E2,1.5903383E2,2.5060806E1,1.7275747E1,1.25569046E2,5.870556E0,3.1075293E1,5.7048054E1,7.596301E1,3.6674633E1,4.9837032E1,1.344125E2,9.226237E1,6.6771454E1,2.0011772E1,5.049033E0,7.705076E0,9.570672E0],"tree_param":{"num_deleted":"0","num_feature":"6","num_nodes":"27","size_leaf_vector":"0"}},{"base_weights":[1.6962772E-3,2.0440245E-1,-1.5560414E-1,-5.6061193E-2,3.7337294E-1,-3.89732E-1,7.407475E-2,-4.7749078E-1,7.46119E-2,5.2109605E-1,1.1959678E-1,3.0896723E-1,-4.5583183E-1,-1.5002294E-1,3.1525218E-1,-5.104628E-1,-1.4747165E-1,5.5311835E-1,-1.2503253E-1,3.1961504E-1,8.399224E-1,-1.2015029E-1,6.867433E-1,-1.7699677E-1,5.04126E-1,2.64809E-1,-4.8627895E-1,-4.9404523E-1,-2.3248874E-2,-3.60134E-1,4.7974566E-1],"categories":[],"categories_nodes":[],"categories_segments":[],"categories_sizes":[],"default_left":[true,true,true,true,true,true,true,true,true,true,true,false,true,true,true,false,false,false,false,false,false,false,false,false,false,false,false,false,false,false,false],"id":14,"left_children":[1,3,5,7,9,11,13,15,17,19,21,23,25,27,29,-1,-1,-1,-1,-1,-1,-1,-1,-1,-1,-1,-1,-1,-1,-1,-1],"loss_changes":[2.2952904E1,1.3863389E1,2.1824932E1,6.8987393E0,7.094204E0,9.418186E0,1.1151152E1,2.4715948E-1,9.239608E0,7.4634056E0,9.809245E0,1.7923181E0,4.1642647E0,4.662615E0,1.1201897E1,0E0,0E0,0E0,0E0,0E0,0E0,0E0,0E0,0E0,0E0,0E0,0E0,0E0,0E0,0E0,0E0],"parents":[2147483647,0,0,1,1,2,2,3,3,4,4,5,5,6,6,7,7,8,8,9,9,10,10,11,11,12,12,13,13,14,14],"right_children":[2,4,6,8,10,12,14,16,18,20,22,24,26,28,30,-1,-1,-1,-1,-1,-1,-1,-1,-1,-1,-1,-1,-1,-1,-1,-1],"split_conditions":[8.55E0,2.85E0,9.75E0,4.5E-1,1.45E0,2.85E0,3.05E0,7.1499996E0,9.5E-1,8.5E-1,1.75E0,7.25E0,4.5E-1,4.5E-1,1.005E1,-5.1046282E-2,-1.4747165E-2,5.5311836E-2,-1.2503253E-2,3.1961504E-2,8.399224E-2,-1.2015029E-2,6.867433E-2,-1.7699677E-2,5.0412603E-2,2.6480902E-2,-4.8627894E-2,-4.9404524E-2,-2.3248873E-3,-3.6013402E-2,4.7974568E-2],"split_indices":[3,2,3,4,4,2,2,3,4,4,4,5,4,4,3,0,0,0,0,0,0,0,0,0,0,0,0,0,0,0,0],"split_type":[0,0,0,0,0,0,0,0,0,0,0,0,0,0,0,0,0,0,0,0,0,0,0,0,0,0,0,0,0,0,0],"sum_hessian":[7.1785046E2,3.1352502E2,4.0432544E2,1.2362637E2,1.8989865E2,1.9987843E2,2.04447E2,2.8632036E1,9.499434E1,1.19363686E2,7.0534966E1,1.6957478E1,1.8292096E2,1.06171936E2,9.827507E1,2.5534163E1,3.097874E0,2.7444654E1,6.754968E1,7.436899E1,4.4994698E1,5.0131344E1,2.0403625E1,4.885407E0,1.207207E1,7.1031046E0,1.7581786E2,2.7809425E1,7.836251E1,1.901459E1,7.926048E1],"tree_param":{"num_deleted":"0","num_feature":"6","num_nodes":"31","size_leaf_vector":"0"}},{"base_weights":[1.7368402E-3,2.0507142E-1,-1.8756686E-1,-1.5440984E-1,3.8908333E-1,9.485673E-2,-3.571499E-1,2.8569594E-1,-4.405787E-1,7.025845E-1,3.115574E-1,-4.8120297E-2,6.1904746E-1,-5.0297743E-1,-1.6905358E-1,-3.92185E-1,4.2621177E-1,-5.173372E-1,1.3316157E-1,4.058766E-1,1.2250018E0,-1.4359143E-1,3.816601E-1,-4.8352653E-1,4.7372304E-2,1.1522226E-1,1.1755738E0,1.3769992E-1,-5.211835E-1,-4.445779E-1,1.0349475E-1],"categories":[],"categories_nodes":[],"categories_segments":[],"categories_sizes":[],"default_left":[true,true,true,true,true,true,true,true,true,true,true,true,true,true,true,false,false,false,false,false,false,false,false,false,false,false,false,false,false,false,false],"id":15,"left_children":[1,3,5,7,9,11,13,15,17,19,21,23,25,27,29,-1,-1,-1,-1,-1,-1,-1,-1,-1,-1,-1,-1,-1,-1,-1,-1],"loss_changes":[2.7706026E1,2.3015614E1,1.7886889E1,1.5013811E1,5.3667145E0,1.0570456E1,6.3093014E0,4.6615896E0,3.240878E0,6.442007E0,5.9911556E0,4.6559095E0,8.335795E0,1.5975266E0,7.8040085E0,0E0,0E0,0E0,0E0,0E0,0E0,0E0,0E0,0E0,0E0,0E0,0E0,0E0,0E0,0E0,0E0],"parents":[2147483647,0,0,1,1,2,2,3,3,4,4,5,5,6,6,7,7,8,8,9,9,10,10,11,11,12,12,13,13,14,14],"right_children":[2,4,6,8,10,12,14,16,18,20,22,24,26,28,30,-1,-1,-1,-1,-1,-1,-1,-1,-1,-1,-1,-1,-1,-1,-1,-1],"split_conditions":[9.15E0,2.75E0,1.05E0,2.4999999E-2,5E-3,3.65E0,9.75E0,4.5E-1,7.95E0,6.5E0,3.5000002E-1,9.25E0,1.1299999E1,1.45E0,2.95E0,-3.92185E-2,4.2621177E-2,-5.173372E-2,1.3316157E-2,4.058766E-2,1.2250018E-1,-1.4359144E-2,3.8166013E-2,-4.8352655E-2,4.7372305E-3,1.1522226E-2,1.17557384E-1,1.3769992E-2,-5.211835E-2,-4.445779E-2,1.0349475E-2],"split_indices":[3,2,4,1,1,2,3,4,3,0,4,3,3,4,2,0,0,0,0,0,0,0,0,0,0,0,0,0,0,0,0],"split_type":[0,0,0,0,0,0,0,0,0,0,0,0,0,0,0,0,0,0,0,0,0,0,0,0,0,0,0,0,0,0,0],"sum_hessian":[7.1778754E2,3.460286E2,3.7175894E2,1.17210266E2,2.2881831E2,1.3964117E2,2.3211777E2,4.618418E1,7.1026085E1,4.376753E1,1.850508E2,1.10429016E2,2.9212156E1,1.2980688E2,1.0231089E2,7.6221466E0,3.8562035E1,6.273175E1,8.2943325E0,2.9047094E1,1.4720432E1,2.455789E1,1.604929E2,1.9131931E1,9.129708E1,1.5965539E1,1.3246617E1,3.4054236E0,1.2640146E2,5.0563793E1,5.1747097E1],"tree_param":{"num_deleted":"0","num_feature":"6","num_nodes":"31","size_leaf_vector":"0"}},{"base_weights":[1.3404238E-3,2.1004528E-1,-2.4165186E-1,4.4489372E-1,-1.05171755E-1,-4.9400908E-1,-8.896256E-2,1.2418421E-1,1.1327679E0,2.7985004E-1,-4.67155E-1,-5.2681667E-1,-2.2724088E-1,3.6096238E-2,-4.583705E-1,-3.4886846E-1,3.289861E-1,7.663593E-1,1.3581758E0,1.4160949E0,-7.944983E-2,1.3570186E-1,-5.4423255E-1,-5.4633886E-1,-3.4830478E-1,-5.0625956E-1,5.8559877E-1,-3.3490184E-1,2.8620684E-1,-5.417021E-1,6.52492E-2],"categories":[],"categories_nodes":[],"categories_segments":[],"categories_sizes":[],"default_left":[true,true,true,true,true,false,true,true,true,true,true,true,true,true,true,false,false,false,false,false,false,false,false,false,false,false,false,false,false,false,false],"id":16,"left_children":[1,3,5,7,9,11,13,15,17,19,21,23,25,27,29,-1,-1,-1,-1,-1,-1,-1,-1,-1,-1,-1,-1,-1,-1,-1,-1],"loss_changes":[3.6519604E1,2.8724188E1,1.2776817E1,4.8874706E1,2.3294441E1,9.7610664E-1,9.6497E0,1.4904465E1,4.7840576E0,3.3247547E1,4.071768E0,1.9562149E-1,3.8051333E0,1.4636965E1,2.339713E0,0E0,0E0,0E0,0E0,0E0,0E0,0E0,0E0,0E0,0E0,0E0,0E0,0E0,0E0,0E0,0E0],"parents":[2147483647,0,0,1,1,2,2,3,3,4,4,5,5,6,6,7,7,8,8,9,9,10,10,11,11,12,12,13,13,14,14],"right_children":[2,4,6,8,10,12,14,16,18,20,22,24,26,28,30,-1,-1,-1,-1,-1,-1,-1,-1,-1,-1,-1,-1,-1,-1,-1,-1],"split_conditions":[2.4999999E-2,1.55E0,2.75E0,1.325E1,3.75E0,2.3E1,1.005E1,6.95E0,7.3500004E0,1.6500001E0,7.5E0,2.65E0,1.55E0,6.55E0,3.85E0,-3.488685E-2,3.2898612E-2,7.6635934E-2,1.3581757E-1,1.4160949E-1,-7.944983E-3,1.3570187E-2,-5.4423254E-2,-5.4633886E-2,-3.4830477E-2,-5.0625958E-2,5.8559876E-2,-3.3490185E-2,2.8620685E-2,-5.417021E-2,6.52492E-3],"split_indices":[1,4,2,5,2,5,3,3,3,4,0,2,4,3,2,0,0,0,0,0,0,0,0,0,0,0,0,0,0,0,0],"split_type":[0,0,0,0,0,0,0,0,0,0,0,0,0,0,0,0,0,0,0,0,0,0,0,0,0,0,0,0,0,0,0],"sum_hessian":[7.181128E2,3.863846E2,3.317282E2,2.2118336E2,1.6520125E2,1.2420802E2,2.0752017E2,1.5165662E2,6.952676E1,8.016307E1,8.503817E1,1.09737526E2,1.4470495E1,1.5570898E2,5.181119E1,4.5607857E1,1.0604875E2,2.8156784E1,4.1369972E1,1.8552294E1,6.1610775E1,9.55373E0,7.548444E1,9.70622E1,1.267533E1,1.1053424E1,3.4170718E0,6.2565018E1,9.314397E1,4.4667965E1,7.1432266E0],"tree_param":{"num_deleted":"0","num_feature":"6","num_nodes":"31","size_leaf_vector":"0"}},{"base_weights":[4.2380448E-4,-4.1980967E-1,3.167666E-1,-1.3963294E-1,-5.494695E-1,5.30064E-1,-2.0917374E-1,-3.5743815E-1,4.2063454E-1,2.4451045E-2,9.946746E-1,-3.8517722E-1,2.0307943E-1,-5.416493E-1,1.1454912E-1,-5.130581E-1,1.0948023E0,1.1628187E0,-3.5670856E-1,4.0626413E-1,1.8554763E0,-1.9010166E-2,-5.427679E-1,-5.2591026E-1,1.0854822E0],"categories":[],"categories_nodes":[],"categories_segments":[],"categories_sizes":[],"default_left":[true,true,true,false,false,true,true,true,true,true,true,true,true,false,false,false,false,false,false,false,false,false,false,false,false],"id":17,"left_children":[1,3,5,7,-1,9,11,13,15,17,19,21,23,-1,-1,-1,-1,-1,-1,-1,-1,-1,-1,-1,-1],"loss_changes":[9.5827415E1,1.11698265E1,4.6246384E1,1.226595E1,0E0,6.877637E1,8.740186E0,6.324929E0,1.8345354E1,6.1714046E1,7.6539795E1,4.8372765E0,2.3968029E1,0E0,0E0,0E0,0E0,0E0,0E0,0E0,0E0,0E0,0E0,0E0,0E0],"parents":[2147483647,0,0,1,1,2,2,3,3,5,5,6,6,7,7,8,8,9,9,10,10,11,11,12,12],"right_children":[2,4,6,8,-1,10,12,14,16,18,20,22,24,-1,-1,-1,-1,-1,-1,-1,-1,-1,-1,-1,-1],"split_conditions":[3.15E0,1.5E-2,3.5E-2,1.075E1,-5.4946948E-2,5E-3,6.5E0,9.85E0,5E-3,8.200001E0,1.45E0,7.95E0,9.55E0,-5.4164927E-2,1.1454913E-2,-5.130581E-2,1.09480225E-1,1.1628187E-1,-3.5670858E-2,4.0626414E-2,1.8554763E-1,-1.9010166E-3,-5.427679E-2,-5.2591026E-2,1.08548224E-1],"split_indices":[2,1,1,5,0,1,0,3,1,3,4,3,3,0,0,0,0,0,0,0,0,0,0,0,0],"split_type":[0,0,0,0,0,0,0,0,0,0,0,0,0,0,0,0,0,0,0,0,0,0,0,0,0],"sum_hessian":[7.1884344E2,3.085865E2,4.10257E2,9.8284454E1,2.1030205E2,2.918771E2,1.1837987E2,7.1032455E1,2.7251999E1,1.4027518E2,1.5160194E2,8.3007225E1,3.5372643E1,5.0985725E1,2.0046726E1,1.1526827E1,1.5725172E1,3.467234E1,1.0560283E2,9.092269E1,6.0679253E1,2.5312775E1,5.7694447E1,1.9591387E1,1.5781258E1],"tree_param":{"num_deleted":"0","num_feature":"6","num_nodes":"25","size_leaf_vector":"0"}},{"base_weights":[-3.856053E-3,4.968305E-1,-5.504331E-1,-5.512247E-1,1.3436543E0,2.8316865E0,-5.477974E-1,-4.9847597E-1,3.1175878E0],"categories":[],"categories_nodes":[],"categories_segments":[],"categories_sizes":[],"default_left":[true,true,false,false,true,true,false,false,false],"id":18,"left_children":[1,3,-1,-1,5,7,-1,-1,-1],"loss_changes":[1.9814803E2,3.3613034E2,0E0,0E0,5.9064825E2,1.1324188E2,0E0,0E0,0E0],"parents":[2147483647,0,0,1,1,4,4,5,5],"right_children":[2,4,-1,-1,6,8,-1,-1,-1],"split_conditions":[5.5E0,9.15E0,-5.504331E-2,-5.5122472E-2,9.75E0,3.5E0,-5.477974E-2,-4.98476E-2,3.117588E-1],"split_indices":[0,3,0,0,3,0,0,0,0],"split_type":[0,0,0,0,0,0,0,0,0],"sum_hessian":[7.2205725E2,3.7689618E2,3.4516104E2,1.6859137E2,2.0830482E2,1.1630718E2,9.1997635E1,9.136951E0,1.0717023E2],"tree_param":{"num_deleted":"0","num_feature":"6","num_nodes":"9","size_leaf_vector":"0"}},{"base_weights":[-5.623003E-3,-5.511421E-1,1.679583E0,2.884909E0,-5.4319996E-1,-4.743731E-1,3.0657158E0],"categories":[],"categories_nodes":[],"categories_segments":[],"categories_sizes":[],"default_left":[true,false,true,true,false,false,false],"id":19,"left_children":[1,-1,3,5,-1,-1,-1],"loss_changes":[6.6684375E2,0E0,4.7682428E2,7.141095E1,0E0,0E0,0E0],"parents":[2147483647,0,0,2,2,3,3],"right_children":[2,-1,4,6,-1,-1,-1],"split_conditions":[3.95E0,-5.511421E-2,5E-3,1.55E0,-5.4319996E-2,-4.743731E-2,3.0657157E-1],"split_indices":[2,0,1,4,0,0,0],"split_type":[0,0,0,0,0,0,0],"sum_hessian":[7.2336566E2,5.469765E2,1.7638916E2,1.1417744E2,6.2211727E1,5.7485824E0,1.08428856E2],"tree_param":{"num_deleted":"0","num_feature":"6","num_nodes":"7","size_leaf_vector":"0"}},{"base_weights":[-1.2835865E-3,8.815698E-1,-4.6256784E-1,-1.0377967E-1,1.2839549E0,1.2696412E-1,-5.4234076E-1,7.087315E-1,-5.3817135E-1,1.0027046E0,1.679711E0,-4.704412E-1,9.525782E-1,-5.474007E-1,-4.127995E-1,-1.9123653E-1,1.5643166E0,1.4009306E0,-3.6687103E-1,2.1356688E0,1.3715465E0,-5.3115547E-1,-2.9429015E-2,-4.6250424E-1,1.3677875E0,2.0247435E-2,-5.144476E-1],"categories":[],"categories_nodes":[],"categories_segments":[],"categories_sizes":[],"default_left":[true,true,true,true,true,true,true,true,false,true,true,true,true,false,true,false,false,false,false,false,false,false,false,false,false,false,false],"id":20,"left_children":[1,3,5,7,9,11,13,15,-1,17,19,21,23,-1,25,-1,-1,-1,-1,-1,-1,-1,-1,-1,-1,-1,-1],"loss_changes":[2.929729E2,9.8020935E1,2.2290504E1,2.5974304E1,1.783603E1,2.8625164E1,4.6966553E-2,2.0082748E1,0E0,5.7780533E1,7.099716E0,8.897681E-1,1.4918312E1,0E0,8.7844205E-1,0E0,0E0,0E0,0E0,0E0,0E0,0E0,0E0,0E0,0E0,0E0,0E0],"parents":[2147483647,0,0,1,1,2,2,3,3,4,4,5,5,6,6,7,7,9,9,10,10,11,11,12,12,14,14],"right_children":[2,4,6,8,10,12,14,16,-1,18,20,22,24,-1,26,-1,-1,-1,-1,-1,-1,-1,-1,-1,-1,-1,-1],"split_conditions":[2.75E0,2.4999999E-2,2.95E0,2.15E0,1.005E1,1.025E1,1.8499999E0,1E1,-5.3817134E-2,6.8500004E0,2.15E0,1.75E0,2.4999999E-2,-5.474007E-2,2.5E0,-1.9123653E-2,1.5643166E-1,1.4009307E-1,-3.6687102E-2,2.1356688E-1,1.3715465E-1,-5.3115547E-2,-2.9429016E-3,-4.6250425E-2,1.3677876E-1,2.0247435E-3,-5.1444765E-2],"split_indices":[2,1,2,2,3,3,4,3,0,3,2,4,1,0,0,0,0,0,0,0,0,0,0,0,0,0,0],"split_type":[0,0,0,0,0,0,0,0,0,0,0,0,0,0,0,0,0,0,0,0,0,0,0,0,0,0,0],"sum_hessian":[7.173983E2,2.4588573E2,4.715126E2,7.1511765E1,1.7437396E2,5.6128002E1,4.1538458E2,2.4693003E1,4.681876E1,1.0399907E2,7.037489E1,3.2814198E1,2.3313803E1,3.9666498E2,1.8719618E1,1.2412792E1,1.2280211E1,8.0553856E1,2.3445215E1,2.5990005E1,4.438489E1,2.8663662E1,4.150536E0,5.262993E0,1.805081E1,3.7109265E0,1.5008692E1],"tree_param":{"num_deleted":"0","num_feature":"6","num_nodes":"27","size_leaf_vector":"0"}},{"base_weights":[2.915128E-3,4.5398384E-1,-3.3858517E-1,7.789786E-1,3.4055042E-1,-5.46235E-1,-2.1634834E-2,6.870411E-1,1.3295246E0,-1.3770151E-1,5.22364E-1,4.5394298E-1,-4.2462435E-1,8.204757E-1,2.4214393E-1,5.9525436E-1,1.8400372E0,3.011322E-1,-5.3918636E-1,3.6784565E-1,8.817199E-1,9.6130043E-1,1.9288938E-1,-4.9342874E-1,2.6364723E-2],"categories":[],"categories_nodes":[],"categories_segments":[],"categories_sizes":[],"default_left":[true,true,true,true,true,false,true,false,true,true,true,true,true,false,false,false,false,false,false,false,false,false,false,false,false],"id":21,"left_children":[1,3,5,7,9,-1,11,13,15,17,19,21,23,-1,-1,-1,-1,-1,-1,-1,-1,-1,-1,-1,-1],"loss_changes":[1.1051796E2,1.1131088E1,2.6862206E1,3.0955963E0,2.0151968E1,0E0,3.1368526E1,3.9533234E0,2.7524643E0,1.1508809E1,8.978107E0,9.761031E0,2.7613573E0,0E0,0E0,0E0,0E0,0E0,0E0,0E0,0E0,0E0,0E0,0E0,0E0],"parents":[2147483647,0,0,1,1,2,2,3,3,4,4,6,6,7,7,8,8,9,9,10,10,11,11,12,12],"right_children":[2,4,6,8,10,-1,12,14,16,18,20,22,24,-1,-1,-1,-1,-1,-1,-1,-1,-1,-1,-1,-1],"split_conditions":[3.05E0,4.5E-1,2.4999999E-2,1.075E1,9.5E-1,-5.4623503E-2,3.65E0,9.75E0,1.005E1,2.55E0,1.75E0,5.95E0,1.0950001E1,8.2047574E-2,2.4214393E-2,5.9525438E-2,1.8400373E-1,3.011322E-2,-5.3918637E-2,3.6784567E-2,8.817199E-2,9.613004E-2,1.9288938E-2,-4.9342874E-2,2.6364725E-3],"split_indices":[2,4,1,5,4,0,2,5,3,2,4,3,3,0,0,0,0,0,0,0,0,0,0,0,0],"split_type":[0,0,0,0,0,0,0,0,0,0,0,0,0,0,0,0,0,0,0,0,0,0,0,0,0],"sum_hessian":[7.1546436E2,3.081357E2,4.0732864E2,7.820515E1,2.2993057E2,2.4566075E2,1.6166791E2,6.894048E1,9.264668E0,6.34007E1,1.6652986E2,7.409736E1,8.757055E1,5.238489E1,1.6555592E1,4.687964E0,4.576704E0,3.0410816E1,3.2989883E1,1.17870636E2,4.8659233E1,2.426193E1,4.9835426E1,7.58973E1,1.1673245E1],"tree_param":{"num_deleted":"0","num_feature":"6","num_nodes":"25","size_leaf_vector":"0"}},{"base_weights":[3.0461052E-3,2.4516726E-1,-4.2011267E-1,6.418757E-2,3.9340967E-1,-5.222882E-1,-2.5516444E-1,6.620152E-1,-5.7129964E-2,-8.1529945E-2,4.8288473E-1,-2.9161224E-1,-5.3428876E-1,1.269438E-1,-4.019192E-1,1.0182806E0,3.1334633E-1,-1.7394668E-1,6.6580635E-1,-4.6096918E-1,6.414537E-2,1.0361079E0,4.251161E-1,-4.7322157E-1,1.0140167E-1,-1.1675605E-1,2.8191796E-1,-5.307713E-1,5.2978903E-2],"categories":[],"categories_nodes":[],"categories_segments":[],"categories_sizes":[],"default_left":[true,true,true,true,true,true,true,true,true,true,true,true,false,true,true,false,false,false,false,false,false,false,false,false,false,false,false,false,false],"id":22,"left_children":[1,3,5,7,9,11,13,15,17,19,21,23,-1,25,27,-1,-1,-1,-1,-1,-1,-1,-1,-1,-1,-1,-1,-1,-1],"loss_changes":[7.353435E1,1.22222595E1,4.269047E0,1.50328045E1,1.0695251E1,2.8805542E-1,5.7633944E0,4.0233107E0,1.470835E1,2.2741168E0,6.3075943E0,7.7105904E-1,0E0,1.1292002E0,4.3562565E0,0E0,0E0,0E0,0E0,0E0,0E0,0E0,0E0,0E0,0E0,0E0,0E0,0E0,0E0],"parents":[2147483647,0,0,1,1,2,2,3,3,4,4,5,5,6,6,7,7,8,8,9,9,10,10,11,11,13,13,14,14],"right_children":[2,4,6,8,10,12,14,16,18,20,22,24,-1,26,28,-1,-1,-1,-1,-1,-1,-1,-1,-1,-1,-1,-1,-1,-1],"split_conditions":[3.55E0,2.4999999E-2,2.4999999E-2,4.5E-1,2.15E0,3.5000002E-1,6.95E0,6.5E0,1.75E0,3.5000002E-1,1.5E-1,1E1,-5.3428877E-2,9.5E-1,1.015E1,1.0182806E-1,3.1334635E-2,-1.7394667E-2,6.658064E-2,-4.6096917E-2,6.4145373E-3,1.0361079E-1,4.251161E-2,-4.7322158E-2,1.0140168E-2,-1.1675606E-2,2.8191796E-2,-5.307713E-2,5.2978904E-3],"split_indices":[2,1,1,4,2,4,3,3,4,4,4,3,0,4,3,0,0,0,0,0,0,0,0,0,0,0,0,0,0],"split_type":[0,0,0,0,0,0,0,0,0,0,0,0,0,0,0,0,0,0,0,0,0,0,0,0,0,0,0,0,0],"sum_hessian":[7.1571326E2,4.5550504E2,2.6020825E2,2.0575043E2,2.497546E2,1.5934021E2,1.0086805E2,3.395759E1,1.7179285E2,3.9606976E1,2.1014761E2,9.13063E0,1.5020958E2,2.8027441E1,7.284061E1,1.5845937E1,1.8111652E1,1.4854877E2,2.324408E1,1.038719E1,2.9219784E1,1.8268007E1,1.9187961E2,6.1053166E0,3.0253131E0,1.0990803E1,1.703664E1,5.663241E1,1.6208199E1],"tree_param":{"num_deleted":"0","num_feature":"6","num_nodes":"29","size_leaf_vector":"0"}},{"base_weights":[3.20915E-3,1.147983E-1,-3.6203223E-1,3.1330246E-1,-5.40834E-3,1.8935762E-2,-4.9141482E-1,8.688516E-2,4.8137543E-1,-1.6518445E-1,1.7514202E-1,-2.5564647E-1,3.8611487E-1,-5.4389423E-1,4.6024776E-1,4.3974575E-1,-1.2161376E-1,6.551118E-1,9.384213E-2,2.529706E-1,-3.3037654E-1,-1.9473091E-1,3.753559E-1,-4.16278E-1,3.164776E-1,6.833126E-1,1.340945E-1],"categories":[],"categories_nodes":[],"categories_segments":[],"categories_sizes":[],"default_left":[true,true,true,true,true,true,true,true,true,true,true,true,true,false,false,false,false,false,false,false,false,false,false,false,false,false,false],"id":23,"left_children":[1,3,5,7,9,11,13,15,17,19,21,23,25,-1,-1,-1,-1,-1,-1,-1,-1,-1,-1,-1,-1,-1,-1],"loss_changes":[2.9249098E1,1.3117871E1,8.287548E0,7.848299E0,9.933541E0,4.488498E0,6.5135E0,6.64223E0,7.93585E0,1.2701321E1,1.2045895E1,2.476419E0,1.3335264E0,0E0,0E0,0E0,0E0,0E0,0E0,0E0,0E0,0E0,0E0,0E0,0E0,0E0,0E0],"parents":[2147483647,0,0,1,1,2,2,3,3,4,4,5,5,6,6,7,7,8,8,9,9,10,10,11,11,12,12],"right_children":[2,4,6,8,10,12,14,16,18,20,22,24,26,-1,-1,-1,-1,-1,-1,-1,-1,-1,-1,-1,-1,-1,-1],"split_conditions":[3.85E0,6.6499996E0,1.45E0,2.75E0,1.005E1,2.4999999E-2,1.75E0,2.4999999E-2,1.45E0,2.85E0,2.55E0,9.5E-1,7.95E0,-5.4389425E-2,4.6024777E-2,4.3974575E-2,-1.2161377E-2,6.551118E-2,9.384213E-3,2.529706E-2,-3.3037655E-2,-1.947309E-2,3.753559E-2,-4.1627802E-2,3.164776E-2,6.8331264E-2,1.3409451E-2],"split_indices":[2,3,4,2,3,1,4,1,4,2,2,4,3,0,0,0,0,0,0,0,0,0,0,0,0,0,0],"split_type":[0,0,0,0,0,0,0,0,0,0,0,0,0,0,0,0,0,0,0,0,0,0,0,0,0,0,0],"sum_hessian":[7.1562665E2,5.48679E2,1.6694762E2,2.0633679E2,3.4234225E2,4.2540485E1,1.24407135E2,8.855629E1,1.177805E2,1.8166492E2,1.6067732E2,2.4513021E1,1.8027462E1,1.1831134E2,6.0957975E0,3.2479443E1,5.6076847E1,8.0845795E1,3.6934708E1,5.129335E1,1.3037157E2,5.643932E1,1.04238E2,1.9352068E1,5.160954E0,7.486999E0,1.0540463E1],"tree_param":{"num_deleted":"0","num_feature":"6","num_nodes":"27","size_leaf_vector":"0"}},{"base_weights":[3.087712E-3,1.8947724E-1,-1.4697668E-1,-5.317553E-2,3.4103227E-1,-3.8003817E-1,7.120817E-2,-4.7182053E-1,7.078031E-2,4.4535825E-1,3.9812032E-2,2.0570572E-1,-4.579947E-1,-1.4145724E-1,2.8994596E-1,-5.0575536E-1,-1.4470553E-1,5.0249785E-1,-1.1944007E-1,5.884849E-1,1.7250533E-1,-8.252062E-2,1.1667694E0,-8.750637E-2,3.804117E-1,2.6414084E-1,-4.910148E-1,-4.874525E-1,-2.014608E-2,-3.54701E-1,4.380436E-1],"categories":[],"categories_nodes":[],"categories_segments":[],"categories_sizes":[],"default_left":[true,true,true,true,true,true,true,true,true,true,true,true,true,true,true,false,false,false,false,false,false,false,false,false,false,false,false,false,false,false,false],"id":24,"left_children":[1,3,5,7,9,11,13,15,17,19,21,23,25,27,29,-1,-1,-1,-1,-1,-1,-1,-1,-1,-1,-1,-1,-1,-1,-1,-1],"loss_changes":[2.0074482E1,1.1789939E1,2.024556E1,6.4645324E0,6.1784096E0,8.880009E0,9.633005E0,2.4253511E-1,7.9837303E0,5.61388E0,7.24041E0,1.226324E0,4.186146E0,4.4067216E0,9.891146E0,0E0,0E0,0E0,0E0,0E0,0E0,0E0,0E0,0E0,0E0,0E0,0E0,0E0,0E0,0E0,0E0],"parents":[2147483647,0,0,1,1,2,2,3,3,4,4,5,5,6,6,7,7,8,8,9,9,10,10,11,11,12,12,13,13,14,14],"right_children":[2,4,6,8,10,12,14,16,18,20,22,24,26,28,30,-1,-1,-1,-1,-1,-1,-1,-1,-1,-1,-1,-1,-1,-1,-1,-1],"split_conditions":[8.55E0,2.85E0,9.75E0,4.5E-1,7.1499996E0,2.95E0,3.05E0,7.1499996E0,9.5E-1,1.45E0,1.75E0,7.25E0,4.5E-1,4.5E-1,1.005E1,-5.0575536E-2,-1.4470554E-2,5.0249785E-2,-1.1944007E-2,5.884849E-2,1.7250534E-2,-8.252062E-3,1.1667694E-1,-8.750637E-3,3.804117E-2,2.6414085E-2,-4.9101483E-2,-4.8745252E-2,-2.014608E-3,-3.5470102E-2,4.380436E-2],"split_indices":[3,2,3,4,3,2,2,3,4,4,4,5,4,4,3,0,0,0,0,0,0,0,0,0,0,0,0,0,0,0,0],"split_type":[0,0,0,0,0,0,0,0,0,0,0,0,0,0,0,0,0,0,0,0,0,0,0,0,0,0,0,0,0,0,0],"sum_hessian":[7.1570807E2,3.191013E2,3.9660675E2,1.2292954E2,1.9617175E2,1.9140704E2,2.051997E2,2.7441847E1,9.548769E1,1.4535153E2,5.082023E1,2.228969E1,1.6911736E2,1.04223175E2,1.0097653E2,2.4367826E1,3.07402E0,2.8702908E1,6.678478E1,9.458147E1,5.0770065E1,4.6679848E1,4.1403813E0,8.508631E0,1.3781058E1,7.0888104E0,1.6202855E2,2.6272469E1,7.795071E1,1.8603447E1,8.2373085E1],"tree_param":{"num_deleted":"0","num_feature":"6","num_nodes":"31","size_leaf_vector":"0"}},{"base_weights":[3.0423861E-3,1.8934341E-1,-1.7781174E-1,-1.902696E-1,3.3815902E-1,9.165528E-2,-3.4685743E-1,1.8432583E-1,-4.4366923E-1,6.426041E-1,2.6439553E-1,-4.2562198E-2,5.537975E-1,-4.965835E-1,-1.6139582E-1,-3.424791E-2,6.0861444E-1,-5.227306E-1,8.715759E-2,5.345519E-1,1.5832245E0,1.6897535E-1,5.3850555E-1,-4.4585E-1,5.406811E-2,1.0099166E-1,1.0217252E0,1.24480195E-1,-5.156465E-1,-4.369825E-1,9.7235434E-2],"categories":[],"categories_nodes":[],"categories_segments":[],"categories_sizes":[],"default_left":[true,true,true,true,true,true,true,true,true,true,true,true,true,true,true,false,false,false,false,false,false,false,false,false,false,false,false,false,false,false,false],"id":25,"left_children":[1,3,5,7,9,11,13,15,17,19,21,23,25,27,29,-1,-1,-1,-1,-1,-1,-1,-1,-1,-1,-1,-1,-1,-1,-1,-1],"loss_changes":[2.4181683E1,2.0035418E1,1.6621109E1,9.592757E0,5.541363E0,8.780775E0,6.1399765E0,3.8357973E0,2.5661812E0,4.1239033E0,5.3080187E0,4.3238964E0,6.644372E0,1.5258656E0,7.279838E0,0E0,0E0,0E0,0E0,0E0,0E0,0E0,0E0,0E0,0E0,0E0,0E0,0E0,0E0,0E0,0E0],"parents":[2147483647,0,0,1,1,2,2,3,3,4,4,5,5,6,6,7,7,8,8,9,9,10,10,11,11,12,12,13,13,14,14],"right_children":[2,4,6,8,10,12,14,16,18,20,22,24,26,28,30,-1,-1,-1,-1,-1,-1,-1,-1,-1,-1,-1,-1,-1,-1,-1,-1],"split_conditions":[9.15E0,2.65E0,1.05E0,2.4999999E-2,5E-3,3.65E0,9.75E0,1.45E0,7.95E0,9.5E0,3.75E0,9.35E0,1.1299999E1,1.45E0,2.95E0,-3.424791E-3,6.0861446E-2,-5.227306E-2,8.715759E-3,5.3455193E-2,1.5832245E-1,1.6897535E-2,5.3850558E-2,-4.4585E-2,5.4068114E-3,1.0099166E-2,1.0217252E-1,1.2448019E-2,-5.1564652E-2,-4.369825E-2,9.723543E-3],"split_indices":[3,2,4,1,1,2,3,4,3,0,2,3,3,4,2,0,0,0,0,0,0,0,0,0,0,0,0,0,0,0,0],"split_type":[0,0,0,0,0,0,0,0,0,0,0,0,0,0,0,0,0,0,0,0,0,0,0,0,0,0,0,0,0,0,0],"sum_hessian":[7.157006E2,3.5251834E2,3.6318228E2,9.919746E1,2.5332088E2,1.4018246E2,2.2299982E2,4.0136734E1,5.906072E1,4.790211E1,2.0541876E2,1.09336395E2,3.0846077E1,1.22459114E2,1.0054071E2,2.7096937E1,1.3039799E1,5.1417805E1,7.642915E0,4.4373123E1,3.5289896E0,1.5357454E2,5.1844227E1,2.0435326E1,8.890107E1,1.6294237E1,1.4551838E1,3.4821641E0,1.1897695E2,4.8340977E1,5.219973E1],"tree_param":{"num_deleted":"0","num_feature":"6","num_nodes":"31","size_leaf_vector":"0"}},{"base_weights":[2.354954E-3,1.9733474E-1,-2.33168E-1,4.052857E-1,-9.7213626E-2,-4.881522E-1,-8.5109174E-2,4.4965733E-2,8.751491E-1,2.6231268E-1,-4.5963758E-1,-5.223129E-1,-2.174971E-1,2.646961E-1,-2.1138884E-1,-1.1436835E-1,7.385091E-1,4.9107957E-1,1.0807196E0,1.2024677E0,-7.295808E-2,1.2844741E-1,-5.40206E-1,-5.4274493E-1,-3.3923355E-1,-5.012077E-1,5.4365826E-1,-3.045484E-1,5.736836E-1,-2.995995E-2,-3.5887486E-1],"categories":[],"categories_nodes":[],"categories_segments":[],"categories_sizes":[],"default_left":[true,true,true,false,true,false,true,true,true,true,true,true,true,true,true,false,false,false,false,false,false,false,false,false,false,false,false,false,false,false,false],"id":26,"left_children":[1,3,5,7,9,11,13,15,17,19,21,23,25,27,29,-1,-1,-1,-1,-1,-1,-1,-1,-1,-1,-1,-1,-1,-1,-1,-1],"loss_changes":[3.297464E1,2.4101017E1,1.2236368E1,3.897758E1,2.1408314E1,9.890423E-1,9.19809E0,1.4614574E1,7.3623047E0,2.6139977E1,3.9414787E0,2.093277E-1,3.528743E0,9.908354E0,4.07312E0,0E0,0E0,0E0,0E0,0E0,0E0,0E0,0E0,0E0,0E0,0E0,0E0,0E0,0E0,0E0,0E0],"parents":[2147483647,0,0,1,1,2,2,3,3,4,4,5,5,6,6,7,7,8,8,9,9,10,10,11,11,12,12,13,13,14,14],"right_children":[2,4,6,8,10,12,14,16,18,20,22,24,26,28,30,-1,-1,-1,-1,-1,-1,-1,-1,-1,-1,-1,-1,-1,-1,-1,-1],"split_conditions":[2.4999999E-2,1.55E0,2.75E0,1.325E1,3.75E0,2.3E1,3.5E0,8.5E0,7.25E0,1.6500001E0,7.5E0,2.65E0,1.55E0,6.75E0,9.55E0,-1.1436835E-2,7.3850915E-2,4.9107958E-2,1.0807196E-1,1.2024677E-1,-7.2958083E-3,1.2844741E-2,-5.4020602E-2,-5.4274496E-2,-3.3923354E-2,-5.012077E-2,5.4365825E-2,-3.0454842E-2,5.7368364E-2,-2.995995E-3,-3.5887487E-2],"split_indices":[1,4,2,5,2,5,0,0,3,4,0,2,4,3,3,0,0,0,0,0,0,0,0,0,0,0,0,0,0,0,0],"split_type":[0,0,0,0,0,0,0,0,0,0,0,0,0,0,0,0,0,0,0,0,0,0,0,0,0,0,0,0,0,0,0],"sum_hessian":[7.1605225E2,3.9183243E2,3.2421982E2,2.2945874E2,1.6237367E2,1.1825913E2,2.059607E2,1.3048816E2,9.897059E1,8.165136E1,8.072231E1,1.0418022E2,1.4078908E1,5.433953E1,1.5162115E2,1.0678952E2,2.3698639E1,3.5686325E1,6.3284264E1,2.078374E1,6.0867622E1,9.654911E0,7.10674E1,9.195349E1,1.2226727E1,1.0504872E1,3.5740354E0,1.9123278E1,3.5216255E1,6.852668E1,8.3094475E1],"tree_param":{"num_deleted":"0","num_feature":"6","num_nodes":"31","size_leaf_vector":"0"}},{"base_weights":[6.4893067E-4,-4.1214052E-1,2.9212403E-1,-1.3268769E-1,-5.4617333E-1,4.808946E-1,-2.0209037E-1,-5.39317E-1,1.555399E-1,2.739977E-2,8.621165E-1,-2.9088455E-1,5.5345E-1,1.6915119E0,-1.3386475E-1,6.7323816E-1,-5.43602E-1,-3.3137769E-1,1.1382381E0,-4.4760898E-1,7.7550677E-3,-4.7149792E-1,1.5276827E0],"categories":[],"categories_nodes":[],"categories_segments":[],"categories_sizes":[],"default_left":[true,true,true,true,false,true,true,false,true,true,true,true,true,false,false,false,false,false,false,false,false,false,false],"id":27,"left_children":[1,3,5,7,-1,9,11,-1,13,15,17,19,21,-1,-1,-1,-1,-1,-1,-1,-1,-1,-1],"loss_changes":[8.647885E1,1.1069607E1,3.9399757E1,1.1540075E1,0E0,5.272937E1,8.019764E0,0E0,2.5998621E1,5.2139023E1,5.4998833E1,4.9402914E0,1.3365499E1,0E0,0E0,0E0,0E0,0E0,0E0,0E0,0E0,0E0,0E0],"parents":[2147483647,0,0,1,1,2,2,3,3,5,5,6,6,8,8,9,9,10,10,11,11,12,12],"right_children":[2,4,6,8,-1,10,12,-1,14,16,18,20,22,-1,-1,-1,-1,-1,-1,-1,-1,-1,-1],"split_conditions":[3.15E0,1.5E-2,3.5E-2,2.65E0,-5.4617334E-2,5E-3,9.5E0,-5.3931702E-2,7.75E0,8.5E0,5.5E-1,1.55E0,9.75E0,1.6915119E-1,-1.3386475E-2,6.732382E-2,-5.43602E-2,-3.313777E-2,1.1382381E-1,-4.4760898E-2,7.755068E-4,-4.7149792E-2,1.5276827E-1],"split_indices":[2,1,1,2,0,1,0,0,5,0,4,4,3,0,0,0,0,0,0,0,0,0,0],"split_type":[0,0,0,0,0,0,0,0,0,0,0,0,0,0,0,0,0,0,0,0,0,0,0],"sum_hessian":[7.167527E2,2.9647226E2,4.2028043E2,9.674757E1,1.9972469E2,3.0413843E2,1.1614203E2,3.976967E1,5.69779E1,1.3939201E2,1.647464E2,1.0447831E2,1.1663717E1,8.265451E0,4.871245E1,6.532563E1,7.406639E1,3.0916096E1,1.3383029E2,6.819245E1,3.6285854E1,5.935386E0,5.7283306E0],"tree_param":{"num_deleted":"0","num_feature":"6","num_nodes":"23","size_leaf_vector":"0"}},{"base_weights":[-7.3575554E-3,4.4361398E-1,-5.471252E-1,-5.479797E-1,1.1316775E0,2.1444678E0,-5.44244E-1,-4.9519488E-1,2.3198376E0],"categories":[],"categories_nodes":[],"categories_segments":[],"categories_sizes":[],"default_left":[true,true,false,false,true,true,false,false,false],"id":28,"left_children":[1,3,-1,-1,5,7,-1,-1,-1],"loss_changes":[1.75617E2,2.6880255E2,0E0,0E0,3.9559222E2,6.8293274E1,0E0,0E0,0E0],"parents":[2147483647,0,0,1,1,4,4,5,5],"right_children":[2,4,-1,-1,6,8,-1,-1,-1],"split_conditions":[5.5E0,9.15E0,-5.4712523E-2,-5.4797973E-2,9.75E0,3.5E0,-5.44244E-2,-4.951949E-2,2.3198377E-1],"split_indices":[0,3,0,0,3,0,0,0,0],"split_type":[0,0,0,0,0,0,0,0,0],"sum_hessian":[7.194601E2,3.920683E2,3.2739178E2,1.606923E2,2.31376E2,1.4404648E2,8.732953E1,8.860134E0,1.3518634E2],"tree_param":{"num_deleted":"0","num_feature":"6","num_nodes":"9","size_leaf_vector":"0"}},{"base_weights":[-9.569559E-3,-5.479389E-1,1.3843313E0,2.1831493E0,-5.39328E-1,-4.688116E-1,2.29473E0],"categories":[],"categories_nodes":[],"categories_segments":[],"categories_sizes":[],"default_left":[true,false,true,true,false,false,false],"id":29,"left_children":[1,-1,3,5,-1,-1,-1],"loss_changes":[5.415685E2,0E0,3.101598E2,4.3175903E1,0E0,0E0,0E0],"parents":[2147483647,0,0,2,2,3,3],"right_children":[2,-1,4,6,-1,-1,-1],"split_conditions":[3.95E0,-5.479389E-2,5E-3,8.5E0,-5.3932797E-2,-4.688116E-2,2.29473E-1],"split_indices":[2,0,1,0,0,0,0],"split_type":[0,0,0,0,0,0,0],"sum_hessian":[7.196633E2,5.195885E2,2.0007487E2,1.4127443E2,5.8800446E1,5.574823E0,1.356996E2],"tree_param":{"num_deleted":"0","num_feature":"6","num_nodes":"7","size_leaf_vector":"0"}},{"base_weights":[-1.8156726E-3,6.600056E-1,-5.3901184E-1,-1.9333418E-1,9.911262E-1,-5.4431E-1,-4.0553388E-1,6.3915956E-1,-5.3883237E-1,6.964366E-1,1.3651552E0,2.3357095E-2,-5.1036644E-1,-1.8465559E-1,1.3323241E0,1.0660242E0,-3.0830607E-1,1.7387191E0,1.1803097E0],"categories":[],"categories_nodes":[],"categories_segments":[],"categories_sizes":[],"default_left":[true,true,true,true,true,false,true,true,false,true,true,false,false,false,false,false,false,false,false],"id":30,"left_children":[1,3,5,7,9,-1,11,13,-1,15,17,-1,-1,-1,-1,-1,-1,-1,-1],"loss_changes":[2.5436348E2,9.076453E1,5.8532715E-2,2.6359118E1,2.4521576E1,0E0,8.661363E-1,1.56554575E1,0E0,4.9085785E1,4.9080963E0,0E0,0E0,0E0,0E0,0E0,0E0,0E0,0E0],"parents":[2147483647,0,0,1,1,2,2,3,3,4,4,6,6,7,7,9,9,10,10],"right_children":[2,4,6,8,10,-1,12,14,-1,16,18,-1,-1,-1,-1,-1,-1,-1,-1],"split_conditions":[2.95E0,2.4999999E-2,1.8499999E0,2.15E0,1.005E1,-5.4431E-2,2.5E0,1E1,-5.3883236E-2,6.3500004E0,2.15E0,2.3357095E-3,-5.1036645E-2,-1.846556E-2,1.3323241E-1,1.0660242E-1,-3.0830607E-2,1.7387192E-1,1.18030965E-1],"split_indices":[2,1,4,2,3,0,0,3,0,3,2,0,0,0,0,0,0,0,0],"split_type":[0,0,0,0,0,0,0,0,0,0,0,0,0,0,0,0,0,0,0],"sum_hessian":[7.134524E2,3.1954587E2,3.9390652E2,8.9446625E1,2.3009923E2,3.7590778E2,1.7998728E1,2.5984886E1,6.346174E1,1.3030034E2,9.97989E1,3.687917E0,1.431081E1,1.22086735E1,1.3776212E1,9.521512E1,3.5085217E1,3.0252903E1,6.9546E1],"tree_param":{"num_deleted":"0","num_feature":"6","num_nodes":"19","size_leaf_vector":"0"}},{"base_weights":[4.0731467E-3,4.146238E-1,-3.2953715E-1,7.000283E-1,3.1228283E-1,-5.4298884E-1,-2.0371228E-2,6.193806E-1,1.1699067E0,-1.3510327E-1,4.7446084E-1,4.143374E-1,-4.1750884E-1,7.3198265E-1,2.2678222E-1,5.475697E-1,1.5720524E0,-5.4046357E-1,2.8888765E-1,7.1862704E-1,2.5660974E-1,2.6619992E-1,1.2351661E0,-1.4053762E-1,-5.383307E-1],"categories":[],"categories_nodes":[],"categories_segments":[],"categories_sizes":[],"default_left":[true,true,true,true,true,false,true,false,true,true,true,true,true,false,false,false,false,false,false,false,false,false,false,false,false],"id":31,"left_children":[1,3,5,7,9,-1,11,13,15,17,19,21,23,-1,-1,-1,-1,-1,-1,-1,-1,-1,-1,-1,-1],"loss_changes":[9.791232E1,9.142086E0,2.601627E1,2.4502335E0,1.7310461E1,0E0,2.8161865E1,3.0891151E0,1.9292498E0,1.1159004E1,9.107025E0,9.14379E0,2.7761984E0,0E0,0E0,0E0,0E0,0E0,0E0,0E0,0E0,0E0,0E0,0E0,0E0],"parents":[2147483647,0,0,1,1,2,2,3,3,4,4,6,6,7,7,8,8,9,9,10,10,11,11,12,12],"right_children":[2,4,6,8,10,-1,12,14,16,18,20,22,24,-1,-1,-1,-1,-1,-1,-1,-1,-1,-1,-1,-1],"split_conditions":[3.05E0,4.5E-1,2.4999999E-2,1.075E1,9.5E-1,-5.4298885E-2,3.65E0,9.75E0,1.005E1,2.4999999E-2,1.45E0,1.75E0,3.85E0,7.319827E-2,2.2678223E-2,5.475697E-2,1.5720524E-1,-5.404636E-2,2.8888766E-2,7.1862705E-2,2.5660975E-2,2.6619991E-2,1.2351661E-1,-1.4053762E-2,-5.3833067E-2],"split_indices":[2,4,1,5,4,0,2,5,3,1,4,4,2,0,0,0,0,0,0,0,0,0,0,0,0],"split_type":[0,0,0,0,0,0,0,0,0,0,0,0,0,0,0,0,0,0,0,0,0,0,0,0,0],"sum_hessian":[7.128791E2,3.1947766E2,3.9340143E2,8.278102E1,2.3669662E2,2.3227785E2,1.6112358E2,7.2632835E1,1.0148185E1,6.3018906E1,1.7367772E2,7.690247E1,8.422111E1,5.5772224E1,1.6860617E1,4.9105406E0,5.237644E0,3.2076847E1,3.094206E1,8.080889E1,9.286883E1,6.626732E1,1.063516E1,2.6237534E1,5.7983574E1],"tree_param":{"num_deleted":"0","num_feature":"6","num_nodes":"25","size_leaf_vector":"0"}},{"base_weights":[4.3678554E-3,2.2879161E-1,-4.123076E-1,3.3825737E-1,7.378123E-3,-5.1779574E-1,-2.4730787E-1,2.554475E-1,5.1493037E-1,-2.6059443E-1,3.7591073E-1,-2.8484908E-1,-5.303395E-1,1.17401294E-1,-3.9440998E-1,4.9527916E-1,1.6310627E-2,-1.672915E-1,6.8256414E-1,4.182325E-1,-4.9986398E-1,2.1150507E-1,8.214542E-1,-4.689766E-1,1.00836076E-1,2.8572556E-1,-9.8796226E-2,-5.27142E-1,5.0416812E-2],"categories":[],"categories_nodes":[],"categories_segments":[],"categories_sizes":[],"default_left":[true,true,true,true,true,true,true,true,true,true,true,true,false,true,true,false,false,false,false,false,false,false,false,false,false,false,false,false,false],"id":32,"left_children":[1,3,5,7,9,11,13,15,17,19,21,23,-1,25,27,-1,-1,-1,-1,-1,-1,-1,-1,-1,-1,-1,-1,-1,-1],"loss_changes":[6.689592E1,1.1266268E1,4.2307777E0,4.4199104E0,1.5389307E1,2.926407E-1,5.3886833E0,1.2253932E1,1.1355835E1,1.48662815E1,4.631263E0,7.5170875E-1,0E0,1.0978113E0,4.229721E0,0E0,0E0,0E0,0E0,0E0,0E0,0E0,0E0,0E0,0E0,0E0,0E0,0E0,0E0],"parents":[2147483647,0,0,1,1,2,2,3,3,4,4,5,5,6,6,7,7,8,8,9,9,10,10,11,11,13,13,14,14],"right_children":[2,4,6,8,10,12,14,16,18,20,22,24,-1,26,28,-1,-1,-1,-1,-1,-1,-1,-1,-1,-1,-1,-1,-1,-1],"split_conditions":[3.55E0,1.45E0,2.4999999E-2,9.5E-1,1.75E0,3.5000002E-1,6.95E0,4.5E-1,2.15E0,2.65E0,3.05E0,1E1,-5.3033948E-2,1.3499999E0,1.015E1,4.9527917E-2,1.6310627E-3,-1.6729152E-2,6.8256415E-2,4.182325E-2,-4.99864E-2,2.1150507E-2,8.214542E-2,-4.689766E-2,1.0083607E-2,2.8572557E-2,-9.879623E-3,-5.27142E-2,5.041681E-3],"split_indices":[2,4,1,4,4,4,3,4,2,2,2,3,0,4,3,0,0,0,0,0,0,0,0,0,0,0,0,0,0],"split_type":[0,0,0,0,0,0,0,0,0,0,0,0,0,0,0,0,0,0,0,0,0,0,0,0,0,0,0,0,0],"sum_hessian":[7.133648E2,4.6393674E2,2.4942805E2,3.1009805E2,1.538387E2,1.5084874E2,9.857931E1,2.1280046E2,9.729758E1,8.924125E1,6.459745E1,8.919263E0,1.4192949E2,2.8391176E1,7.0188126E1,1.0571112E2,1.0708935E2,1.919232E1,7.810526E1,2.3062666E1,6.617858E1,4.8263077E1,1.6334372E1,5.8909464E0,3.0283167E0,1.5782133E1,1.2609043E1,5.3915276E1,1.6272852E1],"tree_param":{"num_deleted":"0","num_feature":"6","num_nodes":"29","size_leaf_vector":"0"}},{"base_weights":[4.611997E-3,1.0885516E-1,-3.5270286E-1,2.9838383E-1,-1.7706348E-4,1.7310614E-2,-4.8544115E-1,7.673495E-2,4.649959E-1,-1.437655E-1,1.672297E-1,-2.4697281E-1,3.503888E-1,-5.4040086E-1,4.243606E-1,3.8583797E-1,-1.16697095E-1,6.240247E-1,8.814956E-2,-3.3129844E-1,1.637214E-1,-1.8381841E-1,3.4727302E-1,-4.0929022E-1,3.032887E-1,6.126855E-1,1.2049471E-1,2.2225112E-1,5.1453084E-1],"categories":[],"categories_nodes":[],"categories_segments":[],"categories_sizes":[],"default_left":[true,true,true,true,true,true,true,true,true,true,true,true,true,false,true,false,false,false,false,false,false,false,false,false,false,false,false,true,true],"id":33,"left_children":[1,3,5,7,9,11,13,15,17,19,21,23,25,-1,-1,-1,-1,-1,-1,-1,-1,-1,-1,-1,-1,-1,-1,-1,-1],"loss_changes":[2.6642914E1,1.1442295E1,7.9430256E0,7.431839E0,8.497268E0,3.9261978E0,6.1762657E0,5.3048606E0,6.851242E0,1.1026823E1,1.037951E1,2.3488235E0,1.1147757E0,0E0,1.9327402E-2,0E0,0E0,0E0,0E0,0E0,0E0,0E0,0E0,0E0,0E0,0E0,0E0,0E0,0E0],"parents":[2147483647,0,0,1,1,2,2,3,3,4,4,5,5,6,6,7,7,8,8,9,9,10,10,11,11,12,12,14,14],"right_children":[2,4,6,8,10,12,14,16,18,20,22,24,26,-1,-1,-1,-1,-1,-1,-1,-1,-1,-1,-1,-1,-1,-1,-1,-1],"split_conditions":[3.85E0,6.3500004E0,1.45E0,2.75E0,1.005E1,2.4999999E-2,1.75E0,2.4999999E-2,1.45E0,2.4999999E-2,2.55E0,9.5E-1,7.95E0,-5.4040086E-2,4.243606E-2,3.8583796E-2,-1.1669709E-2,6.240247E-2,8.814956E-3,-3.3129845E-2,1.637214E-2,-1.8381841E-2,3.47273E-2,-4.0929023E-2,3.032887E-2,6.126855E-2,1.2049471E-2,2.2225112E-2,5.1453084E-2],"split_indices":[2,3,4,2,3,1,4,1,4,1,2,4,3,0,3,0,0,0,0,0,0,0,0,0,0,0,0,2147483647,2147483647],"split_type":[0,0,0,0,0,0,0,0,0,0,0,0,0,0,0,0,0,0,0,0,0,0,0,0,0,0,0,0,0],"sum_hessian":[7.132607E2,5.527086E2,1.6055206E2,2.0121089E2,3.5149774E2,4.261911E1,1.1793295E2,8.697117E1,1.1423972E2,1.8928505E2,1.6221269E2,2.3907797E1,1.8711311E1,1.1159754E2,6.335413E0,3.3093422E1,5.3877747E1,7.9876144E1,3.4363575E1,1.1752835E2,7.175671E1,5.4984013E1,1.0722868E2,1.8659704E1,5.248093E0,7.9620104E0,1.0749302E1,3.0234292E0,3.3119838E0],"tree_param":{"num_deleted":"2","num_feature":"6","num_nodes":"29","size_leaf_vector":"0"}},{"base_weights":[4.369049E-3,1.7618077E-1,-1.3878703E-1,-1.2945178E-1,2.7852806E-1,-3.7048393E-1,6.841672E-2,-1.9998872E-1,5.4404724E-1,3.577812E-1,2.6832182E-2,1.8972872E-1,-4.504434E-1,-1.330765E-1,2.6698634E-1,-4.881069E-1,-1.0249129E-1,8.8909996E-1,1.3089572E-1,4.5460132E-1,1.5816961E-1,-9.263134E-2,1.1306366E0,-8.568483E-2,3.48297E-1,2.3866276E-1,-4.8468116E-1,-4.809247E-1,-1.707646E-2,-3.4945142E-1,4.0113094E-1],"categories":[],"categories_nodes":[],"categories_segments":[],"categories_sizes":[],"default_left":[true,true,true,true,true,true,true,true,false,true,true,true,true,true,true,false,false,false,false,false,false,false,false,false,false,false,false,false,false,false,false],"id":34,"left_children":[1,3,5,7,9,11,13,15,17,19,21,23,25,27,29,-1,-1,-1,-1,-1,-1,-1,-1,-1,-1,-1,-1,-1,-1,-1,-1],"loss_changes":[1.7597668E1,1.020784E1,1.8763031E1,4.0165997E0,4.856039E0,8.346214E0,8.313064E0,2.0621455E0,1.0336599E0,3.511732E0,7.9497595E0,1.0665109E0,3.9302063E0,4.1621475E0,8.784012E0,0E0,0E0,0E0,0E0,0E0,0E0,0E0,0E0,0E0,0E0,0E0,0E0,0E0,0E0,0E0,0E0],"parents":[2147483647,0,0,1,1,2,2,3,3,4,4,5,5,6,6,7,7,8,8,9,9,10,10,11,11,12,12,13,13,14,14],"right_children":[2,4,6,8,10,12,14,16,18,20,22,24,26,28,30,-1,-1,-1,-1,-1,-1,-1,-1,-1,-1,-1,-1,-1,-1,-1,-1],"split_conditions":[8.55E0,2.55E0,9.75E0,7.95E0,7.1499996E0,2.95E0,3.05E0,4.5E-1,7.25E0,1.45E0,1.75E0,7.25E0,4.5E-1,4.5E-1,1.005E1,-4.881069E-2,-1.02491295E-2,8.891E-2,1.3089572E-2,4.546013E-2,1.5816962E-2,-9.263135E-3,1.13063656E-1,-8.568483E-3,3.4829702E-2,2.3866277E-2,-4.8468117E-2,-4.809247E-2,-1.7076461E-3,-3.494514E-2,4.0113095E-2],"split_indices":[3,2,3,3,3,2,2,4,5,4,4,5,4,4,3,0,0,0,0,0,0,0,0,0,0,0,0,0,0,0,0],"split_type":[0,0,0,0,0,0,0,0,0,0,0,0,0,0,0,0,0,0,0,0,0,0,0,0,0,0,0,0,0,0,0],"sum_hessian":[7.134776E2,3.24178E2,3.892996E2,8.125803E1,2.4291997E2,1.8341522E2,2.0588438E2,7.4190926E1,7.0671086E0,1.8442682E2,5.8493156E1,2.2737652E1,1.6067757E2,1.02353615E2,1.0353077E2,1.774517E1,5.644575E1,3.2231925E0,3.8439164E0,1.2332939E2,6.109742E1,5.360737E1,4.885786E0,8.475824E0,1.4261828E1,7.322682E0,1.5335489E2,2.4810053E1,7.7543564E1,1.8216236E1,8.531453E1],"tree_param":{"num_deleted":"0","num_feature":"6","num_nodes":"31","size_leaf_vector":"0"}},{"base_weights":[4.311474E-3,1.7555016E-1,-1.684901E-1,-1.8371674E-1,3.1015956E-1,8.8508785E-2,-3.3672574E-1,1.6960825E-1,-4.3705636E-1,-4.3384943E-2,3.6038268E-1,-3.7892602E-2,5.016344E-1,-4.904255E-1,-1.5373985E-1,-4.7426873E-1,2.9427138E-1,-5.185955E-1,7.72095E-2,-3.5475597E-1,6.0386324E-1,6.47553E-1,1.8908022E-1,-4.682559E-1,4.596638E-2,9.0400875E-2,9.032823E-1,1.12677984E-1,-5.103711E-1,-4.2910233E-1,9.110365E-2],"categories":[],"categories_nodes":[],"categories_segments":[],"categories_sizes":[],"default_left":[true,true,true,true,true,true,true,true,true,true,true,true,true,true,true,false,false,false,false,false,false,false,false,false,false,false,false,false,false,false,false],"id":35,"left_children":[1,3,5,7,9,11,13,15,17,19,21,23,25,27,29,-1,-1,-1,-1,-1,-1,-1,-1,-1,-1,-1,-1,-1,-1,-1,-1],"loss_changes":[2.1168499E1,1.743325E1,1.54254465E1,8.896285E0,4.663231E0,7.416874E0,5.983059E0,3.50103E0,2.458767E0,6.955585E0,1.1157326E1,3.9700289E0,5.412019E0,1.4603367E0,6.767294E0,0E0,0E0,0E0,0E0,0E0,0E0,0E0,0E0,0E0,0E0,0E0,0E0,0E0,0E0,0E0,0E0],"parents":[2147483647,0,0,1,1,2,2,3,3,4,4,5,5,6,6,7,7,8,8,9,9,10,10,11,11,12,12,13,13,14,14],"right_children":[2,4,6,8,10,12,14,16,18,20,22,24,26,28,30,-1,-1,-1,-1,-1,-1,-1,-1,-1,-1,-1,-1,-1,-1,-1,-1],"split_conditions":[9.15E0,2.65E0,1.05E0,2.4999999E-2,3.5000002E-1,3.65E0,9.75E0,4.5E-1,7.95E0,6.3500004E0,9.5E-1,9.25E0,1.1299999E1,1.45E0,2.95E0,-4.7426876E-2,2.942714E-2,-5.1859554E-2,7.7209505E-3,-3.5475597E-2,6.0386326E-2,6.4755306E-2,1.8908022E-2,-4.682559E-2,4.596638E-3,9.040087E-3,9.032823E-2,1.1267799E-2,-5.103711E-2,-4.2910233E-2,9.110365E-3],"split_indices":[3,2,4,1,4,2,3,4,3,3,4,3,3,4,2,0,0,0,0,0,0,0,0,0,0,0,0,0,0,0,0],"split_type":[0,0,0,0,0,0,0,0,0,0,0,0,0,0,0,0,0,0,0,0,0,0,0,0,0,0,0,0,0,0,0],"sum_hessian":[7.133865E2,3.583056E2,3.5508087E2,9.755923E1,2.6074637E2,1.4066821E2,2.1441264E2,4.0878185E1,5.6681038E1,3.2450184E1,2.2829619E2,1.0840769E2,3.2260525E1,1.1561838E2,9.8794266E1,6.175861E0,3.4702324E1,4.8916668E1,7.7643723E0,2.2215094E1,1.0235091E1,8.426115E1,1.4403503E2,1.6931515E1,9.147618E1,1.6545366E1,1.5715159E1,3.5524368E0,1.1206594E2,4.6144943E1,5.2649323E1],"tree_param":{"num_deleted":"0","num_feature":"6","num_nodes":"31","size_leaf_vector":"0"}},{"base_weights":[3.2923236E-3,1.8516625E-1,-2.2452742E-1,3.6993223E-1,-8.99625E-2,-4.8234355E-1,-8.077834E-2,4.170508E-2,7.7104044E-1,2.4689165E-1,-4.524479E-1,-5.179082E-1,-2.0838039E-1,3.777641E-2,-4.4975644E-1,-1.0948971E-1,6.532202E-1,-4.407176E-1,8.1794894E-1,1.0418514E0,-6.649492E-2,1.1883438E-1,-5.3650856E-1,-5.393624E-1,-3.290809E-1,-5.005304E-1,6.9333506E-1,-3.2338354E-1,2.670193E-1,-5.370376E-1,6.2255334E-2],"categories":[],"categories_nodes":[],"categories_segments":[],"categories_sizes":[],"default_left":[true,true,true,false,true,false,true,true,true,true,true,true,true,true,true,false,false,false,false,false,false,false,false,false,false,false,false,false,false,false,false],"id":36,"left_children":[1,3,5,7,9,11,13,15,17,19,21,23,25,27,29,-1,-1,-1,-1,-1,-1,-1,-1,-1,-1,-1,-1,-1,-1,-1,-1],"loss_changes":[2.9652826E1,2.0262707E1,1.173546E1,3.1336498E1,1.9731804E1,9.9823E-1,8.992269E0,1.2284674E1,6.452236E0,2.0979433E1,3.7974834E0,2.2685432E-1,4.2241817E0,1.3019162E1,2.2665834E0,0E0,0E0,0E0,0E0,0E0,0E0,0E0,0E0,0E0,0E0,0E0,0E0,0E0,0E0,0E0,0E0],"parents":[2147483647,0,0,1,1,2,2,3,3,4,4,5,5,6,6,7,7,8,8,9,9,10,10,11,11,12,12,13,13,14,14],"right_children":[2,4,6,8,10,12,14,16,18,20,22,24,26,28,30,-1,-1,-1,-1,-1,-1,-1,-1,-1,-1,-1,-1,-1,-1,-1,-1],"split_conditions":[2.4999999E-2,1.55E0,2.75E0,1.325E1,3.75E0,2.3E1,1.005E1,8.5E0,2.45E0,1.6500001E0,7.5E0,2.65E0,1.6500001E0,6.55E0,3.85E0,-1.0948971E-2,6.532202E-2,-4.407176E-2,8.1794895E-2,1.0418514E-1,-6.649492E-3,1.1883438E-2,-5.3650856E-2,-5.393624E-2,-3.2908093E-2,-5.005304E-2,6.933351E-2,-3.2338355E-2,2.670193E-2,-5.3703763E-2,6.2255333E-3],"split_indices":[1,4,2,5,2,5,3,0,2,4,0,2,4,3,2,0,0,0,0,0,0,0,0,0,0,0,0,0,0,0,0],"split_type":[0,0,0,0,0,0,0,0,0,0,0,0,0,0,0,0,0,0,0,0,0,0,0,0,0,0,0,0,0,0,0],"sum_hessian":[7.136526E2,3.9694733E2,3.1670526E2,2.3726476E2,1.5968256E2,1.1252841E2,2.0417685E2,1.3109422E2,1.0617053E2,8.293281E1,7.6749756E1,9.881082E1,1.3717592E1,1.5520593E2,4.8970924E1,1.05765144E2,2.5329079E1,3.643924E0,1.025266E2,2.2792122E1,6.0140682E1,9.791608E0,6.6958145E1,8.706256E1,1.1748259E1,1.0696808E1,3.0207844E0,6.010424E1,9.510169E1,4.1797028E1,7.173897E0],"tree_param":{"num_deleted":"0","num_feature":"6","num_nodes":"31","size_leaf_vector":"0"}},{"base_weights":[8.010206E-4,-4.045242E-1,2.6998132E-1,-1.2647359E-1,-5.430586E-1,4.3792528E-1,-1.9479892E-1,-5.355656E-1,1.5220597E-1,2.9764572E-2,7.5589067E-1,-3.7022355E-1,1.8206264E-1,1.6229644E0,-1.3323277E-1,9.303768E-1,-3.3949625E-1,3.125168E-1,1.3200443E0,-8.291903E-3,-5.3689295E-1,-5.202148E-1,8.906251E-1],"categories":[],"categories_nodes":[],"categories_segments":[],"categories_sizes":[],"default_left":[true,true,true,true,false,true,true,false,true,true,true,true,true,false,false,false,false,false,false,false,false,false,false],"id":37,"left_children":[1,3,5,7,-1,9,11,-1,13,15,17,19,21,-1,-1,-1,-1,-1,-1,-1,-1,-1,-1],"loss_changes":[7.815183E1,1.0942467E1,3.368387E1,1.106769E1,0E0,4.1052303E1,7.666361E0,0E0,2.4606224E1,4.6751698E1,4.40763E1,4.746747E0,1.8964373E1,0E0,0E0,0E0,0E0,0E0,0E0,0E0,0E0,0E0,0E0],"parents":[2147483647,0,0,1,1,2,2,3,3,5,5,6,6,8,8,9,9,10,10,11,11,12,12],"right_children":[2,4,6,8,-1,10,12,-1,14,16,18,20,22,-1,-1,-1,-1,-1,-1,-1,-1,-1,-1],"split_conditions":[3.15E0,1.5E-2,3.5E-2,8.65E0,-5.430586E-2,5E-3,6.5E0,-5.355656E-2,9.15E0,8.200001E0,1.45E0,7.95E0,9.55E0,1.6229644E-1,-1.3323277E-2,9.303769E-2,-3.3949625E-2,3.125168E-2,1.3200442E-1,-8.291903E-4,-5.3689297E-2,-5.202148E-2,8.906251E-2],"split_indices":[2,1,1,3,0,1,0,0,3,3,4,3,3,0,0,0,0,0,0,0,0,0,0],"split_type":[0,0,0,0,0,0,0,0,0,0,0,0,0,0,0,0,0,0,0,0,0,0,0],"sum_hessian":[7.1429456E2,2.8485858E2,4.29436E2,9.536522E1,1.8949336E2,3.1549326E2,1.1394275E2,3.8267723E1,5.7097496E1,1.386311E2,1.7686215E2,7.7762726E1,3.6180027E1,8.518583E0,4.857891E1,3.9870064E1,9.876104E1,9.990208E1,7.6960075E1,2.4849792E1,5.2912933E1,1.8304102E1,1.7875925E1],"tree_param":{"num_deleted":"0","num_feature":"6","num_nodes":"23","size_leaf_vector":"0"}},{"base_weights":[-1.0442275E-2,4.0266705E-1,-5.4410845E-1,-5.4490995E-1,9.8553115E-1,1.7450287E0,-5.408064E-1,-4.9177182E-1,1.8692198E0],"categories":[],"categories_nodes":[],"categories_segments":[],"categories_sizes":[],"default_left":[true,true,false,false,true,true,false,false,false],"id":38,"left_children":[1,3,-1,-1,5,7,-1,-1,-1],"loss_changes":[1.5753229E2,2.2299863E2,0E0,0E0,2.9045654E2,4.7309784E1,0E0,0E0,0E0],"parents":[2147483647,0,0,1,1,4,4,5,5],"right_children":[2,4,-1,-1,6,8,-1,-1,-1],"split_conditions":[5.5E0,9.15E0,-5.4410845E-2,-5.4490995E-2,9.75E0,3.5E0,-5.4080643E-2,-4.917718E-2,1.8692198E-1],"split_indices":[0,3,0,0,3,0,0,0,0],"split_type":[0,0,0,0,0,0,0,0,0],"sum_hessian":[7.1256E2,4.0178497E2,3.1077502E2,1.5304346E2,2.487415E2,1.6599832E2,8.274318E1,8.576025E0,1.574223E2],"tree_param":{"num_deleted":"0","num_feature":"6","num_nodes":"9","size_leaf_vector":"0"}},{"base_weights":[-1.3613786E-2,-5.449473E-1,1.1843215E0,1.7728201E0,-5.3581625E-1,-4.689801E-1,1.8525851E0],"categories":[],"categories_nodes":[],"categories_segments":[],"categories_sizes":[],"default_left":[true,false,true,true,false,false,false],"id":39,"left_children":[1,-1,3,5,-1,-1,-1],"loss_changes":[4.542189E2,0E0,2.2291525E2,3.012445E1,0E0,0E0,0E0],"parents":[2147483647,0,0,2,2,3,3],"right_children":[2,-1,4,6,-1,-1,-1],"split_conditions":[3.95E0,-5.4494735E-2,5E-3,1.55E0,-5.3581625E-2,-4.689801E-2,1.8525851E-1],"split_indices":[2,0,1,4,0,0,0],"split_type":[0,0,0,0,0,0,0],"sum_hessian":[7.116021E2,4.9333356E2,2.182686E2,1.6260654E2,5.566206E1,5.419224E0,1.5718732E2],"tree_param":{"num_deleted":"0","num_feature":"6","num_nodes":"7","size_leaf_vector":"0"}},{"base_weights":[-2.1259252E-3,5.9262496E-1,-5.3586024E-1,-1.8895847E-1,8.705032E-1,-5.414217E-1,-3.9777198E-1,5.7785094E-1,-5.360848E-1,6.207241E-1,1.1757212E0,2.7182385E-2,-5.0794864E-1,-1.8018264E-1,1.1567985E0,9.2825836E-1,-3.0178133E-1,1.5198399E0,1.0005461E0],"categories":[],"categories_nodes":[],"categories_segments":[],"categories_sizes":[],"default_left":[true,true,true,true,true,false,true,true,false,true,true,false,false,false,false,false,false,false,false],"id":40,"left_children":[1,3,5,7,9,-1,11,13,-1,15,17,-1,-1,-1,-1,-1,-1,-1,-1],"loss_changes":[2.2544096E2,7.311594E1,7.208252E-2,2.3978775E1,1.8175034E1,0E0,8.68736E-1,1.2580376E1,0E0,3.9570213E1,5.139389E0,0E0,0E0,0E0,0E0,0E0,0E0,0E0,0E0],"parents":[2147483647,0,0,1,1,2,2,3,3,4,4,6,6,7,7,9,9,10,10],"right_children":[2,4,6,8,10,-1,12,14,-1,16,18,-1,-1,-1,-1,-1,-1,-1,-1],"split_conditions":[2.95E0,2.4999999E-2,1.8499999E0,2.15E0,1.005E1,-5.4142173E-2,3.15E0,1E1,-5.3608477E-2,6.3500004E0,4.5E-1,2.7182386E-3,-5.0794866E-2,-1.8018264E-2,1.1567985E-1,9.282584E-2,-3.0178133E-2,1.5198399E-1,1.00054614E-1],"split_indices":[2,1,4,2,3,0,2,3,0,3,4,0,0,0,0,0,0,0,0],"split_type":[0,0,0,0,0,0,0,0,0,0,0,0,0,0,0,0,0,0,0],"sum_hessian":[7.081864E2,3.348954E2,3.7329102E2,8.792112E1,2.4697426E2,3.5603113E2,1.7259876E1,2.7190985E1,6.0730137E1,1.3749066E2,1.094836E2,3.7086809E0,1.3551196E1,1.207266E1,1.5118325E1,1.03110596E2,3.4380066E1,3.434304E1,7.5140564E1],"tree_param":{"num_deleted":"0","num_feature":"6","num_nodes":"19","size_leaf_vector":"0"}},{"base_weights":[5.2495888E-3,3.8015518E-1,-3.2053563E-1,3.0605718E-1,7.529533E-1,-5.399681E-1,-1.8669263E-2,4.372831E-1,-4.2333975E-1,1.7087815E0,6.518452E-1,3.805212E-1,-4.1021997E-1,6.703903E-1,2.909155E-1,8.3048E-2,-5.236915E-1,7.7899134E-1,7.6278485E-2,1.7648107E-1,8.629615E-1,-4.8376054E-1,4.3802798E-2],"categories":[],"categories_nodes":[],"categories_segments":[],"categories_sizes":[],"default_left":[true,true,true,true,true,false,true,true,true,false,true,true,true,false,false,false,false,false,false,false,false,false,false],"id":41,"left_children":[1,3,5,7,9,-1,11,13,15,-1,17,19,21,-1,-1,-1,-1,-1,-1,-1,-1,-1,-1],"loss_changes":[8.694961E1,8.912601E0,2.5220966E1,2.6774216E1,4.1236267E0,0E0,2.537921E1,7.8546486E0,2.2217712E0,0E0,3.645527E0,7.764577E0,2.757331E0,0E0,0E0,0E0,0E0,0E0,0E0,0E0,0E0,0E0,0E0],"parents":[2147483647,0,0,1,1,2,2,3,3,4,4,6,6,7,7,8,8,10,10,11,11,12,12],"right_children":[2,4,6,8,10,-1,12,14,16,-1,18,20,22,-1,-1,-1,-1,-1,-1,-1,-1,-1,-1],"split_conditions":[3.05E0,1.75E0,2.4999999E-2,1.45E0,1.4E0,-5.399681E-2,3.65E0,6.05E0,2.25E0,1.7087816E-1,1.025E1,1.055E1,1.0950001E1,6.7039035E-2,2.909155E-2,8.3048E-3,-5.2369148E-2,7.7899136E-2,7.6278485E-3,1.7648106E-2,8.629615E-2,-4.8376054E-2,4.3802797E-3],"split_indices":[2,4,1,4,3,0,2,3,2,0,5,3,3,0,0,0,0,0,0,0,0,0,0],"split_type":[0,0,0,0,0,0,0,0,0,0,0,0,0,0,0,0,0,0,0,0,0,0,0],"sum_hessian":[7.0989465E2,3.2998694E2,3.799077E2,2.767922E2,5.3194733E1,2.1953485E2,1.6037286E2,2.3492696E2,4.1865257E1,3.567618E0,4.9627117E1,7.942566E1,8.094721E1,8.923299E1,1.4569397E2,6.9528284E0,3.491243E1,4.0358295E1,9.268821E0,5.6778107E1,2.2647552E1,6.960707E1,1.1340138E1],"tree_param":{"num_deleted":"0","num_feature":"6","num_nodes":"23","size_leaf_vector":"0"}},{"base_weights":[5.5994997E-3,2.1364757E-1,-4.0441895E-1,3.8247252E-1,8.8784814E-2,-5.134312E-1,-2.3916717E-1,-2.7667564E-1,4.3266973E-1,-2.114054E-1,3.5466874E-1,-5.3385353E-1,-3.4483942E-1,1.07646786E-1,-3.8647228E-1,1.1033897E-1,-4.5640928E-1,7.2351193E-1,3.5580012E-1,-4.4252247E-1,1.470849E-1,-4.3946795E-2,4.8061734E-1,1.1024621E-1,-4.4130665E-1,-1.2477663E-1,2.5412524E-1,-5.2338505E-1,4.6455786E-2],"categories":[],"categories_nodes":[],"categories_segments":[],"categories_sizes":[],"default_left":[true,true,true,true,true,true,true,true,true,true,true,false,true,true,true,false,false,false,false,false,false,false,false,false,false,false,false,false,false],"id":42,"left_children":[1,3,5,7,9,11,13,15,17,19,21,-1,23,25,27,-1,-1,-1,-1,-1,-1,-1,-1,-1,-1,-1,-1,-1,-1],"loss_changes":[6.0819042E1,9.936016E0,4.2006607E0,6.7629623E0,2.1879133E1,3.107872E-1,5.010619E0,1.0811061E0,3.9224434E0,1.0748114E1,7.3130035E0,0E0,8.544264E-1,1.0455158E0,4.0837374E0,0E0,0E0,0E0,0E0,0E0,0E0,0E0,0E0,0E0,0E0,0E0,0E0,0E0,0E0],"parents":[2147483647,0,0,1,1,2,2,3,3,4,4,5,5,6,6,7,7,8,8,9,9,10,10,12,12,13,13,14,14],"right_children":[2,4,6,8,10,12,14,16,18,20,22,-1,24,26,28,-1,-1,-1,-1,-1,-1,-1,-1,-1,-1,-1,-1,-1,-1],"split_conditions":[3.55E0,7.3500004E0,2.4999999E-2,2.05E0,1.015E1,1.035E1,6.95E0,4.5E0,2.35E0,2.4999999E-2,2.25E0,-5.3385355E-2,1.135E1,9.5E-1,1.015E1,1.1033897E-2,-4.5640927E-2,7.2351195E-2,3.5580013E-2,-4.4252247E-2,1.4708491E-2,-4.39468E-3,4.8061736E-2,1.1024621E-2,-4.4130664E-2,-1.2477663E-2,2.5412524E-2,-5.2338507E-2,4.6455786E-3],"split_indices":[2,3,1,2,3,3,3,5,2,1,2,0,3,4,3,0,0,0,0,0,0,0,0,0,0,0,0,0,0],"split_type":[0,0,0,0,0,0,0,0,0,0,0,0,0,0,0,0,0,0,0,0,0,0,0,0,0,0,0,0,0],"sum_hessian":[7.109591E2,4.7196005E2,2.3899904E2,1.9977898E2,2.721811E2,1.4273415E2,9.6264885E1,1.3818187E1,1.8596078E2,1.2793916E2,1.4424193E2,1.2537974E2,1.7354408E1,2.8778423E1,6.7486465E1,4.504624E0,9.313563E0,3.7116264E1,1.4884453E2,7.764645E1,5.029272E1,3.478902E1,1.094529E2,3.0103235E0,1.4344086E1,1.1182633E1,1.759579E1,5.111309E1,1.6373371E1],"tree_param":{"num_deleted":"0","num_feature":"6","num_nodes":"29","size_leaf_vector":"0"}},{"base_weights":[5.9835683E-3,1.0329265E-1,-3.4329844E-1,2.7169237E-1,-3.654525E-3,1.4534626E-2,-4.793709E-1,7.9801634E-2,4.0586334E-1,-1.5432303E-1,1.5928754E-1,-3.0977574E-1,2.5790697E-1,-5.370321E-1,3.920301E-1,3.6347044E-1,-1.0613292E-1,5.3861976E-1,8.4949255E-2,2.2687265E-1,-3.1696957E-1,-1.7263645E-1,3.2069296E-1,-4.624237E-1,1.9193839E-1,6.1678755E-1,-3.0206764E-2,-5.8807958E-2,7.0959437E-1],"categories":[],"categories_nodes":[],"categories_segments":[],"categories_sizes":[],"default_left":[true,true,true,true,true,true,true,true,true,true,true,true,true,false,true,false,false,false,false,false,false,false,false,false,false,false,false,false,false],"id":43,"left_children":[1,3,5,7,9,11,13,15,17,19,21,23,25,-1,27,-1,-1,-1,-1,-1,-1,-1,-1,-1,-1,-1,-1,-1,-1],"loss_changes":[2.422601E1,1.0040036E1,7.56933E0,5.542164E0,8.418286E0,3.533764E0,5.8658733E0,4.8034706E0,5.3725185E0,1.11171055E1,8.8818035E0,1.5603199E0,2.6599503E0,0E0,1.1245981E0,0E0,0E0,0E0,0E0,0E0,0E0,0E0,0E0,0E0,0E0,0E0,0E0,0E0,0E0],"parents":[2147483647,0,0,1,1,2,2,3,3,4,4,5,5,6,6,7,7,8,8,9,9,10,10,11,11,12,12,14,14],"right_children":[2,4,6,8,10,12,14,16,18,20,22,24,26,-1,28,-1,-1,-1,-1,-1,-1,-1,-1,-1,-1,-1,-1,-1,-1],"split_conditions":[3.85E0,6.6499996E0,1.45E0,2.75E0,1.005E1,1.5E-2,1.75E0,2.4999999E-2,1.45E0,2.85E0,2.55E0,9.5E-1,7.95E0,-5.3703215E-2,2.4999999E-2,3.6347043E-2,-1.06132915E-2,5.3861976E-2,8.494926E-3,2.2687266E-2,-3.1696957E-2,-1.7263645E-2,3.2069296E-2,-4.624237E-2,1.919384E-2,6.1678756E-2,-3.0206766E-3,-5.880796E-3,7.095944E-2],"split_indices":[2,3,4,2,3,1,4,1,4,2,2,4,3,0,1,0,0,0,0,0,0,0,0,0,0,0,0,0,0],"split_type":[0,0,0,0,0,0,0,0,0,0,0,0,0,0,0,0,0,0,0,0,0,0,0,0,0,0,0,0,0],"sum_hessian":[7.1073145E2,5.564188E2,1.543126E2,2.1551968E2,3.4089914E2,4.275967E1,1.1155295E2,8.9340324E1,1.2617936E2,1.7714783E2,1.6375131E2,1.8214607E1,2.4545063E1,1.0498943E2,6.563511E0,3.4995316E1,5.4345005E1,8.877595E1,3.7403416E1,5.2861393E1,1.2428644E2,5.3552692E1,1.1019862E2,1.4025592E1,4.189015E0,1.0422187E1,1.4122875E1,3.0493047E0,3.5142062E0],"tree_param":{"num_deleted":"0","num_feature":"6","num_nodes":"29","size_leaf_vector":"0"}},{"base_weights":[5.7569095E-3,1.6458976E-1,-1.309E-1,-5.192256E-2,2.927958E-1,-3.6075422E-1,6.530894E-2,-4.6318167E-1,6.0836222E-2,4.0477726E-1,8.820145E-2,1.7546569E-1,-4.4275194E-1,-1.2512916E-1,2.4554652E-1,-4.9869668E-1,-1.403575E-1,4.3413198E-1,-1.1535767E-1,2.36945E-1,6.621711E-1,-1.2803885E-1,5.591156E-1,-2.3310764E-1,2.699849E-1,2.1950707E-1,-4.7830182E-1,-4.7447705E-1,-1.4368875E-2,-3.434514E-1,3.668203E-1],"categories":[],"categories_nodes":[],"categories_segments":[],"categories_sizes":[],"default_left":[true,true,true,true,true,true,true,true,true,true,true,true,true,true,true,false,false,false,false,false,false,false,false,false,false,false,false,false,false,false,false],"id":44,"left_children":[1,3,5,7,9,11,13,15,17,19,21,23,25,27,29,-1,-1,-1,-1,-1,-1,-1,-1,-1,-1,-1,-1,-1,-1,-1,-1],"loss_changes":[1.5475927E1,9.167791E0,1.7309006E1,5.754298E0,4.712469E0,7.845087E0,7.1569867E0,2.3596811E-1,6.4821544E0,5.617037E0,7.6668515E0,9.9545306E-1,3.7191086E0,3.9250283E0,7.7691846E0,0E0,0E0,0E0,0E0,0E0,0E0,0E0,0E0,0E0,0E0,0E0,0E0,0E0,0E0,0E0,0E0],"parents":[2147483647,0,0,1,1,2,2,3,3,4,4,5,5,6,6,7,7,8,8,9,9,10,10,11,11,12,12,13,13,14,14],"right_children":[2,4,6,8,10,12,14,16,18,20,22,24,26,28,30,-1,-1,-1,-1,-1,-1,-1,-1,-1,-1,-1,-1,-1,-1,-1,-1],"split_conditions":[8.55E0,2.85E0,9.75E0,4.5E-1,1.45E0,2.95E0,3.05E0,7.1499996E0,9.5E-1,8.5E-1,1.75E0,8.75E0,4.5E-1,4.5E-1,1.005E1,-4.9869668E-2,-1.4035749E-2,4.34132E-2,-1.1535767E-2,2.36945E-2,6.621712E-2,-1.2803885E-2,5.591156E-2,-2.3310764E-2,2.699849E-2,2.1950707E-2,-4.7830183E-2,-4.7447708E-2,-1.4368875E-3,-3.4345143E-2,3.6682032E-2],"split_indices":[3,2,3,4,4,2,2,3,4,4,4,3,4,4,3,0,0,0,0,0,0,0,0,0,0,0,0,0,0,0,0],"split_type":[0,0,0,0,0,0,0,0,0,0,0,0,0,0,0,0,0,0,0,0,0,0,0,0,0,0,0,0,0,0,0],"sum_hessian":[7.109996E2,3.2872565E2,3.8227393E2,1.224794E2,2.0624626E2,1.7565707E2,2.0661684E2,2.5686537E1,9.679286E1,1.3265903E2,7.358723E1,2.3147205E1,1.5250987E2,1.00614174E2,1.0600267E2,2.2649944E1,3.036593E0,3.0567223E1,6.622564E1,8.146244E1,5.1196587E1,5.0929077E1,2.2658152E1,4.0733404E0,1.9073864E1,7.505995E0,1.4500388E2,2.3430008E1,7.7184166E1,1.7786383E1,8.8216286E1],"tree_param":{"num_deleted":"0","num_feature":"6","num_nodes":"31","size_leaf_vector":"0"}},{"base_weights":[5.3414386E-3,1.6293402E-1,-1.5961719E-1,-1.7843814E-1,2.8589904E-1,8.414348E-2,-3.2642075E-1,1.5344265E-1,-4.3071845E-1,5.478505E-1,2.2084624E-1,-2.9254958E-2,4.8521703E-1,-4.8413056E-1,-1.4650664E-1,-4.6174202E-2,5.226427E-1,-5.1473194E-1,6.898252E-2,7.8453356E-1,1.9508792E-1,-1.029495E-1,2.8372025E-1,-4.709435E-1,5.920986E-2,-3.3159003E-1,6.6061074E-1,1.04484595E-1,-5.050558E-1,-4.2131385E-1,8.5326746E-2],"categories":[],"categories_nodes":[],"categories_segments":[],"categories_sizes":[],"default_left":[true,true,true,true,true,false,true,true,true,true,true,true,true,true,true,false,false,false,false,false,false,false,false,false,false,false,false,false,false,false,false],"id":45,"left_children":[1,3,5,7,9,11,13,15,17,19,21,23,25,27,29,-1,-1,-1,-1,-1,-1,-1,-1,-1,-1,-1,-1,-1,-1,-1,-1],"loss_changes":[1.8538322E1,1.535927E1,1.4194733E1,8.203566E0,4.4543076E0,6.488673E0,5.8046894E0,3.1718566E0,2.3646383E0,4.250148E0,4.441988E0,4.401069E0,4.722433E0,1.4065647E0,6.2898364E0,0E0,0E0,0E0,0E0,0E0,0E0,0E0,0E0,0E0,0E0,0E0,0E0,0E0,0E0,0E0,0E0],"parents":[2147483647,0,0,1,1,2,2,3,3,4,4,5,5,6,6,7,7,8,8,9,9,10,10,11,11,12,12,13,13,14,14],"right_children":[2,4,6,8,10,12,14,16,18,20,22,24,26,28,30,-1,-1,-1,-1,-1,-1,-1,-1,-1,-1,-1,-1,-1,-1,-1,-1],"split_conditions":[9.15E0,2.65E0,1.05E0,2.4999999E-2,5E-3,1.475E1,9.75E0,1.45E0,7.95E0,6.7E0,4.5E-1,9.25E0,3.45E0,1.45E0,2.95E0,-4.6174205E-3,5.226427E-2,-5.1473197E-2,6.898252E-3,7.8453355E-2,1.9508792E-2,-1.0294951E-2,2.8372025E-2,-4.7094353E-2,5.920986E-3,-3.3159003E-2,6.606107E-2,1.044846E-2,-5.050558E-2,-4.2131387E-2,8.532675E-3],"split_indices":[3,2,4,1,1,5,3,4,3,3,4,3,2,4,2,0,0,0,0,0,0,0,0,0,0,0,0,0,0,0,0],"split_type":[0,0,0,0,0,0,0,0,0,0,0,0,0,0,0,0,0,0,0,0,0,0,0,0,0,0,0,0,0,0,0],"sum_hessian":[7.111146E2,3.636834E2,3.4743124E2,9.619058E1,2.6749283E2,1.413553E2,2.0607594E2,4.17108E1,5.4479782E1,5.1737427E1,2.157554E2,1.1092089E2,3.043441E1,1.0891336E2,9.716258E1,2.7640978E1,1.4069823E1,4.661281E1,7.866976E0,3.0230536E1,2.1506891E1,3.4979023E1,1.8077637E2,1.7787527E1,9.313336E1,5.2225385E0,2.521187E1,3.601858E0,1.053115E2,4.4086575E1,5.3076004E1],"tree_param":{"num_deleted":"0","num_feature":"6","num_nodes":"31","size_leaf_vector":"0"}},{"base_weights":[4.060604E-3,-2.8072637E-1,1.3577287E-1,-5.442577E-1,-1.0305167E-1,2.645655E-1,-2.1060954E-1,7.883274E-1,-3.5693154E-1,4.85289E-1,-6.520279E-2,9.2034984E-1,-3.7240237E-1,1.6323404E0,-9.001642E-2,3.602958E-3,-5.131544E-1,2.5700915E-1,7.588433E-1,-3.0778977E-1,3.8853452E-1,-1.2421359E-1,1.4152918E0,1.3257456E0,-4.6361864E-1],"categories":[],"categories_nodes":[],"categories_segments":[],"categories_sizes":[],"default_left":[false,true,true,false,true,true,true,true,true,true,true,true,false,false,false,false,false,false,false,false,false,false,false,false,false],"id":46,"left_children":[1,3,5,-1,7,9,11,13,15,17,19,21,23,-1,-1,-1,-1,-1,-1,-1,-1,-1,-1,-1,-1],"loss_changes":[2.6745268E1,1.0501858E1,2.1804497E1,0E0,3.1039705E1,2.5931005E1,2.4623251E1,2.271423E1,5.9989166E0,1.3123058E1,1.5920296E1,8.910605E0,1.8706627E1,0E0,0E0,0E0,0E0,0E0,0E0,0E0,0E0,0E0,0E0,0E0,0E0],"parents":[2147483647,0,0,1,1,2,2,4,4,5,5,6,6,7,7,8,8,9,9,10,10,11,11,12,12],"right_children":[2,4,6,-1,8,10,12,14,16,18,20,22,24,-1,-1,-1,-1,-1,-1,-1,-1,-1,-1,-1,-1],"split_conditions":[1.075E1,7.25E0,3.95E0,-5.4425772E-2,9.35E0,2.4999999E-2,3.5E0,2.4999999E-2,1.005E1,5.5E0,1.45E0,7.3E0,1.45E1,1.6323404E-1,-9.0016415E-3,3.6029582E-4,-5.1315438E-2,2.5700916E-2,7.5884335E-2,-3.0778978E-2,3.885345E-2,-1.2421359E-2,1.4152919E-1,1.3257456E-1,-4.6361864E-2],"split_indices":[5,3,2,0,3,1,0,1,3,0,4,3,5,0,0,0,0,0,0,0,0,0,0,0,0],"split_type":[0,0,0,0,0,0,0,0,0,0,0,0,0,0,0,0,0,0,0,0,0,0,0,0,0],"sum_hessian":[7.110021E2,2.2448703E2,4.8651505E2,8.9570595E1,1.3491644E2,3.5482098E2,1.3169408E2,2.944148E1,1.0547496E2,2.1227052E2,1.4255046E2,1.5895235E1,1.15798836E2,1.4576391E1,1.4865089E1,3.2181877E1,7.329308E1,1.16767815E2,9.550271E1,9.3098015E1,4.9452442E1,5.3510346E0,1.0544201E1,5.21314E0,1.105857E2],"tree_param":{"num_deleted":"0","num_feature":"6","num_nodes":"25","size_leaf_vector":"0"}},{"base_weights":[1.0172292E-3,-3.9712083E-1,2.509836E-1,-1.21319726E-1,-5.401351E-1,-5.477355E-1,3.4076434E-1,-5.3434426E-1,1.5144965E-1,4.2541838E-1,-5.715718E-1,1.3361036E0,-1.1943944E-1,2.9920694E-1,1.664996E0],"categories":[],"categories_nodes":[],"categories_segments":[],"categories_sizes":[],"default_left":[true,true,true,true,false,false,true,false,true,true,false,false,false,false,false],"id":47,"left_children":[1,3,5,7,-1,-1,9,-1,11,13,-1,-1,-1,-1,-1],"loss_changes":[7.0915764E1,1.0774761E1,3.1576628E1,1.0799113E1,0E0,0E0,3.0682335E1,0E0,1.8796803E1,5.6015892E1,0E0,0E0,0E0,0E0,0E0],"parents":[2147483647,0,0,1,1,2,2,3,3,6,6,8,8,9,9],"right_children":[2,4,6,8,-1,-1,10,-1,12,14,-1,-1,-1,-1,-1],"split_conditions":[3.15E0,1.5E-2,4.5E-1,2.65E0,-5.401351E-2,-5.477355E-2,1.75E0,-5.3434428E-2,7.75E0,1.6500001E0,-5.7157185E-2,1.3361035E-1,-1.1943944E-2,2.9920695E-2,1.664996E-1],"split_indices":[2,1,4,2,0,0,4,0,5,4,0,0,0,0,0],"split_type":[0,0,0,0,0,0,0,0,0,0,0,0,0,0,0],"sum_hessian":[7.105685E2,2.7383096E2,4.367375E2,9.41371E1,1.7969388E2,4.3615837E1,3.9312167E2,3.7060905E1,5.707619E1,3.6023026E2,3.2891415E1,9.890538E0,4.7185654E1,3.2806833E2,3.216192E1],"tree_param":{"num_deleted":"0","num_feature":"6","num_nodes":"15","size_leaf_vector":"0"}},{"base_weights":[-1.3664113E-2,3.6786744E-1,-5.4124004E-1,-5.419953E-1,8.734831E-1,1.477404E0,-5.377629E-1,-4.8855558E-1,1.5729026E0],"categories":[],"categories_nodes":[],"categories_segments":[],"categories_sizes":[],"default_left":[true,true,false,false,true,true,false,false,false],"id":48,"left_children":[1,3,-1,-1,5,7,-1,-1,-1],"loss_changes":[1.4178738E2,1.8853973E2,0E0,0E0,2.2508061E2,3.5419067E1,0E0,0E0,0E0],"parents":[2147483647,0,0,1,1,4,4,5,5],"right_children":[2,4,-1,-1,6,8,-1,-1,-1],"split_conditions":[5.5E0,9.15E0,-5.4124005E-2,-5.4199528E-2,9.75E0,3.5E0,-5.377629E-2,-4.8855558E-2,1.5729026E-1],"split_indices":[0,3,0,0,3,0,0,0,0],"split_type":[0,0,0,0,0,0,0,0,0],"sum_hessian":[7.024154E2,4.0780347E2,2.9461197E2,1.4564366E2,2.621598E2,1.8356088E2,7.859892E1,8.3129225E0,1.7524797E2],"tree_param":{"num_deleted":"0","num_feature":"6","num_nodes":"9","size_leaf_vector":"0"}},{"base_weights":[-1.7658008E-2,-5.4217803E-1,1.0419338E0,1.5053265E0,-5.324146E-1,-4.6347883E-1,1.567334E0],"categories":[],"categories_nodes":[],"categories_segments":[],"categories_sizes":[],"default_left":[true,false,true,true,false,false,false],"id":49,"left_children":[1,-1,3,5,-1,-1,-1],"loss_changes":[3.900809E2,0E0,1.7034882E2,2.2678284E1,0E0,0E0,0E0],"parents":[2147483647,0,0,2,2,3,3],"right_children":[2,-1,4,6,-1,-1,-1],"split_conditions":[3.95E0,-5.4217804E-2,5E-3,8.5E0,-5.324146E-2,-4.6347883E-2,1.5673341E-1],"split_indices":[2,0,1,0,0,0,0],"split_type":[0,0,0,0,0,0,0],"sum_hessian":[6.998493E2,4.6844672E2,2.3140259E2,1.7881432E2,5.258826E1,5.2621083E0,1.7355222E2],"tree_param":{"num_deleted":"0","num_feature":"6","num_nodes":"7","size_leaf_vector":"0"}},{"base_weights":[-2.5970098E-3,5.359175E-1,-5.3289676E-1,-1.849315E-1,7.7322567E-1,-5.387219E-1,-3.9170942E-1,5.235359E-1,-5.333784E-1,6.541572E-1,1.3253942E0,4.4199523E-2,-5.0362617E-1,-1.7424923E-1,1.0106637E0,8.5275036E-1,-5.904118E-1,5.893582E-1,1.4350073E0],"categories":[],"categories_nodes":[],"categories_segments":[],"categories_sizes":[],"default_left":[true,true,true,true,true,false,true,true,false,true,true,false,false,false,false,false,false,false,false],"id":50,"left_children":[1,3,5,7,9,-1,11,13,-1,15,17,-1,-1,-1,-1,-1,-1,-1,-1],"loss_changes":[2.0105492E2,5.98981E1,8.0711365E-2,2.1835958E1,1.642369E1,0E0,8.867264E-1,1.0133247E1,0E0,5.4463135E1,2.8394394E0,0E0,0E0,0E0,0E0,0E0,0E0,0E0,0E0],"parents":[2147483647,0,0,1,1,2,2,3,3,4,4,6,6,7,7,9,9,10,10],"right_children":[2,4,6,8,10,-1,12,14,-1,16,18,-1,-1,-1,-1,-1,-1,-1,-1],"split_conditions":[2.95E0,2.4999999E-2,1.8499999E0,2.15E0,1.75E0,-5.3872194E-2,2.5E0,1E1,-5.3337842E-2,1.45E0,5.75E0,4.419952E-3,-5.0362617E-2,-1.7424924E-2,1.0106637E-1,8.527504E-2,-5.904118E-2,5.893582E-2,1.4350073E-1],"split_indices":[2,1,4,2,4,0,0,3,0,4,5,0,0,0,0,0,0,0,0],"split_type":[0,0,0,0,0,0,0,0,0,0,0,0,0,0,0,0,0,0,0],"sum_hessian":[7.0203754E2,3.483156E2,3.537219E2,8.632249E1,2.6199313E2,3.3700217E2,1.6719734E1,2.8293413E1,5.8029068E1,2.1731622E2,4.4676907E1,3.539329E0,1.3180406E1,1.1895714E1,1.63977E1,1.8768289E2,2.9633324E1,6.617578E0,3.8059326E1],"tree_param":{"num_deleted":"0","num_feature":"6","num_nodes":"19","size_leaf_vector":"0"}},{"base_weights":[6.245086E-3,3.496912E-1,-3.117268E-1,2.823678E-1,6.788894E-1,-5.3715944E-1,-1.7426068E-2,4.0036833E-1,-4.1693103E-1,1.4835867E0,5.897262E-1,3.4936738E-1,-4.0296128E-1,6.040739E-1,2.6890737E-1,7.623521E-2,-5.1943886E-1,6.9730777E-1,7.448851E-2,7.8885204E-1,1.19563945E-1,-1.2431246E-1,-5.3249574E-1],"categories":[],"categories_nodes":[],"categories_segments":[],"categories_sizes":[],"default_left":[true,true,true,true,true,false,true,true,true,false,true,true,true,false,false,false,false,false,false,false,false,false,false],"id":51,"left_children":[1,3,5,7,9,-1,11,13,15,-1,17,19,21,-1,-1,-1,-1,-1,-1,-1,-1,-1,-1],"loss_changes":[7.741792E1,7.361305E0,2.4413536E1,2.3655325E1,3.2255802E0,0E0,2.2866251E1,6.373329E0,2.1419544E0,0E0,2.891903E0,8.277108E0,2.778593E0,0E0,0E0,0E0,0E0,0E0,0E0,0E0,0E0,0E0,0E0],"parents":[2147483647,0,0,1,1,2,2,3,3,4,4,6,6,7,7,8,8,10,10,11,11,12,12],"right_children":[2,4,6,8,10,-1,12,14,16,-1,18,20,22,-1,-1,-1,-1,-1,-1,-1,-1,-1,-1],"split_conditions":[3.05E0,1.75E0,2.4999999E-2,1.45E0,1.4E0,-5.3715944E-2,3.65E0,6.05E0,2.25E0,1.4835867E-1,1.025E1,5.95E0,3.85E0,6.040739E-2,2.6890738E-2,7.623521E-3,-5.1943887E-2,6.973078E-2,7.4488516E-3,7.8885205E-2,1.1956395E-2,-1.2431246E-2,-5.3249575E-2],"split_indices":[2,4,1,4,3,0,2,3,2,0,5,3,2,0,0,0,0,0,0,0,0,0,0],"split_type":[0,0,0,0,0,0,0,0,0,0,0,0,0,0,0,0,0,0,0,0,0,0,0],"sum_hessian":[7.069168E2,3.3979715E2,3.6711966E2,2.83647E2,5.615013E1,2.0741544E2,1.5970422E2,2.430602E2,4.0586807E1,4.0410156E0,5.2109116E1,8.1889435E1,7.781478E1,9.392439E1,1.491358E2,7.0285745E0,3.3558235E1,4.2815807E1,9.29331E0,2.7281858E1,5.4607574E1,2.5315939E1,5.2498844E1],"tree_param":{"num_deleted":"0","num_feature":"6","num_nodes":"23","size_leaf_vector":"0"}},{"base_weights":[6.653084E-3,1.9961488E-1,-3.965218E-1,2.9471466E-1,3.4299563E-4,-5.091745E-1,-2.3116885E-1,2.2035396E-1,4.507094E-1,-2.5456315E-1,3.2860702E-1,-5.305876E-1,-3.37611E-1,9.958976E-2,-3.7864065E-1,4.2623878E-1,5.7009864E-3,-1.5743569E-1,5.862898E-1,3.5515168E-1,-4.944703E-1,1.8228313E-1,7.088766E-1,1.0663515E-1,-4.357181E-1,2.6257065E-1,-1.0968003E-1,-5.1992565E-1,4.5197558E-2],"categories":[],"categories_nodes":[],"categories_segments":[],"categories_sizes":[],"default_left":[true,true,true,true,true,true,true,true,true,true,true,false,true,true,true,false,false,false,false,false,false,false,false,false,false,false,false,false,false],"id":52,"left_children":[1,3,5,7,9,11,13,15,17,19,21,-1,23,25,27,-1,-1,-1,-1,-1,-1,-1,-1,-1,-1,-1,-1,-1,-1],"loss_changes":[5.5283737E1,9.107103E0,4.167015E0,3.6743317E0,1.31585455E1,3.2042313E-1,4.673541E0,9.820041E0,8.672222E0,1.3123711E1,3.695447E0,0E0,8.239186E-1,1.0553946E0,3.9721746E0,0E0,0E0,0E0,0E0,0E0,0E0,0E0,0E0,0E0,0E0,0E0,0E0,0E0,0E0],"parents":[2147483647,0,0,1,1,2,2,3,3,4,4,5,5,6,6,7,7,8,8,9,9,10,10,12,12,13,13,14,14],"right_children":[2,4,6,8,10,12,14,16,18,20,22,-1,24,26,28,-1,-1,-1,-1,-1,-1,-1,-1,-1,-1,-1,-1,-1,-1],"split_conditions":[3.55E0,1.45E0,2.4999999E-2,9.5E-1,1.75E0,1.035E1,6.95E0,4.5E-1,2.15E0,2.65E0,3.05E0,-5.3058762E-2,1.135E1,1.3499999E0,1.015E1,4.2623878E-2,5.7009864E-4,-1.5743569E-2,5.8628984E-2,3.551517E-2,-4.944703E-2,1.8228313E-2,7.088766E-2,1.0663516E-2,-4.357181E-2,2.6257066E-2,-1.09680025E-2,-5.1992565E-2,4.519756E-3],"split_indices":[2,4,1,4,4,3,3,4,2,2,2,0,3,4,3,0,0,0,0,0,0,0,0,0,0,0,0,0,0],"split_type":[0,0,0,0,0,0,0,0,0,0,0,0,0,0,0,0,0,0,0,0,0,0,0,0,0,0,0,0,0],"sum_hessian":[7.085947E2,4.7957315E2,2.2902155E2,3.2431793E2,1.5525525E2,1.349813E2,9.4040245E1,2.212591E2,1.03058815E2,8.75189E1,6.773634E1,1.18143074E2,1.6838226E1,2.9099293E1,6.494095E1,1.1243303E2,1.08826065E2,1.8758137E1,8.430068E1,2.4577007E1,6.2941895E1,4.9982815E1,1.7753529E1,3.030168E0,1.3808058E1,1.621569E1,1.2883603E1,4.8535202E1,1.640575E1],"tree_param":{"num_deleted":"0","num_feature":"6","num_nodes":"29","size_leaf_vector":"0"}},{"base_weights":[7.214374E-3,9.790462E-2,-3.337697E-1,2.600368E-1,5.59842E-4,9.596437E-3,-4.730675E-1,7.068351E-2,3.944678E-1,-1.3435559E-1,1.5172464E-1,-3.0383033E-1,2.3429081E-1,-5.3368115E-1,3.5632005E-1,3.178972E-1,-1.0031287E-1,5.173751E-1,8.047296E-2,-3.177084E-1,1.4547776E-1,-4.8763145E-2,3.8645107E-1,-4.5796672E-1,1.8087411E-1,6.154609E-1,5.4587177E-3,-6.365448E-2,6.4246607E-1],"categories":[],"categories_nodes":[],"categories_segments":[],"categories_sizes":[],"default_left":[true,true,true,true,true,true,true,true,true,true,true,true,true,false,true,false,false,false,false,false,false,false,false,false,false,false,false,false,false],"id":53,"left_children":[1,3,5,7,9,11,13,15,17,19,21,23,25,-1,27,-1,-1,-1,-1,-1,-1,-1,-1,-1,-1,-1,-1,-1,-1],"loss_changes":[2.1962038E1,8.852846E0,7.1412487E0,5.328727E0,7.188928E0,3.1728716E0,5.52742E0,3.7767434E0,4.699299E0,9.602894E0,7.8418016E0,1.4892904E0,2.28338E0,0E0,9.818792E-1,0E0,0E0,0E0,0E0,0E0,0E0,0E0,0E0,0E0,0E0,0E0,0E0,0E0,0E0],"parents":[2147483647,0,0,1,1,2,2,3,3,4,4,5,5,6,6,7,7,8,8,9,9,10,10,11,11,12,12,14,14],"right_children":[2,4,6,8,10,12,14,16,18,20,22,24,26,-1,28,-1,-1,-1,-1,-1,-1,-1,-1,-1,-1,-1,-1,-1,-1],"split_conditions":[3.85E0,6.3500004E0,1.45E0,2.75E0,1.005E1,1.5E-2,1.75E0,2.4999999E-2,1.45E0,2.4999999E-2,2.95E0,9.5E-1,6.05E0,-5.3368118E-2,2.4999999E-2,3.178972E-2,-1.0031288E-2,5.1737513E-2,8.047297E-3,-3.177084E-2,1.45477755E-2,-4.8763147E-3,3.8645107E-2,-4.5796674E-2,1.8087411E-2,6.1546087E-2,5.458718E-4,-6.3654482E-3,6.424661E-2],"split_indices":[2,3,4,2,3,1,4,1,4,1,2,4,3,0,1,0,0,0,0,0,0,0,0,0,0,0,0,0,0],"split_type":[0,0,0,0,0,0,0,0,0,0,0,0,0,0,0,0,0,0,0,0,0,0,0,0,0,0,0,0,0],"sum_hessian":[7.0813885E2,5.599294E2,1.4820944E2,2.0943484E2,3.5049454E2,4.3042267E1,1.05167175E2,8.758811E1,1.2184673E2,1.8526007E2,1.6523447E2,1.782539E1,2.5216877E1,9.8337E1,6.830171E0,3.5461483E1,5.212663E1,8.710387E1,3.474287E1,1.1184288E2,7.341719E1,8.954409E1,7.5690384E1,1.3566421E1,4.25897E0,8.825873E0,1.6391003E1,3.0829265E0,3.7472446E0],"tree_param":{"num_deleted":"0","num_feature":"6","num_nodes":"29","size_leaf_vector":"0"}},{"base_weights":[6.8231705E-3,1.5369256E-1,-1.2341253E-1,-1.21746846E-1,2.4070932E-1,-3.5080332E-1,6.1564725E-2,-2.5974098E-1,1.9661245E-1,3.1350428E-1,6.509846E-3,1.1994257E-1,-4.434818E-1,-1.1857856E-1,2.260809E-1,-4.251572E-2,-3.7285176E-1,4.5846346E-1,-1.3441204E-1,3.9314154E-1,1.4299013E-1,-1.0395956E-1,9.4346356E-1,-1.24732405E-1,3.7727872E-1,2.3748028E-1,-4.821978E-1,-4.684047E-1,-1.3055631E-2,-3.3986175E-1,3.3788645E-1],"categories":[],"categories_nodes":[],"categories_segments":[],"categories_sizes":[],"default_left":[true,true,true,true,true,true,true,true,true,true,true,true,true,true,true,false,false,false,false,false,false,false,false,false,false,false,false,false,false,false,false],"id":54,"left_children":[1,3,5,7,9,11,13,15,17,19,21,23,25,27,29,-1,-1,-1,-1,-1,-1,-1,-1,-1,-1,-1,-1,-1,-1,-1,-1],"loss_changes":[1.3591207E1,8.0328865E0,1.5863529E1,3.6021748E0,4.3299494E0,7.4305267E0,6.2070694E0,1.3802643E0,2.229608E0,2.575779E0,