{"learner":{"attributes":{"scikit_learn":"{\"use_label_encoder\": true, \"n_estimators\": 25, \"objective\": \"multi:softprob\", \"max_depth\": 2, \"learning_rate\": 0.01, \"verbosity\": null, \"booster\": null, \"tree_method\": null, \"gamma\": 0.0, \"min_child_weight\": 1, \"max_delta_step\": null, \"subsample\": null, \"colsample_bytree\": 0.5, \"colsample_bylevel\": null, \"colsample_bynode\": null, \"reg_alpha\": null, \"reg_lambda\": null, \"scale_pos_weight\": null, \"base_score\": null, \"missing\": NaN, \"num_parallel_tree\": null, \"kwargs\": {}, \"random_state\": null, \"n_jobs\": null, \"monotone_constraints\": null, \"interaction_constraints\": null, \"importance_type\": \"gain\", \"gpu_id\": null, \"validate_parameters\": null, \"classes_\": [1, 2, 3, 4, 5, 6, 7, 8, 9, 10], \"n_classes_\": 10, \"_le\": {\"classes_\": [1, 2, 3, 4, 5, 6, 7, 8, 9, 10]}, \"_features_count\": 6, \"n_features_in_\": 6, \"type\": \"XGBClassifier\"}"},"gradient_booster":{"model":{"gbtree_model_param":{"num_trees":"250","size_leaf_vector":"0"},"tree_info":[0,1,2,3,4,5,6,7,8,9,0,1,2,3,4,5,6,7,8,9,0,1,2,3,4,5,6,7,8,9,0,1,2,3,4,5,6,7,8,9,0,1,2,3,4,5,6,7,8,9,0,1,2,3,4,5,6,7,8,9,0,1,2,3,4,5,6,7,8,9,0,1,2,3,4,5,6,7,8,9,0,1,2,3,4,5,6,7,8,9,0,1,2,3,4,5,6,7,8,9,0,1,2,3,4,5,6,7,8,9,0,1,2,3,4,5,6,7,8,9,0,1,2,3,4,5,6,7,8,9,0,1,2,3,4,5,6,7,8,9,0,1,2,3,4,5,6,7,8,9,0,1,2,3,4,5,6,7,8,9,0,1,2,3,4,5,6,7,8,9,0,1,2,3,4,5,6,7,8,9,0,1,2,3,4,5,6,7,8,9,0,1,2,3,4,5,6,7,8,9,0,1,2,3,4,5,6,7,8,9,0,1,2,3,4,5,6,7,8,9,0,1,2,3,4,5,6,7,8,9,0,1,2,3,4,5,6,7,8,9,0,1,2,3,4,5,6,7,8,9],"trees":[{"base_weights":[1.2441746E-8,9.552299E-1,-3.7965825E-1,-2.1094953E-1,1.6349269E0,6.9695115E-2,-4.871836E-1],"categories":[],"categories_nodes":[],"categories_segments":[],"categories_sizes":[],"default_left":[false,true,true,false,false,false,false],"id":0,"left_children":[1,3,5,-1,-1,-1,-1],"loss_changes":[2.618412E2,1.6311172E2,2.4997086E1,0E0,0E0,0E0,0E0],"parents":[2147483647,0,0,1,1,2,2],"right_children":[2,4,6,-1,-1,-1,-1],"split_conditions":[1.025E1,2.4999999E-2,1.075E1,-2.1094952E-3,1.634927E-2,6.969511E-4,-4.871836E-3],"split_indices":[5,1,5,0,0,0,0],"split_type":[0,0,0,0,0,0,0],"sum_hessian":[7.2E2,2.0434549E2,5.156545E2,7.549897E1,1.2884653E2,9.963348E1,4.16021E2],"tree_param":{"num_deleted":"0","num_feature":"6","num_nodes":"7","size_leaf_vector":"0"}},{"base_weights":[-4.6212204E-8,6.314067E-1,-2.509541E-1,5.141243E-1,1.2129486E0,3.183061E-1,-3.2936046E-1],"categories":[],"categories_nodes":[],"categories_segments":[],"categories_sizes":[],"default_left":[false,true,true,false,false,false,false],"id":1,"left_children":[1,3,5,-1,-1,-1,-1],"loss_changes":[1.1440384E2,1.3381912E1,2.3164997E1,0E0,0E0,0E0,0E0],"parents":[2147483647,0,0,1,1,2,2],"right_children":[2,4,6,-1,-1,-1,-1],"split_conditions":[1.025E1,1.75E0,4.5E-1,5.1412424E-3,1.2129486E-2,3.1830608E-3,-3.2936046E-3],"split_indices":[5,4,4,0,0,0,0],"split_type":[0,0,0,0,0,0,0],"sum_hessian":[7.2E2,2.0434549E2,5.156545E2,1.7161842E2,3.2727066E1,6.2054607E1,4.5359988E2],"tree_param":{"num_deleted":"0","num_feature":"6","num_nodes":"7","size_leaf_vector":"0"}},{"base_weights":[-3.923697E-8,2.8413808E-1,-4.3624756E-1,7.7483356E-2,4.612377E-1,-5.3203875E-1,-2.714301E-1],"categories":[],"categories_nodes":[],"categories_segments":[],"categories_sizes":[],"default_left":[true,true,true,false,false,false,false],"id":2,"left_children":[1,3,5,-1,-1,-1,-1],"loss_changes":[8.949519E1,1.596603E1,4.351631E0,0E0,0E0,0E0,0E0],"parents":[2147483647,0,0,1,1,2,2],"right_children":[2,4,6,-1,-1,-1,-1],"split_conditions":[3.55E0,2.4999999E-2,2.4999999E-2,7.7483355E-4,4.612377E-3,-5.3203874E-3,-2.714301E-3],"split_indices":[2,1,1,0,0,0,0],"split_type":[0,0,0,0,0,0,0],"sum_hessian":[7.2E2,4.3622513E2,2.8377484E2,2.0197786E2,2.3424727E2,1.7805945E2,1.05715416E2],"tree_param":{"num_deleted":"0","num_feature":"6","num_nodes":"7","size_leaf_vector":"0"}},{"base_weights":[-3.3997797E-8,1.8092257E-1,-2.2978123E-1,1.21037655E-1,3.211041E-1,-3.4549648E-1,1.6433102E-1],"categories":[],"categories_nodes":[],"categories_segments":[],"categories_sizes":[],"default_left":[true,true,true,false,false,false,false],"id":3,"left_children":[1,3,5,-1,-1,-1,-1],"loss_changes":[3.0015425E1,3.3521614E0,1.4561581E1,0E0,0E0,0E0,0E0],"parents":[2147483647,0,0,1,1,2,2],"right_children":[2,4,6,-1,-1,-1,-1],"split_conditions":[1.45E0,9.5E-1,1.75E0,1.2103765E-3,3.211041E-3,-3.4549646E-3,1.6433102E-3],"split_indices":[4,4,4,0,0,0,0],"split_type":[0,0,0,0,0,0,0],"sum_hessian":[7.2E2,4.0294565E2,3.1705432E2,2.8363956E2,1.193061E2,2.4518803E2,7.186628E1],"tree_param":{"num_deleted":"0","num_feature":"6","num_nodes":"7","size_leaf_vector":"0"}},{"base_weights":[-4.0508015E-9,8.506193E-2,-3.3761486E-1,-1.5337676E-1,1.7313896E-1,-4.8575798E-1,-1.5578079E-1],"categories":[],"categories_nodes":[],"categories_segments":[],"categories_sizes":[],"default_left":[true,true,true,false,false,false,false],"id":4,"left_children":[1,3,5,-1,-1,-1,-1],"loss_changes":[2.0734522E1,1.2137827E1,3.8383274E0,0E0,0E0,0E0,0E0],"parents":[2147483647,0,0,1,1,2,2],"right_children":[2,4,6,-1,-1,-1,-1],"split_conditions":[3.95E0,2.55E0,5E-3,-1.5337676E-3,1.7313896E-3,-4.8575797E-3,-1.5578079E-3],"split_indices":[2,2,1,0,0,0,0],"split_type":[0,0,0,0,0,0,0],"sum_hessian":[7.2E2,5.757005E2,1.4429947E2,1.5509418E2,4.2060632E2,7.8595245E1,6.570422E1],"tree_param":{"num_deleted":"0","num_feature":"6","num_nodes":"7","size_leaf_vector":"0"}},{"base_weights":[-1.323744E-8,2.2678468E-1,-1.4759429E-1,-1.3280737E-1,4.7092533E-1,-3.14959E-2,-4.225645E-1],"categories":[],"categories_nodes":[],"categories_segments":[],"categories_sizes":[],"default_left":[true,true,true,false,false,false,false],"id":5,"left_children":[1,3,5,-1,-1,-1,-1],"loss_changes":[2.4166872E1,2.5051348E1,1.3948809E1,0E0,0E0,0E0,0E0],"parents":[2147483647,0,0,1,1,2,2],"right_children":[2,4,6,-1,-1,-1,-1],"split_conditions":[9.5E-1,4.5E-1,3.95E0,-1.3280737E-3,4.709253E-3,-3.1495898E-4,-4.2256447E-3],"split_indices":[4,4,2,0,0,0,0],"split_type":[0,0,0,0,0,0,0],"sum_hessian":[7.2E2,2.8363956E2,4.363604E2,1.1488409E2,1.6875548E2,3.0759967E2,1.2876073E2],"tree_param":{"num_deleted":"0","num_feature":"6","num_nodes":"7","size_leaf_vector":"0"}},{"base_weights":[-1.1697722E-8,-3.0577284E-1,1.5718111E-1,-5.5004054E-1,-1.3443714E-1,3.3129165E-1,-2.424135E-1],"categories":[],"categories_nodes":[],"categories_segments":[],"categories_sizes":[],"default_left":[false,true,true,false,false,false,false],"id":6,"left_children":[1,3,5,-1,-1,-1,-1],"loss_changes":[3.4700558E1,1.0185261E1,3.325776E1,0E0,0E0,0E0,0E0],"parents":[2147483647,0,0,1,1,2,2],"right_children":[2,4,6,-1,-1,-1,-1],"split_conditions":[1.075E1,7.25E0,3.95E0,-5.500405E-3,-1.3443714E-3,3.3129165E-3,-2.424135E-3],"split_indices":[5,3,2,0,0,0,0],"split_type":[0,0,0,0,0,0,0],"sum_hessian":[7.2E2,2.4413187E2,4.758681E2,9.973403E1,1.4439784E2,3.3156863E2,1.4429947E2],"tree_param":{"num_deleted":"0","num_feature":"6","num_nodes":"7","size_leaf_vector":"0"}},{"base_weights":[5.042834E-9,-4.7031763E-1,2.4176465E-1,-5.518871E-1,-3.348992E-1,-4.585199E-1,3.7275666E-1],"categories":[],"categories_nodes":[],"categories_segments":[],"categories_sizes":[],"default_left":[false,true,true,false,false,false,false],"id":7,"left_children":[1,3,5,-1,-1,-1,-1],"loss_changes":[8.2095856E1,2.5229034E0,4.3914833E1,0E0,0E0,0E0,0E0],"parents":[2147483647,0,0,1,1,2,2],"right_children":[2,4,6,-1,-1,-1,-1],"split_conditions":[1.075E1,6.5E0,5.5E-1,-5.518871E-3,-3.3489917E-3,-4.585199E-3,3.7275665E-3],"split_indices":[5,0,4,0,0,0,0],"split_type":[0,0,0,0,0,0,0],"sum_hessian":[7.2E2,2.4413187E2,4.758681E2,1.5043922E2,9.369264E1,7.459298E1,4.0127512E2],"tree_param":{"num_deleted":"0","num_feature":"6","num_nodes":"7","size_leaf_vector":"0"}},{"base_weights":[-8.184272E-9,5.663867E-1,-5.5403346E-1,-5.523673E-1,1.6240988E0],"categories":[],"categories_nodes":[],"categories_segments":[],"categories_sizes":[],"default_left":[true,true,false,false,false],"id":8,"left_children":[1,3,-1,-1,-1],"loss_changes":[2.2656155E2,4.2336557E2,0E0,0E0,0E0],"parents":[2147483647,0,0,1,1],"right_children":[2,4,-1,-1,-1],"split_conditions":[5.5E0,9.15E0,-5.5403346E-3,-5.5236733E-3,1.6240988E-2],"split_indices":[0,3,0,0,0],"split_type":[0,0,0,0,0],"sum_hessian":[7.2E2,3.5601974E2,3.6398022E2,1.7324953E2,1.8277022E2],"tree_param":{"num_deleted":"0","num_feature":"6","num_nodes":"5","size_leaf_vector":"0"}},{"base_weights":[-8.184272E-9,-5.5459225E-1,2.201203E0,4.47685E0,-5.472269E-1],"categories":[],"categories_nodes":[],"categories_segments":[],"categories_sizes":[],"default_left":[true,false,true,false,false],"id":9,"left_children":[1,-1,3,-1,-1],"loss_changes":[8.81396E2,0E0,9.1121906E2,0E0,0E0],"parents":[2147483647,0,0,2,2],"right_children":[2,-1,4,-1,-1],"split_conditions":[3.95E0,-5.5459226E-3,5E-3,4.47685E-2,-5.472269E-3],"split_indices":[2,0,1,0,0],"split_type":[0,0,0,0,0],"sum_hessian":[7.2E2,5.757005E2,1.4429947E2,7.8595245E1,6.570422E1],"tree_param":{"num_deleted":"0","num_feature":"6","num_nodes":"5","size_leaf_vector":"0"}},{"base_weights":[2.372093E-6,1.1907184E0,-4.7512436E-1,-1.12040766E-1,1.9069453E0,1.47373E-1,-5.4947203E-1],"categories":[],"categories_nodes":[],"categories_segments":[],"categories_sizes":[],"default_left":[true,true,true,false,false,false,false],"id":10,"left_children":[1,3,5,-1,-1,-1,-1],"loss_changes":[4.0846103E2,1.9235602E2,2.3965248E1,0E0,0E0,0E0,0E0],"parents":[2147483647,0,0,1,1,2,2],"right_children":[2,4,6,-1,-1,-1,-1],"split_conditions":[2.75E0,2.4999999E-2,2.95E0,-1.1204076E-3,1.9069454E-2,1.4737301E-3,-5.4947203E-3],"split_indices":[2,1,2,0,0,0,0],"split_type":[0,0,0,0,0,0,0],"sum_hessian":[7.199929E2,2.0492467E2,5.1506824E2,7.299542E1,1.3192924E2,5.4848774E1,4.6021948E2],"tree_param":{"num_deleted":"0","num_feature":"6","num_nodes":"7","size_leaf_vector":"0"}},{"base_weights":[1.7327304E-5,6.251413E-1,-2.5019297E-1,8.330819E-1,4.9816138E-1,-4.8646304E-1,9.1029316E-2],"categories":[],"categories_nodes":[],"categories_segments":[],"categories_sizes":[],"default_left":[false,true,true,false,false,false,false],"id":11,"left_children":[1,3,5,-1,-1,-1,-1],"loss_changes":[1.12926414E2,5.034157E0,4.161261E1,0E0,0E0,0E0,0E0],"parents":[2147483647,0,0,1,1,2,2],"right_children":[2,4,6,-1,-1,-1,-1],"split_conditions":[1.025E1,6.05E0,2.4999999E-2,8.330819E-3,4.9816137E-3,-4.8646303E-3,9.1029314E-4],"split_indices":[5,3,1,0,0,0,0],"split_type":[0,0,0,0,0,0,0],"sum_hessian":[7.199784E2,2.0537419E2,5.146042E2,7.575621E1,1.2961798E2,3.0381213E2,2.1079207E2],"tree_param":{"num_deleted":"0","num_feature":"6","num_nodes":"7","size_leaf_vector":"0"}},{"base_weights":[3.3503825E-6,2.8196782E-1,-4.3554994E-1,6.534839E-1,1.8036711E-1,-5.3158176E-1,-2.7086416E-1],"categories":[],"categories_nodes":[],"categories_segments":[],"categories_sizes":[],"default_left":[true,true,true,false,false,false,false],"id":12,"left_children":[1,3,5,-1,-1,-1,-1],"loss_changes":[8.8668594E1,1.6425247E1,4.3431244E0,0E0,0E0,0E0,0E0],"parents":[2147483647,0,0,1,1,2,2],"right_children":[2,4,6,-1,-1,-1,-1],"split_conditions":[3.55E0,4.5E-1,2.4999999E-2,6.534839E-3,1.8036711E-3,-5.3158174E-3,-2.7086416E-3],"split_indices":[2,4,1,0,0,0,0],"split_type":[0,0,0,0,0,0,0],"sum_hessian":[7.199949E2,4.3727103E2,2.8272388E2,9.273643E1,3.445346E2,1.7717908E2,1.0554479E2],"tree_param":{"num_deleted":"0","num_feature":"6","num_nodes":"7","size_leaf_vector":"0"}},{"base_weights":[9.438476E-6,1.2768851E-1,-3.806462E-1,1.9877031E-1,-1.6142301E-2,1.7445303E-2,-5.032235E-1],"categories":[],"categories_nodes":[],"categories_segments":[],"categories_sizes":[],"default_left":[true,true,true,false,false,false,false],"id":13,"left_children":[1,3,5,-1,-1,-1,-1],"loss_changes":[3.5089912E1,5.530636E0,8.857758E0,0E0,0E0,0E0,0E0],"parents":[2147483647,0,0,1,1,2,2],"right_children":[2,4,6,-1,-1,-1,-1],"split_conditions":[3.85E0,1.45E0,1.45E0,1.9877031E-3,-1.6142301E-4,1.7445303E-4,-5.032235E-3],"split_indices":[2,4,4,0,0,0,0],"split_type":[0,0,0,0,0,0,0],"sum_hessian":[7.1998846E2,5.396457E2,1.8034279E2,3.6090363E2,1.7874207E2,4.265871E1,1.3768407E2],"tree_param":{"num_deleted":"0","num_feature":"6","num_nodes":"7","size_leaf_vector":"0"}},{"base_weights":[2.3000855E-6,2.1757993E-1,-1.6340865E-1,1.1888201E-2,2.666502E-1,-3.984907E-1,7.747288E-2],"categories":[],"categories_nodes":[],"categories_segments":[],"categories_sizes":[],"default_left":[true,true,true,false,false,false,false],"id":14,"left_children":[1,3,5,-1,-1,-1,-1],"loss_changes":[2.567028E1,3.1224737E0,2.3379448E1,0E0,0E0,0E0,0E0],"parents":[2147483647,0,0,1,1,2,2],"right_children":[2,4,6,-1,-1,-1,-1],"split_conditions":[8.55E0,4.5E-1,9.75E0,1.1888201E-4,2.666502E-3,-3.9849067E-3,7.747288E-4],"split_indices":[3,4,3,0,0,0,0],"split_type":[0,0,0,0,0,0,0],"sum_hessian":[7.1999664E2,3.0867374E2,4.113229E2,5.9693607E1,2.4898012E2,2.0783626E2,2.0348665E2],"tree_param":{"num_deleted":"0","num_feature":"6","num_nodes":"7","size_leaf_vector":"0"}},{"base_weights":[5.7174448E-6,2.1878928E-1,-1.9631644E-1,4.6819493E-1,-2.4197767E-2,1.0019723E-1,-3.666695E-1],"categories":[],"categories_nodes":[],"categories_segments":[],"categories_sizes":[],"default_left":[true,true,true,false,false,false,false],"id":15,"left_children":[1,3,5,-1,-1,-1,-1],"loss_changes":[3.1011068E1,2.070477E1,1.9258066E1,0E0,0E0,0E0,0E0],"parents":[2147483647,0,0,1,1,2,2],"right_children":[2,4,6,-1,-1,-1,-1],"split_conditions":[9.15E0,2.4999999E-2,1.05E0,4.681949E-3,-2.4197766E-4,1.0019724E-3,-3.666695E-3],"split_indices":[3,1,4,0,0,0,0],"split_type":[0,0,0,0,0,0,0],"sum_hessian":[7.1999255E2,3.404627E2,3.7952982E2,1.6755493E2,1.7290778E2,1.3863533E2,2.4089449E2],"tree_param":{"num_deleted":"0","num_feature":"6","num_nodes":"7","size_leaf_vector":"0"}},{"base_weights":[1.0354067E-6,2.2406632E-1,-2.5059697E-1,-2.8394846E-2,5.041572E-1,-4.3075633E-1,-7.751294E-2],"categories":[],"categories_nodes":[],"categories_segments":[],"categories_sizes":[],"default_left":[true,true,false,false,false,false,false],"id":16,"left_children":[1,3,5,-1,-1,-1,-1],"loss_changes":[4.0540394E1,2.6968197E1,1.0594292E1,0E0,0E0,0E0,0E0],"parents":[2147483647,0,0,1,1,2,2],"right_children":[2,4,6,-1,-1,-1,-1],"split_conditions":[2.4999999E-2,5E-3,1.175E1,-2.8394847E-4,5.041572E-3,-4.3075634E-3,-7.751294E-4],"split_indices":[1,1,5,0,0,0,0],"split_type":[0,0,0,0,0,0,0],"sum_hessian":[7.199976E2,3.8017792E2,3.398197E2,2.0042372E2,1.7975421E2,1.6577718E2,1.7404253E2],"tree_param":{"num_deleted":"0","num_feature":"6","num_nodes":"7","size_leaf_vector":"0"}},{"base_weights":[-3.681571E-6,-4.6961868E-1,2.3975341E-1,-2.8678122E-1,-5.5189383E-1,4.9113044E-1,-2.8907055E-1],"categories":[],"categories_nodes":[],"categories_segments":[],"categories_sizes":[],"default_left":[false,true,true,false,false,false,false],"id":17,"left_children":[1,3,5,-1,-1,-1,-1],"loss_changes":[8.1292816E1,3.5126038E0,6.3681404E1,0E0,0E0,0E0,0E0],"parents":[2147483647,0,0,1,1,2,2],"right_children":[2,4,6,-1,-1,-1,-1],"split_conditions":[1.075E1,1.5E-2,3.5E-2,-2.867812E-3,-5.518938E-3,4.9113045E-3,-2.8907054E-3],"split_indices":[5,1,1,0,0,0,0],"split_type":[0,0,0,0,0,0,0],"sum_hessian":[7.2000256E2,2.43026E2,4.7697656E2,7.6812874E1,1.6621313E2,3.233453E2,1.5363126E2],"tree_param":{"num_deleted":"0","num_feature":"6","num_nodes":"7","size_leaf_vector":"0"}},{"base_weights":[-8.834246E-6,-5.536217E-1,4.91599E-1,1.6923405E0,-5.531074E-1],"categories":[],"categories_nodes":[],"categories_segments":[],"categories_sizes":[],"default_left":[true,false,true,false,false],"id":18,"left_children":[1,-1,3,-1,-1],"loss_changes":[1.9650082E2,0E0,4.8064893E2,0E0,0E0],"parents":[2147483647,0,0,2,2],"right_children":[2,-1,4,-1,-1],"split_conditions":[9.15E0,-5.536217E-3,9.75E0,1.6923405E-2,-5.5310735E-3],"split_indices":[3,0,3,0,0],"split_type":[0,0,0,0,0],"sum_hessian":[7.2000366E2,3.3858633E2,3.8141736E2,1.77168E2,2.0424936E2],"tree_param":{"num_deleted":"0","num_feature":"6","num_nodes":"5","size_leaf_vector":"0"}},{"base_weights":[-2.8977089E-5,-5.541695E-1,1.4868112E0,3.8026922E0,-5.5000055E-1],"categories":[],"categories_nodes":[],"categories_segments":[],"categories_sizes":[],"default_left":[true,false,true,false,false],"id":19,"left_children":[1,-1,3,-1,-1],"loss_changes":[5.948809E2,0E0,9.2677686E2,0E0,0E0],"parents":[2147483647,0,0,2,2],"right_children":[2,-1,4,-1,-1],"split_conditions":[1.475E1,-5.541695E-3,5E-3,3.802692E-2,-5.5000056E-3],"split_indices":[5,0,1,0,0],"split_type":[0,0,0,0,0],"sum_hessian":[7.2001434E2,5.2498236E2,1.9503195E2,9.085812E1,1.0417383E2],"tree_param":{"num_deleted":"0","num_feature":"6","num_nodes":"5","size_leaf_vector":"0"}},{"base_weights":[-7.0942525E-7,-4.6833628E-1,5.156255E-1,-5.391894E-1,-1.6397902E-1,1.6044255E-1,1.335537E0],"categories":[],"categories_nodes":[],"categories_segments":[],"categories_sizes":[],"default_left":[true,true,true,false,false,false,false],"id":20,"left_children":[1,3,5,-1,-1,-1,-1],"loss_changes":[1.7434842E2,8.070366E0,9.986034E1,0E0,0E0,0E0,0E0],"parents":[2147483647,0,0,1,1,2,2],"right_children":[2,4,6,-1,-1,-1,-1],"split_conditions":[2.4999999E-2,1.005E1,1.015E1,-5.391894E-3,-1.6397903E-3,1.6044254E-3,1.335537E-2],"split_indices":[1,3,3,0,0,0,0],"split_type":[0,0,0,0,0,0,0],"sum_hessian":[7.199813E2,3.7734036E2,3.4264093E2,3.054592E2,7.188118E1,2.3990889E2,1.0273204E2],"tree_param":{"num_deleted":"0","num_feature":"6","num_nodes":"7","size_leaf_vector":"0"}},{"base_weights":[2.765566E-5,5.4423076E-1,-3.5609722E-1,9.81228E-1,4.0219826E-1,-4.297615E-1,3.0720694E-2],"categories":[],"categories_nodes":[],"categories_segments":[],"categories_sizes":[],"default_left":[true,true,true,false,false,false,false],"id":21,"left_children":[1,3,5,-1,-1,-1,-1],"loss_changes":[1.3991931E2,1.7330185E1,1.2447983E1,0E0,0E0,0E0,0E0],"parents":[2147483647,0,0,1,1,2,2],"right_children":[2,4,6,-1,-1,-1,-1],"split_conditions":[3.05E0,4.5E-1,1.035E1,9.81228E-3,4.0219827E-3,-4.297615E-3,3.0720694E-4],"split_indices":[2,4,3,0,0,0,0],"split_type":[0,0,0,0,0,0,0],"sum_hessian":[7.1996204E2,2.8457217E2,4.3538986E2,6.8354515E1,2.1621767E2,3.656464E2,6.974346E1],"tree_param":{"num_deleted":"0","num_feature":"6","num_nodes":"7","size_leaf_vector":"0"}},{"base_weights":[7.917069E-6,2.7970988E-1,-4.3481666E-1,7.501311E-2,4.547034E-1,-5.3106487E-1,-2.7051252E-1],"categories":[],"categories_nodes":[],"categories_segments":[],"categories_sizes":[],"default_left":[true,true,true,false,false,false,false],"id":22,"left_children":[1,3,5,-1,-1,-1,-1],"loss_changes":[8.780885E1,1.5704174E1,4.325714E0,0E0,0E0,0E0,0E0],"parents":[2147483647,0,0,1,1,2,2],"right_children":[2,4,6,-1,-1,-1,-1],"split_conditions":[3.55E0,2.4999999E-2,2.4999999E-2,7.501311E-4,4.547034E-3,-5.3106486E-3,-2.7051251E-3],"split_indices":[2,1,1,0,0,0,0],"split_type":[0,0,0,0,0,0,0],"sum_hessian":[7.1998584E2,4.3836392E2,2.8162192E2,2.0269374E2,2.3567017E2,1.7618295E2,1.0543898E2],"tree_param":{"num_deleted":"0","num_feature":"6","num_nodes":"7","size_leaf_vector":"0"}},{"base_weights":[1.3800168E-5,3.351828E-1,-1.484011E-1,2.50488E-1,3.9300278E-1,-3.2522255E-1,1.7689872E-1],"categories":[],"categories_nodes":[],"categories_segments":[],"categories_sizes":[],"default_left":[true,true,true,false,false,false,false],"id":23,"left_children":[1,3,5,-1,-1,-1,-1],"loss_changes":[3.591429E1,9.8664856E-1,2.8840584E1,0E0,0E0,0E0,0E0],"parents":[2147483647,0,0,1,1,2,2],"right_children":[2,4,6,-1,-1,-1,-1],"split_conditions":[6.6499996E0,2.55E0,1.005E1,2.50488E-3,3.9300276E-3,-3.2522255E-3,1.7689872E-3],"split_indices":[3,3,3,0,0,0,0],"split_type":[0,0,0,0,0,0,0],"sum_hessian":[7.1998145E2,2.2058057E2,4.994009E2,9.16556E1,1.2892497E2,3.2353757E2,1.7586334E2],"tree_param":{"num_deleted":"0","num_feature":"6","num_nodes":"7","size_leaf_vector":"0"}},{"base_weights":[7.514252E-6,8.389921E-2,-3.3571792E-1,-1.527054E-1,1.709344E-1,-4.8414114E-1,-1.5552907E-1],"categories":[],"categories_nodes":[],"categories_segments":[],"categories_sizes":[],"default_left":[true,true,true,false,false,false,false],"id":24,"left_children":[1,3,5,-1,-1,-1,-1],"loss_changes":[2.0334503E1,1.1921514E1,3.7850437E0,0E0,0E0,0E0,0E0],"parents":[2147483647,0,0,1,1,2,2],"right_children":[2,4,6,-1,-1,-1,-1],"split_conditions":[3.95E0,2.55E0,5E-3,-1.527054E-3,1.7093439E-3,-4.8414115E-3,-1.5552907E-3],"split_indices":[2,2,1,0,0,0,0],"split_type":[0,0,0,0,0,0,0],"sum_hessian":[7.199885E2,5.7664545E2,1.4334312E2,1.548721E2,4.2177332E2,7.7674805E1,6.566833E1],"tree_param":{"num_deleted":"0","num_feature":"6","num_nodes":"7","size_leaf_vector":"0"}},{"base_weights":[1.2807264E-5,2.2382414E-1,-1.4649233E-1,-1.3276513E-1,4.6449053E-1,-8.1199124E-2,-2.9146236E-1],"categories":[],"categories_nodes":[],"categories_segments":[],"categories_sizes":[],"default_left":[true,true,true,false,false,false,false],"id":25,"left_children":[1,3,5,-1,-1,-1,-1],"loss_changes":[2.3673433E1,2.4574291E1,4.106634E0,0E0,0E0,0E0,0E0],"parents":[2147483647,0,0,1,1,2,2],"right_children":[2,4,6,-1,-1,-1,-1],"split_conditions":[9.5E-1,4.5E-1,8.5E0,-1.3276513E-3,4.644905E-3,-8.119912E-4,-2.9146236E-3],"split_indices":[4,4,0,0,0,0,0],"split_type":[0,0,0,0,0,0,0],"sum_hessian":[7.1998193E2,2.846315E2,4.3535043E2,1.14873985E2,1.6975752E2,3.012364E2,1.3411406E2],"tree_param":{"num_deleted":"0","num_feature":"6","num_nodes":"7","size_leaf_vector":"0"}},{"base_weights":[5.794842E-6,2.2269143E-1,-2.4991094E-1,4.8763064E-1,-1.1358664E-1,-1.3617533E-1,-5.068142E-1],"categories":[],"categories_nodes":[],"categories_segments":[],"categories_sizes":[],"default_left":[true,true,true,false,false,false,false],"id":26,"left_children":[1,3,5,-1,-1,-1,-1],"loss_changes":[4.0180794E1,3.4070755E1,9.871141E0,0E0,0E0,0E0,0E0],"parents":[2147483647,0,0,1,1,2,2],"right_children":[2,4,6,-1,-1,-1,-1],"split_conditions":[2.4999999E-2,1.55E0,1.005E1,4.8763063E-3,-1.1358664E-3,-1.3617533E-3,-5.0681415E-3],"split_indices":[1,4,3,0,0,0,0],"split_type":[0,0,0,0,0,0,0],"sum_hessian":[7.199897E2,3.8079514E2,3.3919452E2,2.1273792E2,1.6805724E2,2.3616858E2,1.0302594E2],"tree_param":{"num_deleted":"0","num_feature":"6","num_nodes":"7","size_leaf_vector":"0"}},{"base_weights":[-4.727285E-6,-4.6893746E-1,2.3781745E-1,-5.5117905E-1,-3.327155E-1,-4.5832857E-1,3.671616E-1],"categories":[],"categories_nodes":[],"categories_segments":[],"categories_sizes":[],"default_left":[false,true,true,false,false,false,false],"id":27,"left_children":[1,3,5,-1,-1,-1,-1],"loss_changes":[8.051931E1,2.538433E0,4.3302902E1,0E0,0E0,0E0,0E0],"parents":[2147483647,0,0,1,1,2,2],"right_children":[2,4,6,-1,-1,-1,-1],"split_conditions":[1.075E1,6.5E0,5.5E-1,-5.5117905E-3,-3.327155E-3,-4.5832857E-3,3.6716159E-3],"split_indices":[5,0,4,0,0,0,0],"split_type":[0,0,0,0,0,0,0],"sum_hessian":[7.1999994E2,2.4195212E2,4.7804782E2,1.4896866E2,9.298345E1,7.450568E1,4.0354214E2],"tree_param":{"num_deleted":"0","num_feature":"6","num_nodes":"7","size_leaf_vector":"0"}},{"base_weights":[-2.0100646E-5,5.601273E-1,-5.5367386E-1,-5.52217E-1,1.5462203E0],"categories":[],"categories_nodes":[],"categories_segments":[],"categories_sizes":[],"default_left":[true,true,false,false,false],"id":28,"left_children":[1,3,-1,-1,-1],"loss_changes":[2.2391379E2,3.945199E2,0E0,0E0,0E0],"parents":[2147483647,0,0,1,1],"right_children":[2,4,-1,-1,-1],"split_conditions":[5.5E0,3.5E0,-5.5367383E-3,-5.52217E-3,1.5462203E-2],"split_indices":[0,0,0,0,0],"split_type":[0,0,0,0,0],"sum_hessian":[7.2000507E2,3.5789783E2,3.6210724E2,1.6838933E2,1.8950851E2],"tree_param":{"num_deleted":"0","num_feature":"6","num_nodes":"5","size_leaf_vector":"0"}},{"base_weights":[-4.996942E-5,-5.5397785E-1,2.1059158E0,4.1450133E0,-5.4667604E-1],"categories":[],"categories_nodes":[],"categories_segments":[],"categories_sizes":[],"default_left":[true,false,true,false,false],"id":29,"left_children":[1,-1,3,-1,-1],"loss_changes":[8.4224255E2,0E0,8.1552716E2,0E0,0E0],"parents":[2147483647,0,0,2,2],"right_children":[2,-1,4,-1,-1],"split_conditions":[3.95E0,-5.539778E-3,5E-3,4.145013E-2,-5.46676E-3],"split_indices":[2,0,1,0,0],"split_type":[0,0,0,0,0],"sum_hessian":[7.199923E2,5.7063605E2,1.4935628E2,8.41251E1,6.5231186E1],"tree_param":{"num_deleted":"0","num_feature":"6","num_nodes":"5","size_leaf_vector":"0"}},{"base_weights":[5.72279E-6,1.1691363E0,-4.7440457E-1,-1.0978014E-1,1.8547062E0,1.4498311E-1,-5.490419E-1],"categories":[],"categories_nodes":[],"categories_segments":[],"categories_sizes":[],"default_left":[true,true,true,false,false,false,false],"id":30,"left_children":[1,3,5,-1,-1,-1,-1],"loss_changes":[4.00435E2,1.8292206E2,2.382154E1,0E0,0E0,0E0,0E0],"parents":[2147483647,0,0,1,1,2,2],"right_children":[2,4,6,-1,-1,-1,-1],"split_conditions":[2.75E0,2.4999999E-2,2.95E0,-1.0978014E-3,1.8547062E-2,1.4498311E-3,-5.490419E-3],"split_indices":[2,1,2,0,0,0,0],"split_type":[0,0,0,0,0,0,0],"sum_hessian":[7.1996295E2,2.0739558E2,5.125673E2,7.267037E1,1.347252E2,5.5021545E1,4.575458E2],"tree_param":{"num_deleted":"0","num_feature":"6","num_nodes":"7","size_leaf_vector":"0"}},{"base_weights":[3.89075E-5,6.1313504E-1,-2.4871466E-1,6.862756E-1,3.170191E-1,-4.854808E-1,9.057815E-2],"categories":[],"categories_nodes":[],"categories_segments":[],"categories_sizes":[],"default_left":[false,false,true,false,false,false,false],"id":31,"left_children":[1,3,5,-1,-1,-1,-1],"loss_changes":[1.1010333E2,4.2953873E0,4.130063E1,0E0,0E0,0E0,0E0],"parents":[2147483647,0,0,1,1,2,2],"right_children":[2,4,6,-1,-1,-1,-1],"split_conditions":[1.025E1,9.25E0,2.4999999E-2,6.862756E-3,3.170191E-3,-4.8548076E-3,9.0578146E-4],"split_indices":[5,5,1,0,0,0,0],"split_type":[0,0,0,0,0,0,0],"sum_hessian":[7.1994257E2,2.0737248E2,5.125701E2,1.6524051E2,4.2131966E1,3.0164474E2,2.1092534E2],"tree_param":{"num_deleted":"0","num_feature":"6","num_nodes":"7","size_leaf_vector":"0"}},{"base_weights":[1.1865038E-5,2.7748224E-1,-4.3408617E-1,7.4273914E-2,4.507534E-1,-5.306088E-1,-2.6979825E-1],"categories":[],"categories_nodes":[],"categories_segments":[],"categories_sizes":[],"default_left":[true,true,true,false,false,false,false],"id":32,"left_children":[1,3,5,-1,-1,-1,-1],"loss_changes":[8.696146E1,1.5474712E1,4.3211823E0,0E0,0E0,0E0,0E0],"parents":[2147483647,0,0,1,1,2,2],"right_children":[2,4,6,-1,-1,-1,-1],"split_conditions":[3.55E0,2.4999999E-2,2.4999999E-2,7.427391E-4,4.5075337E-3,-5.3060874E-3,-2.6979824E-3],"split_indices":[2,1,1,0,0,0,0],"split_type":[0,0,0,0,0,0,0],"sum_hessian":[7.1997534E2,4.3944684E2,2.8052847E2,2.0290881E2,2.3653802E2,1.7530397E2,1.0522451E2],"tree_param":{"num_deleted":"0","num_feature":"6","num_nodes":"7","size_leaf_vector":"0"}},{"base_weights":[2.5956066E-5,1.2624437E-1,-3.7921774E-1,1.9684146E-1,-1.6784847E-2,1.6503302E-2,-5.022401E-1],"categories":[],"categories_nodes":[],"categories_segments":[],"categories_sizes":[],"default_left":[true,true,true,false,false,false,false],"id":33,"left_children":[1,3,5,-1,-1,-1,-1],"loss_changes":[3.4558693E1,5.472928E0,8.784834E0,0E0,0E0,0E0,0E0],"parents":[2147483647,0,0,1,1,2,2],"right_children":[2,4,6,-1,-1,-1,-1],"split_conditions":[3.85E0,1.45E0,1.45E0,1.9684145E-3,-1.6784847E-4,1.6503302E-4,-5.022401E-3],"split_indices":[2,4,4,0,0,0,0],"split_type":[0,0,0,0,0,0,0],"sum_hessian":[7.19965E2,5.4068384E2,1.7928116E2,3.617521E2,1.7893172E2,4.2722683E1,1.3655847E2],"tree_param":{"num_deleted":"0","num_feature":"6","num_nodes":"7","size_leaf_vector":"0"}},{"base_weights":[1.0651493E-5,2.1510543E-1,-1.6237548E-1,3.0873962E-2,3.4873083E-1,-3.9717156E-1,7.646985E-2],"categories":[],"categories_nodes":[],"categories_segments":[],"categories_sizes":[],"default_left":[true,true,true,false,false,false,false],"id":34,"left_children":[1,3,5,-1,-1,-1,-1],"loss_changes":[2.5217678E1,7.635212E0,2.31015E1,0E0,0E0,0E0,0E0],"parents":[2147483647,0,0,1,1,2,2],"right_children":[2,4,6,-1,-1,-1,-1],"split_conditions":[8.55E0,9.75E0,9.75E0,3.087396E-4,3.4873083E-3,-3.9717155E-3,7.6469855E-4],"split_indices":[3,5,3,0,0,0,0],"split_type":[0,0,0,0,0,0,0],"sum_hessian":[7.199819E2,3.095848E2,4.103971E2,1.306654E2,1.789194E2,2.0661855E2,2.0377855E2],"tree_param":{"num_deleted":"0","num_feature":"6","num_nodes":"7","size_leaf_vector":"0"}},{"base_weights":[2.0553181E-5,2.1644315E-1,-1.9522302E-1,-5.190824E-2,4.6882018E-1,-3.955865E-1,-2.1425297E-2],"categories":[],"categories_nodes":[],"categories_segments":[],"categories_sizes":[],"default_left":[true,true,true,false,false,false,false],"id":35,"left_children":[1,3,5,-1,-1,-1,-1],"loss_changes":[3.0506927E1,2.3214525E1,1.3208715E1,0E0,0E0,0E0,0E0],"parents":[2147483647,0,0,1,1,2,2],"right_children":[2,4,6,-1,-1,-1,-1],"split_conditions":[9.15E0,1.075E1,9.75E0,-5.1908236E-4,4.688202E-3,-3.955865E-3,-2.1425297E-4],"split_indices":[3,5,3,0,0,0,0],"split_type":[0,0,0,0,0,0,0],"sum_hessian":[7.199699E2,3.4141327E2,3.7855664E2,1.6585486E2,1.7555843E2,1.7524664E2,2.0331E2],"tree_param":{"num_deleted":"0","num_feature":"6","num_nodes":"7","size_leaf_vector":"0"}},{"base_weights":[9.9471845E-6,2.2094609E-1,-2.4903528E-1,-2.8138157E-2,4.949102E-1,-4.294184E-1,-7.666249E-2],"categories":[],"categories_nodes":[],"categories_segments":[],"categories_sizes":[],"default_left":[true,true,false,false,false,false,false],"id":36,"left_children":[1,3,5,-1,-1,-1,-1],"loss_changes":[3.972565E1,2.612132E1,1.0520102E1,0E0,0E0,0E0,0E0],"parents":[2147483647,0,0,1,1,2,2],"right_children":[2,4,6,-1,-1,-1,-1],"split_conditions":[2.4999999E-2,5E-3,1.175E1,-2.8138157E-4,4.949102E-3,-4.294184E-3,-7.666249E-4],"split_indices":[1,1,5,0,0,0,0],"split_type":[0,0,0,0,0,0,0],"sum_hessian":[7.1998145E2,3.8158118E2,3.3840027E2,2.0033592E2,1.8124525E2,1.6462927E2,1.7377098E2],"tree_param":{"num_deleted":"0","num_feature":"6","num_nodes":"7","size_leaf_vector":"0"}},{"base_weights":[-6.288687E-6,-4.2589095E-1,3.379207E-1,-1.4327699E-1,-5.523461E-1,5.77623E-1,-2.1790014E-1],"categories":[],"categories_nodes":[],"categories_segments":[],"categories_sizes":[],"default_left":[true,true,true,false,false,false,false],"id":37,"left_children":[1,3,5,-1,-1,-1,-1],"loss_changes":[1.0390807E2,1.1336521E1,5.376073E1,0E0,0E0,0E0,0E0],"parents":[2147483647,0,0,1,1,2,2],"right_children":[2,4,6,-1,-1,-1,-1],"split_conditions":[3.15E0,1.5E-2,3.5E-2,-1.4327698E-3,-5.523461E-3,5.77623E-3,-2.1790015E-3],"split_indices":[2,1,1,0,0,0,0],"split_type":[0,0,0,0,0,0,0],"sum_hessian":[7.1999536E2,3.1842654E2,4.0156882E2,9.909426E1,2.1933228E2,2.805431E2,1.2102575E2],"tree_param":{"num_deleted":"0","num_feature":"6","num_nodes":"7","size_leaf_vector":"0"}},{"base_weights":[-2.7221597E-5,5.544485E-1,-5.533382E-1,-5.519043E-1,1.5186008E0],"categories":[],"categories_nodes":[],"categories_segments":[],"categories_sizes":[],"default_left":[true,true,false,false,false],"id":38,"left_children":[1,3,-1,-1,-1],"loss_changes":[2.215067E2,3.8550745E2,0E0,0E0,0E0],"parents":[2147483647,0,0,1,1],"right_children":[2,4,-1,-1,-1],"split_conditions":[5.5E0,3.5E0,-5.5333823E-3,-5.519043E-3,1.5186008E-2],"split_indices":[0,0,0,0,0],"split_type":[0,0,0,0,0],"sum_hessian":[7.199964E2,3.596187E2,3.6037772E2,1.676593E2,1.919594E2],"tree_param":{"num_deleted":"0","num_feature":"6","num_nodes":"5","size_leaf_vector":"0"}},{"base_weights":[-9.001522E-5,-5.535196E-1,1.4354867E0,3.543822E0,-5.494085E-1],"categories":[],"categories_nodes":[],"categories_segments":[],"categories_sizes":[],"default_left":[true,false,true,false,false],"id":39,"left_children":[1,-1,3,-1,-1],"loss_changes":[5.7358374E2,0E0,8.4259E2,0E0,0E0],"parents":[2147483647,0,0,2,2],"right_children":[2,-1,4,-1,-1],"split_conditions":[1.475E1,-5.535196E-3,5E-3,3.543822E-2,-5.4940847E-3],"split_indices":[5,0,1,0,0],"split_type":[0,0,0,0,0],"sum_hessian":[7.199515E2,5.200726E2,1.998789E2,9.654471E1,1.033342E2],"tree_param":{"num_deleted":"0","num_feature":"6","num_nodes":"5","size_leaf_vector":"0"}},{"base_weights":[5.888108E-6,-4.671201E-1,5.059963E-1,-5.3845876E-1,-1.6209882E-1,1.5675177E-1,1.3023099E0],"categories":[],"categories_nodes":[],"categories_segments":[],"categories_sizes":[],"default_left":[true,true,true,false,false,false,false],"id":40,"left_children":[1,3,5,-1,-1,-1,-1],"loss_changes":[1.7063669E2,8.0809555E0,9.617411E1,0E0,0E0,0E0,0E0],"parents":[2147483647,0,0,1,1,2,2],"right_children":[2,4,6,-1,-1,-1,-1],"split_conditions":[2.4999999E-2,1.005E1,1.015E1,-5.3845877E-3,-1.6209882E-3,1.5675176E-3,1.3023098E-2],"split_indices":[1,3,3,0,0,0,0],"split_type":[0,0,0,0,0,0,0],"sum_hessian":[7.199317E2,3.7438214E2,3.4554956E2,3.0279813E2,7.158401E1,2.4103436E2,1.045152E2],"tree_param":{"num_deleted":"0","num_feature":"6","num_nodes":"7","size_leaf_vector":"0"}},{"base_weights":[5.1311046E-5,6.0728365E-1,-2.4797823E-1,8.1019163E-1,4.831745E-1,-3.4785753E-1,2.2378527E-1],"categories":[],"categories_nodes":[],"categories_segments":[],"categories_sizes":[],"default_left":[false,true,true,false,false,false,false],"id":41,"left_children":[1,3,5,-1,-1,-1,-1],"loss_changes":[1.0872928E2,4.8807755E0,2.4229336E1,0E0,0E0,0E0,0E0],"parents":[2147483647,0,0,1,1,2,2],"right_children":[2,4,6,-1,-1,-1,-1],"split_conditions":[1.025E1,6.05E0,1.055E1,8.101916E-3,4.831745E-3,-3.4785753E-3,2.2378527E-3],"split_indices":[5,3,3,0,0,0,0],"split_type":[0,0,0,0,0,0,0],"sum_hessian":[7.1991864E2,2.0835938E2,5.1155927E2,7.697829E1,1.3138109E2,4.2239468E2,8.9164566E1],"tree_param":{"num_deleted":"0","num_feature":"6","num_nodes":"7","size_leaf_vector":"0"}},{"base_weights":[1.865087E-5,2.7543667E-1,-4.3340674E-1,7.365782E-2,4.4705024E-1,-5.301552E-1,-2.6932913E-1],"categories":[],"categories_nodes":[],"categories_segments":[],"categories_sizes":[],"default_left":[true,true,true,false,false,false,false],"id":42,"left_children":[1,3,5,-1,-1,-1,-1],"loss_changes":[8.618259E1,1.5253433E1,4.310169E0,0E0,0E0,0E0,0E0],"parents":[2147483647,0,0,1,1,2,2],"right_children":[2,4,6,-1,-1,-1,-1],"split_conditions":[3.55E0,2.4999999E-2,2.4999999E-2,7.365782E-4,4.4705025E-3,-5.301552E-3,-2.6932913E-3],"split_indices":[2,1,1,0,0,0,0],"split_type":[0,0,0,0,0,0,0],"sum_hessian":[7.199595E2,4.4044522E2,2.7951425E2,2.0308833E2,2.3735689E2,1.7443025E2,1.0508399E2],"tree_param":{"num_deleted":"0","num_feature":"6","num_nodes":"7","size_leaf_vector":"0"}},{"base_weights":[3.4916062E-5,1.052271E-1,-2.9094693E-1,-9.199446E-2,1.5880796E-1,-5.181742E-1,-1.0011927E-1],"categories":[],"categories_nodes":[],"categories_segments":[],"categories_sizes":[],"default_left":[true,true,true,false,false,false,false],"id":43,"left_children":[1,3,5,-1,-1,-1,-1],"loss_changes":[2.2098217E1,5.6180105E0,8.260151E0,0E0,0E0,0E0,0E0],"parents":[2147483647,0,0,1,1,2,2],"right_children":[2,4,6,-1,-1,-1,-1],"split_conditions":[1.475E1,5E-3,5E-3,-9.1994455E-4,1.5880796E-3,-5.1817414E-3,-1.0011927E-3],"split_indices":[5,1,1,0,0,0,0],"split_type":[0,0,0,0,0,0,0],"sum_hessian":[7.19951E2,5.2925836E2,1.9069261E2,1.1291643E2,4.1634198E2,8.626159E1,1.0443102E2],"tree_param":{"num_deleted":"0","num_feature":"6","num_nodes":"7","size_leaf_vector":"0"}},{"base_weights":[2.0693033E-5,1.3463427E-1,-1.7178018E-1,4.4977944E-3,1.8628673E-1,-3.5235515E-1,-5.212454E-2],"categories":[],"categories_nodes":[],"categories_segments":[],"categories_sizes":[],"default_left":[true,true,true,false,false,false,false],"id":44,"left_children":[1,3,5,-1,-1,-1,-1],"loss_changes":[1.6696716E1,2.720127E0,6.834737E0,0E0,0E0,0E0,0E0],"parents":[2147483647,0,0,1,1,2,2],"right_children":[2,4,6,-1,-1,-1,-1],"split_conditions":[1.45E0,4.5E-1,5E-3,4.4977944E-5,1.8628673E-3,-3.5235514E-3,-5.212454E-4],"split_indices":[4,4,1,0,0,0,0],"split_type":[0,0,0,0,0,0,0],"sum_hessian":[7.199661E2,4.037929E2,3.1617325E2,1.1504025E2,2.8875266E2,1.2523444E2,1.9093881E2],"tree_param":{"num_deleted":"0","num_feature":"6","num_nodes":"7","size_leaf_vector":"0"}},{"base_weights":[3.0239553E-5,2.1494994E-1,-1.9452044E-1,-1.6134958E-1,4.156321E-1,9.904291E-2,-3.6472613E-1],"categories":[],"categories_nodes":[],"categories_segments":[],"categories_sizes":[],"default_left":[true,true,true,false,false,false,false],"id":45,"left_children":[1,3,5,-1,-1,-1,-1],"loss_changes":[3.0186935E1,2.5970818E1,1.8970009E1,0E0,0E0,0E0,0E0],"parents":[2147483647,0,0,1,1,2,2],"right_children":[2,4,6,-1,-1,-1,-1],"split_conditions":[9.15E0,2.75E0,1.05E0,-1.6134958E-3,4.156321E-3,9.904291E-4,-3.647261E-3],"split_indices":[3,2,4,0,0,0,0],"split_type":[0,0,0,0,0,0,0],"sum_hessian":[7.199549E2,3.4202063E2,3.7793423E2,1.1902765E2,2.2299298E2,1.388573E2,2.3907693E2],"tree_param":{"num_deleted":"0","num_feature":"6","num_nodes":"7","size_leaf_vector":"0"}},{"base_weights":[1.6552181E-5,2.1929316E-1,-2.481963E-1,3.7726358E-1,-2.6503754E-1,-4.9822012E-1,-9.2779934E-2],"categories":[],"categories_nodes":[],"categories_segments":[],"categories_sizes":[],"default_left":[true,true,true,false,false,false,false],"id":46,"left_children":[1,3,5,-1,-1,-1,-1],"loss_changes":[3.929473E1,2.9428358E1,1.3112577E1,0E0,0E0,0E0,0E0],"parents":[2147483647,0,0,1,1,2,2],"right_children":[2,4,6,-1,-1,-1,-1],"split_conditions":[2.4999999E-2,3.95E0,2.75E0,3.7726357E-3,-2.6503752E-3,-4.982201E-3,-9.277993E-4],"split_indices":[1,2,2,0,0,0,0],"split_type":[0,0,0,0,0,0,0],"sum_hessian":[7.1996765E2,3.8232764E2,3.3763998E2,2.8846295E2,9.386467E1,1.2858119E2,2.090588E2],"tree_param":{"num_deleted":"0","num_feature":"6","num_nodes":"7","size_leaf_vector":"0"}},{"base_weights":[-5.7509624E-6,-4.250894E-1,3.3484742E-1,-5.221679E-1,-1.823385E-1,7.53293E-1,4.2390175E-2],"categories":[],"categories_nodes":[],"categories_segments":[],"categories_sizes":[],"default_left":[true,true,true,false,false,false,false],"id":47,"left_children":[1,3,5,-1,-1,-1,-1],"loss_changes":[1.0276783E2,7.401825E0,4.9390785E1,0E0,0E0,0E0,0E0],"parents":[2147483647,0,0,1,1,2,2],"right_children":[2,4,6,-1,-1,-1,-1],"split_conditions":[3.15E0,2.85E0,9.05E0,-5.221679E-3,-1.823385E-3,7.5329295E-3,4.2390174E-4],"split_indices":[2,2,3,0,0,0,0],"split_type":[0,0,0,0,0,0,0],"sum_hessian":[7.1998535E2,3.1713052E2,4.0285486E2,2.2571411E2,9.14164E1,1.6508162E2,2.3777324E2],"tree_param":{"num_deleted":"0","num_feature":"6","num_nodes":"7","size_leaf_vector":"0"}},{"base_weights":[-3.9955405E-5,-5.530217E-1,3.5319254E-1,3.4793045E-2,1.4107975E0],"categories":[],"categories_nodes":[],"categories_segments":[],"categories_sizes":[],"default_left":[true,false,true,false,false],"id":48,"left_children":[1,-1,3,-1,-1],"loss_changes":[1.4102518E2,0E0,1.4830553E2,0E0,0E0],"parents":[2147483647,0,0,2,2],"right_children":[2,-1,4,-1,-1],"split_conditions":[3.05E0,-5.530217E-3,4.5E-2,3.4793044E-4,1.4107974E-2],"split_indices":[2,0,1,0,0],"split_type":[0,0,0,0,0],"sum_hessian":[7.199801E2,2.8041998E2,4.3956012E2,3.3864233E2,1.0091779E2],"tree_param":{"num_deleted":"0","num_feature":"6","num_nodes":"5","size_leaf_vector":"0"}},{"base_weights":[-1.3261577E-4,-5.5336565E-1,2.0172935E0,-5.465833E-1,3.6935477E0],"categories":[],"categories_nodes":[],"categories_segments":[],"categories_sizes":[],"default_left":[true,false,true,false,false],"id":49,"left_children":[1,-1,3,-1,-1],"loss_changes":[8.0570355E2,0E0,6.697017E2,0E0,0E0],"parents":[2147483647,0,0,2,2],"right_children":[2,-1,4,-1,-1],"split_conditions":[3.95E0,-5.5336566E-3,8.5E0,-5.465833E-3,3.6935475E-2],"split_indices":[2,0,0,0,0],"split_type":[0,0,0,0,0],"sum_hessian":[7.198874E2,5.6552954E2,1.5435785E2,6.1288834E1,9.3069016E1],"tree_param":{"num_deleted":"0","num_feature":"6","num_nodes":"5","size_leaf_vector":"0"}},{"base_weights":[6.289878E-6,1.1472856E0,-4.736555E-1,-1.079484E-1,1.8041033E0,1.4214812E-1,-5.4859334E-1],"categories":[],"categories_nodes":[],"categories_segments":[],"categories_sizes":[],"default_left":[true,true,true,false,false,false,false],"id":50,"left_children":[1,3,5,-1,-1,-1,-1],"loss_changes":[3.9230157E2,1.7411621E2,2.365712E1,0E0,0E0,0E0,0E0],"parents":[2147483647,0,0,1,1,2,2],"right_children":[2,4,6,-1,-1,-1,-1],"split_conditions":[2.75E0,2.4999999E-2,2.95E0,-1.079484E-3,1.8041031E-2,1.4214811E-3,-5.4859333E-3],"split_indices":[2,1,2,0,0,0,0],"split_type":[0,0,0,0,0,0,0],"sum_hessian":[7.199092E2,2.0995201E2,5.0995715E2,7.2408646E1,1.3754337E2,5.5227444E1,4.547297E2],"tree_param":{"num_deleted":"0","num_feature":"6","num_nodes":"7","size_leaf_vector":"0"}},{"base_weights":[6.229144E-5,5.309811E-1,-3.5404482E-1,9.5674944E-1,3.9189935E-1,-1.6641726E-1,-5.0767773E-1],"categories":[],"categories_nodes":[],"categories_segments":[],"categories_sizes":[],"default_left":[true,true,true,false,false,false,false],"id":51,"left_children":[1,3,5,-1,-1,-1,-1],"loss_changes":[1.357176E2,1.6728966E1,1.2398724E1,0E0,0E0,0E0,0E0],"parents":[2147483647,0,0,1,1,2,2],"right_children":[2,4,6,-1,-1,-1,-1],"split_conditions":[3.05E0,4.5E-1,3.65E0,9.5674945E-3,3.9189933E-3,-1.6641725E-3,-5.076777E-3],"split_indices":[2,4,2,0,0,0,0],"split_type":[0,0,0,0,0,0,0],"sum_hessian":[7.19894E2,2.8783643E2,4.3205756E2,6.942574E1,2.1841068E2,1.954469E2,2.3661066E2],"tree_param":{"num_deleted":"0","num_feature":"6","num_nodes":"7","size_leaf_vector":"0"}},{"base_weights":[2.0803318E-5,2.536646E-1,-3.31084E-1,-1.405602E-2,3.8010076E-1,-4.4817764E-1,-1.3055742E-1],"categories":[],"categories_nodes":[],"categories_segments":[],"categories_sizes":[],"default_left":[true,true,true,false,false,false,false],"id":52,"left_children":[1,3,5,-1,-1,-1,-1],"loss_changes":[6.063099E1,1.3842731E1,7.2944984E0,0E0,0E0,0E0,0E0],"parents":[2147483647,0,0,1,1,2,2],"right_children":[2,4,6,-1,-1,-1,-1],"split_conditions":[1.275E1,1.5E-2,2.4999999E-2,-1.405602E-4,3.8010075E-3,-4.481776E-3,-1.3055742E-3],"split_indices":[5,1,1,0,0,0,0],"split_type":[0,0,0,0,0,0,0],"sum_hessian":[7.199463E2,4.0779083E2,3.1215546E2,1.3109476E2,2.7669608E2,1.9629675E2,1.15858696E2],"tree_param":{"num_deleted":"0","num_feature":"6","num_nodes":"7","size_leaf_vector":"0"}},{"base_weights":[4.0212955E-5,3.3089063E-1,-1.4742427E-1,9.1133155E-2,4.8721382E-1,-3.2387164E-1,1.7491944E-1],"categories":[],"categories_nodes":[],"categories_segments":[],"categories_sizes":[],"default_left":[true,true,true,false,false,false,false],"id":53,"left_children":[1,3,5,-1,-1,-1,-1],"loss_changes":[3.5222557E1,8.297607E0,2.845899E1,0E0,0E0,0E0,0E0],"parents":[2147483647,0,0,1,1,2,2],"right_children":[2,4,6,-1,-1,-1,-1],"split_conditions":[6.6499996E0,2.75E0,1.005E1,9.113315E-4,4.872138E-3,-3.2387164E-3,1.7491943E-3],"split_indices":[3,2,3,0,0,0,0],"split_type":[0,0,0,0,0,0,0],"sum_hessian":[7.199412E2,2.215744E2,4.9836682E2,8.807466E1,1.3349973E2,3.2206647E2,1.7630035E2],"tree_param":{"num_deleted":"0","num_feature":"6","num_nodes":"7","size_leaf_vector":"0"}},{"base_weights":[2.9974635E-5,2.1320912E-1,-1.6156027E-1,3.0322358E-2,3.4553903E-1,-3.9614555E-1,7.574093E-2],"categories":[],"categories_nodes":[],"categories_segments":[],"categories_sizes":[],"default_left":[true,true,true,false,false,false,false],"id":54,"left_children":[1,3,5,-1,-1,-1,-1],"loss_changes":[2.4869606E1,7.5230827E0,2.2890753E1,0E0,0E0,0E0,0E0],"parents":[2147483647,0,0,1,1,2,2],"right_children":[2,4,6,-1,-1,-1,-1],"split_conditions":[8.55E0,9.75E0,9.75E0,3.0322358E-4,3.4553902E-3,-3.9614555E-3,7.574093E-4],"split_indices":[3,5,3,0,0,0,0],"split_type":[0,0,0,0,0,0,0],"sum_hessian":[7.199532E2,3.1028625E2,4.0966693E2,1.307761E2,1.7951016E2,2.0567577E2,2.0399117E2],"tree_param":{"num_deleted":"0","num_feature":"6","num_nodes":"7","size_leaf_vector":"0"}},{"base_weights":[3.8337046E-5,2.1325266E-1,-1.937203E-1,-5.184167E-2,4.606898E-1,-3.9425468E-1,-2.0537362E-2],"categories":[],"categories_nodes":[],"categories_segments":[],"categories_sizes":[],"default_left":[true,true,true,false,false,false,false],"id":55,"left_children":[1,3,5,-1,-1,-1,-1],"loss_changes":[2.982487E1,2.2569487E1,1.3127385E1,0E0,0E0,0E0,0E0],"parents":[2147483647,0,0,1,1,2,2],"right_children":[2,4,6,-1,-1,-1,-1],"split_conditions":[9.15E0,1.075E1,9.75E0,-5.184167E-4,4.606898E-3,-3.942547E-3,-2.0537361E-4],"split_indices":[3,5,3,0,0,0,0],"split_type":[0,0,0,0,0,0,0],"sum_hessian":[7.1994E2,3.4271344E2,3.772266E2,1.6583495E2,1.768785E2,1.742176E2,2.0300897E2],"tree_param":{"num_deleted":"0","num_feature":"6","num_nodes":"7","size_leaf_vector":"0"}},{"base_weights":[1.8938563E-5,2.1747144E-1,-2.4726938E-1,4.7585455E-1,-1.1382723E-1,-4.2789477E-1,-7.572488E-2],"categories":[],"categories_nodes":[],"categories_segments":[],"categories_sizes":[],"default_left":[true,true,false,false,false,false,false],"id":56,"left_children":[1,3,5,-1,-1,-1,-1],"loss_changes":[3.882216E1,3.293843E1,1.04345665E1,0E0,0E0,0E0,0E0],"parents":[2147483647,0,0,1,1,2,2],"right_children":[2,4,6,-1,-1,-1,-1],"split_conditions":[2.4999999E-2,1.55E0,1.175E1,4.758545E-3,-1.1382722E-3,-4.2789476E-3,-7.572488E-4],"split_indices":[1,4,5,0,0,0,0],"split_type":[0,0,0,0,0,0,0],"sum_hessian":[7.199576E2,3.8315314E2,3.368044E2,2.1502034E2,1.6813281E2,1.6333194E2,1.7347247E2],"tree_param":{"num_deleted":"0","num_feature":"6","num_nodes":"7","size_leaf_vector":"0"}},{"base_weights":[2.5883555E-6,-4.2445156E-1,3.3245108E-1,-1.4179124E-1,-5.517013E-1,5.6845564E-1,-2.1835455E-1],"categories":[],"categories_nodes":[],"categories_segments":[],"categories_sizes":[],"default_left":[true,true,true,false,false,false,false],"id":57,"left_children":[1,3,5,-1,-1,-1,-1],"loss_changes":[1.01876045E2,1.1327503E1,5.2753292E1,0E0,0E0,0E0,0E0],"parents":[2147483647,0,0,1,1,2,2],"right_children":[2,4,6,-1,-1,-1,-1],"split_conditions":[3.15E0,1.5E-2,3.5E-2,-1.4179123E-3,-5.517013E-3,5.6845564E-3,-2.1835454E-3],"split_indices":[2,1,1,0,0,0,0],"split_type":[0,0,0,0,0,0,0],"sum_hessian":[7.199663E2,3.1610367E2,4.0386264E2,9.878545E1,2.1731822E2,2.8270117E2,1.21161476E2],"tree_param":{"num_deleted":"0","num_feature":"6","num_nodes":"7","size_leaf_vector":"0"}},{"base_weights":[-3.5608406E-5,-5.531305E-1,4.8449698E-1,1.6395648E0,-5.525293E-1],"categories":[],"categories_nodes":[],"categories_segments":[],"categories_sizes":[],"default_left":[true,false,true,false,false],"id":58,"left_children":[1,-1,3,-1,-1],"loss_changes":[1.9347998E2,0E0,4.6187183E2,0E0,0E0],"parents":[2147483647,0,0,2,2],"right_children":[2,-1,4,-1,-1],"split_conditions":[9.15E0,-5.531305E-3,9.75E0,1.6395647E-2,-5.525293E-3],"split_indices":[3,0,3,0,0],"split_type":[0,0,0,0,0],"sum_hessian":[7.199604E2,3.3612802E2,3.8383237E2,1.8130688E2,2.025255E2],"tree_param":{"num_deleted":"0","num_feature":"6","num_nodes":"5","size_leaf_vector":"0"}},{"base_weights":[-1.8389456E-4,-5.530742E-1,1.416232E0,3.407533E0,-5.488753E-1],"categories":[],"categories_nodes":[],"categories_segments":[],"categories_sizes":[],"default_left":[true,false,true,false,false],"id":59,"left_children":[1,-1,3,-1,-1],"loss_changes":[5.652627E2,0E0,7.948635E2,0E0,0E0],"parents":[2147483647,0,0,2,2],"right_children":[2,-1,4,-1,-1],"split_conditions":[8.5E0,-5.5307415E-3,5E-3,3.4075327E-2,-5.4887524E-3],"split_indices":[0,0,1,0,0],"split_type":[0,0,0,0,0],"sum_hessian":[7.1980585E2,5.18156E2,2.0164987E2,9.979284E1,1.0185703E2],"tree_param":{"num_deleted":"0","num_feature":"6","num_nodes":"5","size_leaf_vector":"0"}},{"base_weights":[-2.1507406E-6,1.1303871E0,-4.7305903E-1,6.92087E-1,1.8857148E0,1.4107648E-1,-5.4825044E-1],"categories":[],"categories_nodes":[],"categories_segments":[],"categories_sizes":[],"default_left":[true,true,true,false,false,false,false],"id":60,"left_children":[1,3,5,-1,-1,-1,-1],"loss_changes":[3.8601114E2,6.920062E1,2.3577171E1,0E0,0E0,0E0,0E0],"parents":[2147483647,0,0,1,1,2,2],"right_children":[2,4,6,-1,-1,-1,-1],"split_conditions":[2.75E0,1.005E1,2.95E0,6.92087E-3,1.8857148E-2,1.4107648E-3,-5.482504E-3],"split_indices":[2,3,2,0,0,0,0],"split_type":[0,0,0,0,0,0,0],"sum_hessian":[7.198691E2,2.1196951E2,5.078996E2,1.3534692E2,7.662258E1,5.5305847E1,4.5259375E2],"tree_param":{"num_deleted":"0","num_feature":"6","num_nodes":"7","size_leaf_vector":"0"}},{"base_weights":[7.181285E-5,5.9514886E-1,-2.4642287E-1,4.819202E-1,1.1559056E0,-3.4638038E-1,2.2241926E-1],"categories":[],"categories_nodes":[],"categories_segments":[],"categories_sizes":[],"default_left":[false,true,true,false,false,false,false],"id":61,"left_children":[1,3,5,-1,-1,-1,-1],"loss_changes":[1.05886E2,1.28676605E1,2.3998196E1,0E0,0E0,0E0,0E0],"parents":[2147483647,0,0,1,1,2,2],"right_children":[2,4,6,-1,-1,-1,-1],"split_conditions":[1.025E1,1.75E0,1.055E1,4.8192022E-3,1.1559056E-2,-3.4638038E-3,2.2241925E-3],"split_indices":[5,4,3,0,0,0,0],"split_type":[0,0,0,0,0,0,0],"sum_hessian":[7.1986816E2,2.1043367E2,5.094345E2,1.7662814E2,3.380554E1,4.201248E2,8.930974E1],"tree_param":{"num_deleted":"0","num_feature":"6","num_nodes":"7","size_leaf_vector":"0"}},{"base_weights":[2.5580763E-5,2.516938E-1,-3.3021986E-1,-1.4108108E-2,3.7682727E-1,-4.4734347E-1,-1.3063304E-1],"categories":[],"categories_nodes":[],"categories_segments":[],"categories_sizes":[],"default_left":[true,true,true,false,false,false,false],"id":62,"left_children":[1,3,5,-1,-1,-1,-1],"loss_changes":[6.0001274E1,1.3632471E1,7.240196E0,0E0,0E0,0E0,0E0],"parents":[2147483647,0,0,1,1,2,2],"right_children":[2,4,6,-1,-1,-1,-1],"split_conditions":[1.275E1,1.5E-2,2.4999999E-2,-1.4108108E-4,3.7682727E-3,-4.4734348E-3,-1.3063304E-3],"split_indices":[5,1,1,0,0,0,0],"split_type":[0,0,0,0,0,0,0],"sum_hessian":[7.1993024E2,4.087071E2,3.1122314E2,1.3110599E2,2.776011E2,1.9534654E2,1.1587661E2],"tree_param":{"num_deleted":"0","num_feature":"6","num_nodes":"7","size_leaf_vector":"0"}},{"base_weights":[5.1027113E-5,1.242623E-1,-3.772284E-1,1.9431166E-1,-1.7840372E-2,1.5793072E-2,-5.00912E-1],"categories":[],"categories_nodes":[],"categories_segments":[],"categories_sizes":[],"default_left":[true,true,true,false,false,false,false],"id":63,"left_children":[1,3,5,-1,-1,-1,-1],"loss_changes":[3.3831013E1,5.40973E0,8.699867E0,0E0,0E0,0E0,0E0],"parents":[2147483647,0,0,1,1,2,2],"right_children":[2,4,6,-1,-1,-1,-1],"split_conditions":[3.85E0,1.45E0,1.45E0,1.9431165E-3,-1.7840372E-4,1.5793071E-4,-5.00912E-3],"split_indices":[2,4,4,0,0,0,0],"split_type":[0,0,0,0,0,0,0],"sum_hessian":[7.199226E2,5.421138E2,1.7780885E2,3.6287E2,1.7924377E2,4.2770878E1,1.3503798E2],"tree_param":{"num_deleted":"0","num_feature":"6","num_nodes":"7","size_leaf_vector":"0"}},{"base_weights":[3.6152294E-5,2.1150844E-1,-1.608383E-1,1.9708994E-1,9.0290135E-1,-3.951888E-1,7.4962854E-2],"categories":[],"categories_nodes":[],"categories_segments":[],"categories_sizes":[],"default_left":[true,true,true,false,false,false,false],"id":64,"left_children":[1,3,5,-1,-1,-1,-1],"loss_changes":[2.4560709E1,2.9315052E0,2.268745E1,0E0,0E0,0E0,0E0],"parents":[2147483647,0,0,1,1,2,2],"right_children":[2,4,6,-1,-1,-1,-1],"split_conditions":[8.55E0,8.35E0,9.75E0,1.9708993E-3,9.029013E-3,-3.951888E-3,7.496285E-4],"split_indices":[3,3,3,0,0,0,0],"split_type":[0,0,0,0,0,0,0],"sum_hessian":[7.199388E2,3.109175E2,4.0902127E2,3.0582483E2,5.0926943E0,2.0480263E2,2.0421863E2],"tree_param":{"num_deleted":"0","num_feature":"6","num_nodes":"7","size_leaf_vector":"0"}},{"base_weights":[4.376867E-5,-3.278572E-1,7.270283E-2,8.8366054E-2,-4.5770866E-1,1.9082138E-1,-2.9916412E-1],"categories":[],"categories_nodes":[],"categories_segments":[],"categories_sizes":[],"default_left":[true,true,true,false,false,false,false],"id":65,"left_children":[1,3,5,-1,-1,-1,-1],"loss_changes":[1.7199873E1,7.118082E0,2.6015202E1,0E0,0E0,0E0,0E0],"parents":[2147483647,0,0,1,1,2,2],"right_children":[2,4,6,-1,-1,-1,-1],"split_conditions":[2.45E0,1.5E-2,3.95E0,8.836605E-4,-4.5770863E-3,1.9082137E-3,-2.9916412E-3],"split_indices":[2,1,2,0,0,0,0],"split_type":[0,0,0,0,0,0,0],"sum_hessian":[7.1992566E2,1.2995288E2,5.899728E2,3.0977552E1,9.897533E1,4.4812027E2,1.4185254E2],"tree_param":{"num_deleted":"0","num_feature":"6","num_nodes":"7","size_leaf_vector":"0"}},{"base_weights":[2.3396604E-5,-2.3795335E-1,1.899942E-1,-5.4736143E-1,-1.4568762E-1,4.285999E-1,-2.3920526E-1],"categories":[],"categories_nodes":[],"categories_segments":[],"categories_sizes":[],"default_left":[true,true,true,false,false,false,false],"id":66,"left_children":[1,3,5,-1,-1,-1,-1],"loss_changes":[3.263803E1,9.0692005E0,4.1216213E1,0E0,0E0,0E0,0E0],"parents":[2147483647,0,0,1,1,2,2],"right_children":[2,4,6,-1,-1,-1,-1],"split_conditions":[3.15E0,4.5E-1,3.95E0,-5.473614E-3,-1.4568762E-3,4.2859986E-3,-2.3920524E-3],"split_indices":[2,4,2,0,0,0,0],"split_type":[0,0,0,0,0,0,0],"sum_hessian":[7.1994244E2,3.1947855E2,4.004639E2,7.225222E1,2.4722633E2,2.573797E2,1.430842E2],"tree_param":{"num_deleted":"0","num_feature":"6","num_nodes":"7","size_leaf_vector":"0"}},{"base_weights":[5.1854936E-6,-4.236826E-1,3.29572E-1,-5.213209E-1,-1.8070444E-1,6.339919E-1,-6.965503E-5],"categories":[],"categories_nodes":[],"categories_segments":[],"categories_sizes":[],"default_left":[true,true,true,false,false,false,false],"id":67,"left_children":[1,3,5,-1,-1,-1,-1],"loss_changes":[1.0080817E2,7.399475E0,4.0749844E1,0E0,0E0,0E0,0E0],"parents":[2147483647,0,0,1,1,2,2],"right_children":[2,4,6,-1,-1,-1,-1],"split_conditions":[3.15E0,2.85E0,1.475E1,-5.2132085E-3,-1.8070444E-3,6.339919E-3,-6.965503E-7],"split_indices":[2,2,5,0,0,0,0],"split_type":[0,0,0,0,0,0,0],"sum_hessian":[7.199486E2,3.148697E2,4.050789E2,2.237946E2,9.107509E1,2.1011607E2,1.9496281E2],"tree_param":{"num_deleted":"0","num_feature":"6","num_nodes":"7","size_leaf_vector":"0"}},{"base_weights":[-5.2998264E-5,-5.5280596E-1,4.7998506E-1,1.6093477E0,-5.5221254E-1],"categories":[],"categories_nodes":[],"categories_segments":[],"categories_sizes":[],"default_left":[true,false,true,false,false],"id":68,"left_children":[1,-1,3,-1,-1],"loss_changes":[1.9156215E2,0E0,4.5130893E2,0E0,0E0],"parents":[2147483647,0,0,2,2],"right_children":[2,-1,4,-1,-1],"split_conditions":[9.15E0,-5.5280593E-3,9.75E0,1.6093476E-2,-5.5221254E-3],"split_indices":[3,0,3,0,0],"split_type":[0,0,0,0,0],"sum_hessian":[7.1994305E2,3.3455682E2,3.8538623E2,1.837643E2,2.0162193E2],"tree_param":{"num_deleted":"0","num_feature":"6","num_nodes":"5","size_leaf_vector":"0"}},{"base_weights":[-2.0184697E-4,-5.526148E-1,1.3687587E0,3.2374105E0,-5.486633E-1],"categories":[],"categories_nodes":[],"categories_segments":[],"categories_sizes":[],"default_left":[true,false,true,false,false],"id":69,"left_children":[1,-1,3,-1,-1],"loss_changes":[5.4575244E2,0E0,7.4520447E2,0E0,0E0],"parents":[2147483647,0,0,2,2],"right_children":[2,-1,4,-1,-1],"split_conditions":[1.475E1,-5.526148E-3,5E-3,3.2374106E-2,-5.486633E-3],"split_indices":[5,0,1,0,0],"split_type":[0,0,0,0,0],"sum_hessian":[7.1967334E2,5.1318536E2,2.0648799E2,1.0422529E2,1.022627E2],"tree_param":{"num_deleted":"0","num_feature":"6","num_nodes":"5","size_leaf_vector":"0"}},{"base_weights":[-1.2067925E-6,-2.3170382E-1,6.904737E-1,2.2964273E-1,-5.2659744E-1,1.2914834E0,4.9159068E-1],"categories":[],"categories_nodes":[],"categories_segments":[],"categories_sizes":[],"default_left":[true,true,true,false,false,false,false],"id":70,"left_children":[1,3,5,-1,-1,-1,-1],"loss_changes":[1.1548041E2,7.364938E1,2.1043419E1,0E0,0E0,0E0,0E0],"parents":[2147483647,0,0,1,1,2,2],"right_children":[2,4,6,-1,-1,-1,-1],"split_conditions":[1.005E1,6.3500004E0,4.5E-1,2.2964273E-3,-5.2659744E-3,1.2914834E-2,4.9159066E-3],"split_indices":[3,3,4,0,0,0,0],"split_type":[0,0,0,0,0,0,0],"sum_hessian":[7.19821E2,5.394591E2,1.8036183E2,2.1044676E2,3.2901236E2,4.3478706E1,1.3688313E2],"tree_param":{"num_deleted":"0","num_feature":"6","num_nodes":"7","size_leaf_vector":"0"}},{"base_weights":[8.72618E-5,-2.8648612E-1,3.1405023E-1,3.9984494E-1,-3.7630644E-1,5.033991E-1,2.5070512E-3],"categories":[],"categories_nodes":[],"categories_segments":[],"categories_sizes":[],"default_left":[true,true,true,false,false,false,false],"id":71,"left_children":[1,3,5,-1,-1,-1,-1],"loss_changes":[6.4945786E1,2.341446E1,2.0318283E1,0E0,0E0,0E0,0E0],"parents":[2147483647,0,0,1,1,2,2],"right_children":[2,4,6,-1,-1,-1,-1],"split_conditions":[2.4999999E-2,4.5E-1,1.45E0,3.9984495E-3,-3.7630643E-3,5.033991E-3,2.5070512E-5],"split_indices":[1,4,4,0,0,0,0],"split_type":[0,0,0,0,0,0,0],"sum_hessian":[7.19833E2,3.763775E2,3.434555E2,4.3156944E1,3.3322055E2,2.132383E2,1.302172E2],"tree_param":{"num_deleted":"0","num_feature":"6","num_nodes":"7","size_leaf_vector":"0"}},{"base_weights":[2.8797785E-5,2.7020836E-1,-4.3165094E-1,7.2556086E-2,4.370039E-1,-5.288988E-1,-2.6869783E-1],"categories":[],"categories_nodes":[],"categories_segments":[],"categories_sizes":[],"default_left":[true,true,true,false,false,false,false],"id":72,"left_children":[1,3,5,-1,-1,-1,-1],"loss_changes":[8.419757E1,1.4606346E1,4.2617188E0,0E0,0E0,0E0,0E0],"parents":[2147483647,0,0,1,1,2,2],"right_children":[2,4,6,-1,-1,-1,-1],"split_conditions":[3.55E0,2.4999999E-2,2.4999999E-2,7.255608E-4,4.370039E-3,-5.2889874E-3,-2.6869783E-3],"split_indices":[2,1,1,0,0,0,0],"split_type":[0,0,0,0,0,0,0],"sum_hessian":[7.199138E2,4.4301428E2,2.7689957E2,2.0340952E2,2.3960475E2,1.720044E2,1.0489518E2],"tree_param":{"num_deleted":"0","num_feature":"6","num_nodes":"7","size_leaf_vector":"0"}},{"base_weights":[5.591159E-5,3.2693923E-1,-1.46524E-1,4.3503076E-1,9.410688E-2,-3.2258102E-1,1.729115E-1],"categories":[],"categories_nodes":[],"categories_segments":[],"categories_sizes":[],"default_left":[true,true,true,false,false,false,false],"id":73,"left_children":[1,3,5,-1,-1,-1,-1],"loss_changes":[3.4589924E1,5.5838413E0,2.8085949E1,0E0,0E0,0E0,0E0],"parents":[2147483647,0,0,1,1,2,2],"right_children":[2,4,6,-1,-1,-1,-1],"split_conditions":[6.6499996E0,1.45E0,1.005E1,4.3503074E-3,9.410688E-4,-3.2258101E-3,1.7291149E-3],"split_indices":[3,4,3,0,0,0,0],"split_type":[0,0,0,0,0,0,0],"sum_hessian":[7.1990924E2,2.2249641E2,4.974128E2,1.5135977E2,7.113664E1,3.206671E2,1.7674571E2],"tree_param":{"num_deleted":"0","num_feature":"6","num_nodes":"7","size_leaf_vector":"0"}},{"base_weights":[4.7717713E-5,2.0957205E-1,-1.600041E-1,-6.1411552E-2,3.9003772E-1,-3.942278E-1,7.452395E-2],"categories":[],"categories_nodes":[],"categories_segments":[],"categories_sizes":[],"default_left":[true,true,true,false,false,false,false],"id":74,"left_children":[1,3,5,-1,-1,-1,-1],"loss_changes":[2.4209314E1,1.5313039E1,2.2511837E1,0E0,0E0,0E0,0E0],"parents":[2147483647,0,0,1,1,2,2],"right_children":[2,4,6,-1,-1,-1,-1],"split_conditions":[8.55E0,2.85E0,9.75E0,-6.141155E-4,3.900377E-3,-3.9422777E-3,7.452395E-4],"split_indices":[3,2,3,0,0,0,0],"split_type":[0,0,0,0,0,0,0],"sum_hessian":[7.199173E2,3.116396E2,4.0827774E2,1.2484082E2,1.8679875E2,2.0393073E2,2.0434703E2],"tree_param":{"num_deleted":"0","num_feature":"6","num_nodes":"7","size_leaf_vector":"0"}},{"base_weights":[4.583694E-5,2.1949005E-1,-1.4484173E-1,-1.333102E-1,4.560236E-1,-3.267107E-2,-4.1761732E-1],"categories":[],"categories_nodes":[],"categories_segments":[],"categories_sizes":[],"default_left":[true,true,true,false,false,false,false],"id":75,"left_children":[1,3,5,-1,-1,-1,-1],"loss_changes":[2.2953127E1,2.4018326E1,1.3290857E1,0E0,0E0,0E0,0E0],"parents":[2147483647,0,0,1,1,2,2],"right_children":[2,4,6,-1,-1,-1,-1],"split_conditions":[9.5E-1,4.5E-1,3.95E0,-1.333102E-3,4.560236E-3,-3.267107E-4,-4.176173E-3],"split_indices":[4,4,2,0,0,0,0],"split_type":[0,0,0,0,0,0,0],"sum_hessian":[7.19916E2,2.8609164E2,4.3382437E2,1.15000175E2,1.7109146E2,3.0820444E2,1.2561993E2],"tree_param":{"num_deleted":"0","num_feature":"6","num_nodes":"7","size_leaf_vector":"0"}},{"base_weights":[2.6198493E-5,-3.024211E-1,1.5305713E-1,-5.4915696E-1,-1.2988111E-1,3.78407E-1,-3.3092834E-2],"categories":[],"categories_nodes":[],"categories_segments":[],"categories_sizes":[],"default_left":[false,true,true,false,false,false,false],"id":76,"left_children":[1,3,5,-1,-1,-1,-1],"loss_changes":[3.341371E1,1.0254612E1,2.0121872E1,0E0,0E0,0E0,0E0],"parents":[2147483647,0,0,1,1,2,2],"right_children":[2,4,6,-1,-1,-1,-1],"split_conditions":[1.075E1,7.25E0,9.15E0,-5.4915696E-3,-1.298811E-3,3.78407E-3,-3.3092833E-4],"split_indices":[5,3,3,0,0,0,0],"split_type":[0,0,0,0,0,0,0],"sum_hessian":[7.199311E2,2.4155344E2,4.7837766E2,9.850558E1,1.4304785E2,2.1593623E2,2.624414E2],"tree_param":{"num_deleted":"0","num_feature":"6","num_nodes":"7","size_leaf_vector":"0"}},{"base_weights":[9.977336E-6,2.9130647E-1,-3.3212876E-1,-8.62271E-2,7.101289E-1,-5.5049765E-1,-1.9248967E-1],"categories":[],"categories_nodes":[],"categories_segments":[],"categories_sizes":[],"default_left":[true,true,true,false,false,false,false],"id":77,"left_children":[1,3,5,-1,-1,-1,-1],"loss_changes":[6.984706E1,6.087572E1,1.0179764E1,0E0,0E0,0E0,0E0],"parents":[2147483647,0,0,1,1,2,2],"right_children":[2,4,6,-1,-1,-1,-1],"split_conditions":[2.4999999E-2,5E-3,7.25E0,-8.6227094E-4,7.101289E-3,-5.5049765E-3,-1.9248966E-3],"split_indices":[1,1,3,0,0,0,0],"split_type":[0,0,0,0,0,0,0],"sum_hessian":[7.1992706E2,3.8361084E2,3.3631625E2,2.0216765E2,1.8144319E2,1.3003075E2,2.062855E2],"tree_param":{"num_deleted":"0","num_feature":"6","num_nodes":"7","size_leaf_vector":"0"}},{"base_weights":[-6.6680266E-5,-5.525042E-1,4.7584665E-1,1.5802674E0,-5.5186313E-1],"categories":[],"categories_nodes":[],"categories_segments":[],"categories_sizes":[],"default_left":[true,false,true,false,false],"id":78,"left_children":[1,-1,3,-1,-1],"loss_changes":[1.8979907E2,0E0,4.4105182E2,0E0,0E0],"parents":[2147483647,0,0,2,2],"right_children":[2,-1,4,-1,-1],"split_conditions":[9.15E0,-5.525042E-3,9.75E0,1.5802674E-2,-5.518631E-3],"split_indices":[3,0,3,0,0],"split_type":[0,0,0,0,0],"sum_hessian":[7.1991003E2,3.3309467E2,3.8681534E2,1.8618999E2,2.0062537E2],"tree_param":{"num_deleted":"0","num_feature":"6","num_nodes":"5","size_leaf_vector":"0"}},{"base_weights":[-2.3394132E-4,-5.525256E-1,1.9059879E0,3.5230792E0,-5.45597E-1],"categories":[],"categories_nodes":[],"categories_segments":[],"categories_sizes":[],"default_left":[true,false,true,false,false],"id":79,"left_children":[1,-1,3,-1,-1],"loss_changes":[7.5960944E2,0E0,6.4450024E2,0E0,0E0],"parents":[2147483647,0,0,2,2],"right_children":[2,-1,4,-1,-1],"split_conditions":[3.95E0,-5.5252556E-3,5E-3,3.523079E-2,-5.45597E-3],"split_indices":[2,0,1,0,0],"split_type":[0,0,0,0,0],"sum_hessian":[7.1951984E2,5.5843427E2,1.6108559E2,9.679893E1,6.428666E1],"tree_param":{"num_deleted":"0","num_feature":"6","num_nodes":"5","size_leaf_vector":"0"}},{"base_weights":[5.8186797E-6,-4.6537882E-1,4.925393E-1,-5.372161E-1,-1.6419703E-1,1.5350395E-1,1.2462897E0],"categories":[],"categories_nodes":[],"categories_segments":[],"categories_sizes":[],"default_left":[true,true,true,false,false,false,false],"id":80,"left_children":[1,3,5,-1,-1,-1,-1],"loss_changes":[1.6544666E2,7.941437E0,8.942073E1,0E0,0E0,0E0,0E0],"parents":[2147483647,0,0,1,1,2,2],"right_children":[2,4,6,-1,-1,-1,-1],"split_conditions":[2.4999999E-2,1.005E1,1.015E1,-5.372161E-3,-1.6419702E-3,1.5350395E-3,1.2462897E-2],"split_indices":[1,3,3,0,0,0,0],"split_type":[0,0,0,0,0,0,0],"sum_hessian":[7.1978894E2,3.7012277E2,3.4966617E2,2.9821048E2,7.191227E1,2.4201292E2,1.0765325E2],"tree_param":{"num_deleted":"0","num_feature":"6","num_nodes":"7","size_leaf_vector":"0"}},{"base_weights":[9.299974E-5,5.8011746E-1,-1.1371585E-1,4.134252E-1,9.7328097E-1,-2.2988847E-1,7.211511E-1],"categories":[],"categories_nodes":[],"categories_segments":[],"categories_sizes":[],"default_left":[true,true,true,false,false,false,false],"id":81,"left_children":[1,3,5,-1,-1,-1,-1],"loss_changes":[4.7648293E1,7.357132E0,5.8690285E1,0E0,0E0,0E0,0E0],"parents":[2147483647,0,0,1,1,2,2],"right_children":[2,4,6,-1,-1,-1,-1],"split_conditions":[4.5E-1,1.105E1,1.75E0,4.134252E-3,9.73281E-3,-2.2988846E-3,7.211511E-3],"split_indices":[4,3,4,0,0,0,0],"split_type":[0,0,0,0,0,0,0],"sum_hessian":[7.1981415E2,1.17398384E2,6.024158E2,8.388473E1,3.3513657E1,5.2946484E2,7.295094E1],"tree_param":{"num_deleted":"0","num_feature":"6","num_nodes":"7","size_leaf_vector":"0"}},{"base_weights":[2.5938118E-5,2.4769926E-1,-3.284556E-1,-1.4622464E-2,3.7052685E-1,-4.4575062E-1,-1.3026056E-1],"categories":[],"categories_nodes":[],"categories_segments":[],"categories_sizes":[],"default_left":[true,true,true,false,false,false,false],"id":82,"left_children":[1,3,5,-1,-1,-1,-1],"loss_changes":[5.8730843E1,1.3266466E1,7.1561394E0,0E0,0E0,0E0,0E0],"parents":[2147483647,0,0,1,1,2,2],"right_children":[2,4,6,-1,-1,-1,-1],"split_conditions":[1.275E1,1.5E-2,2.4999999E-2,-1.4622463E-4,3.7052685E-3,-4.4575064E-3,-1.3026055E-3],"split_indices":[5,1,1,0,0,0,0],"split_type":[0,0,0,0,0,0,0],"sum_hessian":[7.1989825E2,4.1057376E2,3.093245E2,1.312166E2,2.7935715E2,1.9353708E2,1.15787415E2],"tree_param":{"num_deleted":"0","num_feature":"6","num_nodes":"7","size_leaf_vector":"0"}},{"base_weights":[6.5887056E-5,3.240881E-1,-1.4586845E-1,1.2975295E-1,4.3054453E-1,-3.2172048E-1,1.7185877E-1],"categories":[],"categories_nodes":[],"categories_segments":[],"categories_sizes":[],"default_left":[true,true,true,false,false,false,false],"id":83,"left_children":[1,3,5,-1,-1,-1,-1],"loss_changes":[3.4135204E1,4.5817356E0,2.7864552E1,0E0,0E0,0E0,0E0],"parents":[2147483647,0,0,1,1,2,2],"right_children":[2,4,6,-1,-1,-1,-1],"split_conditions":[6.6499996E0,8.75E0,1.005E1,1.2975294E-3,4.305445E-3,-3.2172047E-3,1.7185877E-3],"split_indices":[3,5,3,0,0,0,0],"split_type":[0,0,0,0,0,0,0],"sum_hessian":[7.19889E2,2.2316608E2,4.9672287E2,7.9768425E1,1.4339764E2,3.1974274E2,1.7698013E2],"tree_param":{"num_deleted":"0","num_feature":"6","num_nodes":"7","size_leaf_vector":"0"}},{"base_weights":[5.219092E-5,2.0769559E-1,-1.5919824E-1,2.8190207E-2,3.3685118E-1,-3.6291832E-1,1.0879639E-1],"categories":[],"categories_nodes":[],"categories_segments":[],"categories_sizes":[],"default_left":[true,true,true,false,false,false,false],"id":84,"left_children":[1,3,5,-1,-1,-1,-1],"loss_changes":[2.3871332E1,7.2550535E0,2.2345177E1,0E0,0E0,0E0,0E0],"parents":[2147483647,0,0,1,1,2,2],"right_children":[2,4,6,-1,-1,-1,-1],"split_conditions":[8.55E0,9.75E0,1.005E1,2.8190206E-4,3.3685118E-3,-3.6291832E-3,1.0879638E-3],"split_indices":[3,5,3,0,0,0,0],"split_type":[0,0,0,0,0,0,0],"sum_hessian":[7.199015E2,3.1234152E2,4.0755997E2,1.3120546E2,1.8113608E2,2.3134526E2,1.762147E2],"tree_param":{"num_deleted":"0","num_feature":"6","num_nodes":"7","size_leaf_vector":"0"}},{"base_weights":[5.0400853E-5,-2.695211E-1,8.782072E-2,-3.2713944E-1,-1.0600181E-1,2.2257017E-1,-2.9668057E-1],"categories":[],"categories_nodes":[],"categories_segments":[],"categories_sizes":[],"default_left":[true,true,true,false,false,false,false],"id":85,"left_children":[1,3,5,-1,-1,-1,-1],"loss_changes":[1.7080467E1,1.6359205E0,2.8281849E1,0E0,0E0,0E0,0E0],"parents":[2147483647,0,0,1,1,2,2],"right_children":[2,4,6,-1,-1,-1,-1],"split_conditions":[2.65E0,2.45E0,3.95E0,-3.2713944E-3,-1.0600181E-3,2.2257017E-3,-2.9668056E-3],"split_indices":[2,2,2,0,0,0,0],"split_type":[0,0,0,0,0,0,0],"sum_hessian":[7.199013E2,1.763136E2,5.435877E2,1.2963445E2,4.667916E1,4.028345E2,1.4075322E2],"tree_param":{"num_deleted":"0","num_feature":"6","num_nodes":"7","size_leaf_vector":"0"}},{"base_weights":[3.2839343E-5,2.1610296E-1,-2.4655427E-1,4.6930644E-1,-1.11807E-1,-4.9662983E-1,-9.320794E-2],"categories":[],"categories_nodes":[],"categories_segments":[],"categories_sizes":[],"default_left":[true,true,true,false,false,false,false],"id":86,"left_children":[1,3,5,-1,-1,-1,-1],"loss_changes":[3.846376E1,3.1998865E1,1.2882765E1,0E0,0E0,0E0,0E0],"parents":[2147483647,0,0,1,1,2,2],"right_children":[2,4,6,-1,-1,-1,-1],"split_conditions":[2.4999999E-2,1.55E0,2.75E0,4.6930644E-3,-1.11807E-3,-4.966298E-3,-9.320794E-4],"split_indices":[1,4,2,0,0,0,0],"split_type":[0,0,0,0,0,0,0],"sum_hessian":[7.1991595E2,3.8376678E2,3.3614917E2,2.1630812E2,1.6745866E2,1.2692409E2,2.0922508E2],"tree_param":{"num_deleted":"0","num_feature":"6","num_nodes":"7","size_leaf_vector":"0"}},{"base_weights":[2.1789734E-5,-4.6599242E-1,2.297081E-1,-2.833586E-1,-5.497954E-1,4.708607E-1,-2.8823563E-1],"categories":[],"categories_nodes":[],"categories_segments":[],"categories_sizes":[],"default_left":[false,true,true,false,false,false,false],"id":87,"left_children":[1,3,5,-1,-1,-1,-1],"loss_changes":[7.7270645E1,3.492031E0,6.0534966E1,0E0,0E0,0E0,0E0],"parents":[2147483647,0,0,1,1,2,2],"right_children":[2,4,6,-1,-1,-1,-1],"split_conditions":[1.075E1,1.5E-2,3.5E-2,-2.833586E-3,-5.497954E-3,4.7086067E-3,-2.8823563E-3],"split_indices":[5,1,1,0,0,0,0],"split_type":[0,0,0,0,0,0,0],"sum_hessian":[7.199053E2,2.3733789E2,4.825674E2,7.602847E1,1.6130942E2,3.293256E2,1.532418E2],"tree_param":{"num_deleted":"0","num_feature":"6","num_nodes":"7","size_leaf_vector":"0"}},{"base_weights":[-8.2700535E-5,-5.5179536E-1,3.0828133E-1,1.5058009E-2,1.2169855E0],"categories":[],"categories_nodes":[],"categories_segments":[],"categories_sizes":[],"default_left":[true,false,true,false,false],"id":88,"left_children":[1,-1,3,-1,-1],"loss_changes":[1.228099E2,0E0,1.233642E2,0E0,0E0],"parents":[2147483647,0,0,2,2],"right_children":[2,-1,4,-1,-1],"split_conditions":[1.025E1,-5.5179535E-3,4.5E-2,1.5058009E-4,1.2169855E-2],"split_indices":[5,0,1,0,0],"split_type":[0,0,0,0,0],"sum_hessian":[7.1986633E2,2.5781125E2,4.6205505E2,3.5010025E2,1.1195481E2],"tree_param":{"num_deleted":"0","num_feature":"6","num_nodes":"5","size_leaf_vector":"0"}},{"base_weights":[-2.6530563E-4,-5.522677E-1,1.3568716E0,3.1324322E0,-5.4789907E-1],"categories":[],"categories_nodes":[],"categories_segments":[],"categories_sizes":[],"default_left":[true,false,true,false,false],"id":89,"left_children":[1,-1,3,-1,-1],"loss_changes":[5.403746E2,0E0,7.07078E2,0E0,0E0],"parents":[2147483647,0,0,2,2],"right_children":[2,-1,4,-1,-1],"split_conditions":[8.5E0,-5.5226767E-3,5E-3,3.1324323E-2,-5.4789907E-3],"split_indices":[0,0,1,0,0],"split_type":[0,0,0,0,0],"sum_hessian":[7.193235E2,5.117622E2,2.075613E2,1.0709063E2,1.0047066E2],"tree_param":{"num_deleted":"0","num_feature":"6","num_nodes":"5","size_leaf_vector":"0"}},{"base_weights":[-4.438097E-6,8.806723E-1,-3.7476778E-1,4.4511384E-1,1.5705338E0,-6.899537E-2,-5.3254867E-1],"categories":[],"categories_nodes":[],"categories_segments":[],"categories_sizes":[],"default_left":[false,true,true,false,false,false,false],"id":90,"left_children":[1,3,5,-1,-1,-1,-1],"loss_changes":[2.382132E2,6.403929E1,2.439E1,0E0,0E0,0E0,0E0],"parents":[2147483647,0,0,1,1,2,2],"right_children":[2,4,6,-1,-1,-1,-1],"split_conditions":[1.025E1,1.005E1,1.225E1,4.4511384E-3,1.5705338E-2,-6.899537E-4,-5.3254864E-3],"split_indices":[5,3,5,0,0,0,0],"split_type":[0,0,0,0,0,0,0],"sum_hessian":[7.1975903E2,2.144534E2,5.0530563E2,1.3246443E2,8.198896E1,1.7248149E2,3.3282416E2],"tree_param":{"num_deleted":"0","num_feature":"6","num_nodes":"7","size_leaf_vector":"0"}},{"base_weights":[1.0810122E-4,5.8460885E-1,-2.4502358E-1,4.7389862E-1,1.12843E0,-4.8323438E-1,9.090908E-2],"categories":[],"categories_nodes":[],"categories_segments":[],"categories_sizes":[],"default_left":[false,true,true,false,false,false,false],"id":91,"left_children":[1,3,5,-1,-1,-1,-1],"loss_changes":[1.0341697E2,1.2305229E1,4.0737015E1,0E0,0E0,0E0,0E0],"parents":[2147483647,0,0,1,1,2,2],"right_children":[2,4,6,-1,-1,-1,-1],"split_conditions":[1.025E1,1.75E0,2.4999999E-2,4.738986E-3,1.12843E-2,-4.8323437E-3,9.0909074E-4],"split_indices":[5,4,1,0,0,0,0],"split_type":[0,0,0,0,0,0,0],"sum_hessian":[7.1978436E2,2.1226564E2,5.0751868E2,1.7791702E2,3.434863E1,2.966938E2,2.108249E2],"tree_param":{"num_deleted":"0","num_feature":"6","num_nodes":"7","size_leaf_vector":"0"}},{"base_weights":[2.5121371E-5,2.6630035E-1,-4.3032017E-1,6.260741E-1,1.6740896E-1,-2.821963E-2,-4.648793E-1],"categories":[],"categories_nodes":[],"categories_segments":[],"categories_sizes":[],"default_left":[true,true,true,false,false,false,false],"id":92,"left_children":[1,3,5,-1,-1,-1,-1],"loss_changes":[8.272071E1,1.5761469E1,3.821289E0,0E0,0E0,0E0,0E0],"parents":[2147483647,0,0,1,1,2,2],"right_children":[2,4,6,-1,-1,-1,-1],"split_conditions":[3.55E0,4.5E-1,4.5E-1,6.2607406E-3,1.6740896E-3,-2.821963E-4,-4.648793E-3],"split_indices":[2,4,4,0,0,0,0],"split_type":[0,0,0,0,0,0,0],"sum_hessian":[7.198823E2,4.4495102E2,2.749313E2,9.4785164E1,3.5016583E2,2.1903017E1,2.5302827E2],"tree_param":{"num_deleted":"0","num_feature":"6","num_nodes":"7","size_leaf_vector":"0"}},{"base_weights":[7.761147E-5,3.2131875E-1,-1.4522386E-1,1.2812787E-1,4.2703503E-1,-3.2091916E-1,1.7105141E-1],"categories":[],"categories_nodes":[],"categories_segments":[],"categories_sizes":[],"default_left":[true,true,true,false,false,false,false],"id":93,"left_children":[1,3,5,-1,-1,-1,-1],"loss_changes":[3.369441E1,4.5368824E0,2.7674803E1,0E0,0E0,0E0,0E0],"parents":[2147483647,0,0,1,1,2,2],"right_children":[2,4,6,-1,-1,-1,-1],"split_conditions":[6.6499996E0,8.75E0,1.005E1,1.2812787E-3,4.27035E-3,-3.2091914E-3,1.7105141E-3],"split_indices":[3,5,3,0,0,0,0],"split_type":[0,0,0,0,0,0,0],"sum_hessian":[7.198665E2,2.2382018E2,4.9604636E2,7.994216E1,1.43878E2,3.1888605E2,1.771603E2],"tree_param":{"num_deleted":"0","num_feature":"6","num_nodes":"7","size_leaf_vector":"0"}},{"base_weights":[6.249996E-5,8.0236234E-2,-3.2950518E-1,-1.5322168E-1,1.6564436E-1,-1.431455E-1,-4.6952277E-1],"categories":[],"categories_nodes":[],"categories_segments":[],"categories_sizes":[],"default_left":[true,true,true,false,false,false,false],"id":94,"left_children":[1,3,5,-1,-1,-1,-1],"loss_changes":[1.9074026E1,1.1602692E1,3.6185112E0,0E0,0E0,0E0,0E0],"parents":[2147483647,0,0,1,1,2,2],"right_children":[2,4,6,-1,-1,-1,-1],"split_conditions":[3.95E0,2.55E0,8.5E0,-1.5322168E-3,1.6564436E-3,-1.431455E-3,-4.695228E-3],"split_indices":[2,2,0,0,0,0,0],"split_type":[0,0,0,0,0,0,0],"sum_hessian":[7.198805E2,5.796306E2,1.4024986E2,1.5504114E2,4.245895E2,6.103554E1,7.9214325E1],"tree_param":{"num_deleted":"0","num_feature":"6","num_nodes":"7","size_leaf_vector":"0"}},{"base_weights":[5.544679E-5,-2.6897526E-1,8.7473154E-2,6.760566E-2,-4.487857E-1,2.2098844E-1,-2.9555312E-1],"categories":[],"categories_nodes":[],"categories_segments":[],"categories_sizes":[],"default_left":[true,true,true,false,false,false,false],"id":95,"left_children":[1,3,5,-1,-1,-1,-1],"loss_changes":[1.69774E1,1.0744967E1,2.7928719E1,0E0,0E0,0E0,0E0],"parents":[2147483647,0,0,1,1,2,2],"right_children":[2,4,6,-1,-1,-1,-1],"split_conditions":[2.65E0,2.4999999E-2,3.95E0,6.760566E-4,-4.4878568E-3,2.2098843E-3,-2.955531E-3],"split_indices":[2,1,2,0,0,0,0],"split_type":[0,0,0,0,0,0,0],"sum_hessian":[7.1988763E2,1.7604054E2,5.438471E2,6.151561E1,1.14524925E2,4.0358762E2,1.402595E2],"tree_param":{"num_deleted":"0","num_feature":"6","num_nodes":"7","size_leaf_vector":"0"}},{"base_weights":[3.898875E-5,-3.01596E-1,1.5207052E-1,-5.4883814E-1,-1.292533E-1,3.7410823E-1,-3.2363243E-2],"categories":[],"categories_nodes":[],"categories_segments":[],"categories_sizes":[],"default_left":[false,true,true,false,false,false,false],"id":96,"left_children":[1,3,5,-1,-1,-1,-1],"loss_changes":[3.310477E1,1.0237373E1,1.9667747E1,0E0,0E0,0E0,0E0],"parents":[2147483647,0,0,1,1,2,2],"right_children":[2,4,6,-1,-1,-1,-1],"split_conditions":[1.075E1,7.25E0,9.15E0,-5.4883813E-3,-1.292533E-3,3.7410823E-3,-3.2363244E-4],"split_indices":[5,3,3,0,0,0,0],"split_type":[0,0,0,0,0,0,0],"sum_hessian":[7.198968E2,2.4092027E2,4.7897653E2,9.805967E1,1.428606E2,2.1686584E2,2.621107E2],"tree_param":{"num_deleted":"0","num_feature":"6","num_nodes":"7","size_leaf_vector":"0"}},{"base_weights":[2.8501221E-5,2.8722858E-1,-3.306166E-1,-8.6489305E-2,6.9838405E-1,-4.3890327E-1,-5.913393E-2],"categories":[],"categories_nodes":[],"categories_segments":[],"categories_sizes":[],"default_left":[true,true,true,false,false,false,false],"id":97,"left_children":[1,3,5,-1,-1,-1,-1],"loss_changes":[6.855072E1,5.9420925E1,9.838829E0,0E0,0E0,0E0,0E0],"parents":[2147483647,0,0,1,1,2,2],"right_children":[2,4,6,-1,-1,-1,-1],"split_conditions":[2.4999999E-2,5E-3,1.55E0,-8.64893E-4,6.9838404E-3,-4.3890327E-3,-5.9133925E-4],"split_indices":[1,1,4,0,0,0,0],"split_type":[0,0,0,0,0,0,0],"sum_hessian":[7.198806E2,3.853205E2,3.3456012E2,2.0226358E2,1.8305692E2,2.3872346E2,9.583666E1],"tree_param":{"num_deleted":"0","num_feature":"6","num_nodes":"7","size_leaf_vector":"0"}},{"base_weights":[-7.866907E-5,5.4490066E-1,-5.528258E-1,-5.510792E-1,1.5115212E0],"categories":[],"categories_nodes":[],"categories_segments":[],"categories_sizes":[],"default_left":[true,true,false,false,false],"id":98,"left_children":[1,3,-1,-1,-1],"loss_changes":[2.1744232E2,3.858932E2,0E0,0E0,0E0],"parents":[2147483647,0,0,1,1],"right_children":[2,4,-1,-1,-1],"split_conditions":[5.5E0,9.15E0,-5.528258E-3,-5.510792E-3,1.5115212E-2],"split_indices":[0,3,0,0,0],"split_type":[0,0,0,0,0],"sum_hessian":[7.198344E2,3.6247122E2,3.5736316E2,1.7007059E2,1.9240062E2],"tree_param":{"num_deleted":"0","num_feature":"6","num_nodes":"5","size_leaf_vector":"0"}},{"base_weights":[-3.1345818E-4,-5.5173975E-1,1.3091288E0,2.97754E0,-5.477653E-1],"categories":[],"categories_nodes":[],"categories_segments":[],"categories_sizes":[],"default_left":[true,false,true,false,false],"id":99,"left_children":[1,-1,3,-1,-1],"loss_changes":[5.207048E2,0E0,6.636644E2,0E0,0E0],"parents":[2147483647,0,0,2,2],"right_children":[2,-1,4,-1,-1],"split_conditions":[1.475E1,-5.5173975E-3,5E-3,2.97754E-2,-5.477653E-3],"split_indices":[5,0,1,0,0],"split_type":[0,0,0,0,0],"sum_hessian":[7.191366E2,5.0644388E2,2.1269269E2,1.1171433E2,1.00978355E2],"tree_param":{"num_deleted":"0","num_feature":"6","num_nodes":"5","size_leaf_vector":"0"}},{"base_weights":[7.177259E-6,1.0943638E0,-4.7175032E-1,-1.14250645E-1,1.7101253E0,1.3547927E-1,-5.474725E-1],"categories":[],"categories_nodes":[],"categories_segments":[],"categories_sizes":[],"default_left":[true,true,true,false,false,false,false],"id":100,"left_children":[1,3,5,-1,-1,-1,-1],"loss_changes":[3.7259256E2,1.6198557E2,2.3262413E1,0E0,0E0,0E0,0E0],"parents":[2147483647,0,0,1,1,2,2],"right_children":[2,4,6,-1,-1,-1,-1],"split_conditions":[2.75E0,2.4999999E-2,2.95E0,-1.1425064E-3,1.7101252E-2,1.3547927E-3,-5.474725E-3],"split_indices":[2,1,2,0,0,0,0],"split_type":[0,0,0,0,0,0,0],"sum_hessian":[7.1969965E2,2.1639615E2,5.0330347E2,7.33127E1,1.4308345E2,5.571619E1,4.4758728E2],"tree_param":{"num_deleted":"0","num_feature":"6","num_nodes":"7","size_leaf_vector":"0"}},{"base_weights":[1.2972085E-4,5.73547E-1,-1.13131404E-1,4.0863186E-1,9.615365E-1,-2.2885253E-1,7.0853806E-1],"categories":[],"categories_nodes":[],"categories_segments":[],"categories_sizes":[],"default_left":[true,true,true,false,false,false,false],"id":101,"left_children":[1,3,5,-1,-1,-1,-1],"loss_changes":[4.6873783E1,7.2241287E0,5.7468956E1,0E0,0E0,0E0,0E0],"parents":[2147483647,0,0,1,1,2,2],"right_children":[2,4,6,-1,-1,-1,-1],"split_conditions":[4.5E-1,1.105E1,1.75E0,4.0863184E-3,9.615365E-3,-2.2885252E-3,7.0853806E-3],"split_indices":[4,3,4,0,0,0,0],"split_type":[0,0,0,0,0,0,0],"sum_hessian":[7.197369E2,1.180435E2,6.016934E2,8.42754E1,3.3768105E1,5.2804663E2,7.36468E1],"tree_param":{"num_deleted":"0","num_feature":"6","num_nodes":"7","size_leaf_vector":"0"}},{"base_weights":[4.0553066E-5,2.6441044E-1,-4.2965123E-1,6.199164E-1,1.6634238E-1,-2.827794E-2,-4.6428448E-1],"categories":[],"categories_nodes":[],"categories_segments":[],"categories_sizes":[],"default_left":[true,true,true,false,false,false,false],"id":102,"left_children":[1,3,5,-1,-1,-1,-1],"loss_changes":[8.200012E1,1.5477287E1,3.8089638E0,0E0,0E0,0E0,0E0],"parents":[2147483647,0,0,1,1,2,2],"right_children":[2,4,6,-1,-1,-1,-1],"split_conditions":[3.55E0,4.5E-1,4.5E-1,6.199164E-3,1.6634237E-3,-2.827794E-4,-4.6428447E-3],"split_indices":[2,4,4,0,0,0,0],"split_type":[0,0,0,0,0,0,0],"sum_hessian":[7.198474E2,4.4589383E2,2.739536E2,9.525699E1,3.5063684E2,2.1905209E1,2.520484E2],"tree_param":{"num_deleted":"0","num_feature":"6","num_nodes":"7","size_leaf_vector":"0"}},{"base_weights":[9.584779E-5,1.01864725E-1,-2.865336E-1,-9.196334E-2,1.5421554E-1,-5.152573E-1,-9.970145E-2],"categories":[],"categories_nodes":[],"categories_segments":[],"categories_sizes":[],"default_left":[true,true,true,false,false,false,false],"id":103,"left_children":[1,3,5,-1,-1,-1,-1],"loss_changes":[2.1055939E1,5.4195085E0,8.031011E0,0E0,0E0,0E0,0E0],"parents":[2147483647,0,0,1,1,2,2],"right_children":[2,4,6,-1,-1,-1,-1],"split_conditions":[1.475E1,5E-3,5E-3,-9.196334E-4,1.5421554E-3,-5.152573E-3,-9.970145E-4],"split_indices":[5,1,1,0,0,0,0],"split_type":[0,0,0,0,0,0,0],"sum_hessian":[7.198359E2,5.316988E2,1.8813707E2,1.1290675E2,4.1879202E2,8.3795296E1,1.0434177E2],"tree_param":{"num_deleted":"0","num_feature":"6","num_nodes":"7","size_leaf_vector":"0"}},{"base_weights":[7.173469E-5,7.976132E-2,-3.286737E-1,-1.5245523E-1,1.6444936E-1,4.9217194E-1,-4.7872755E-1],"categories":[],"categories_nodes":[],"categories_segments":[],"categories_sizes":[],"default_left":[true,true,true,false,false,false,false],"id":104,"left_children":[1,3,5,-1,-1,-1,-1],"loss_changes":[1.8911055E1,1.1451378E1,1.7583319E1,0E0,0E0,0E0,0E0],"parents":[2147483647,0,0,1,1,2,2],"right_children":[2,4,6,-1,-1,-1,-1],"split_conditions":[3.95E0,2.55E0,1.45E0,-1.5245522E-3,1.6444935E-3,4.9217194E-3,-4.7872756E-3],"split_indices":[2,2,4,0,0,0,0],"split_type":[0,0,0,0,0,0,0],"sum_hessian":[7.198618E2,5.800195E2,1.3984233E2,1.5478773E2,4.2523172E2,2.1260454E1,1.1858188E2],"tree_param":{"num_deleted":"0","num_feature":"6","num_nodes":"7","size_leaf_vector":"0"}},{"base_weights":[6.358608E-5,2.0839368E-1,-1.9139929E-1,-1.6013926E-1,4.0183377E-1,9.7154506E-2,-3.6135444E-1],"categories":[],"categories_nodes":[],"categories_segments":[],"categories_sizes":[],"default_left":[true,true,true,false,false,false,false],"id":105,"left_children":[1,3,5,-1,-1,-1,-1],"loss_changes":[2.8793509E1,2.470942E1,1.848255E1,0E0,0E0,0E0,0E0],"parents":[2147483647,0,0,1,1,2,2],"right_children":[2,4,6,-1,-1,-1,-1],"split_conditions":[9.15E0,2.75E0,1.05E0,-1.6013926E-3,4.0183375E-3,9.7154506E-4,-3.6135444E-3],"split_indices":[3,2,4,0,0,0,0],"split_type":[0,0,0,0,0,0,0],"sum_hessian":[7.1986835E2,3.4470627E2,3.751621E2,1.1871266E2,2.259936E2,1.3921982E2,2.3594229E2],"tree_param":{"num_deleted":"0","num_feature":"6","num_nodes":"7","size_leaf_vector":"0"}},{"base_weights":[4.9817078E-5,2.1454804E-1,-2.4573384E-1,3.6544225E-1,-2.6010904E-1,-4.9589968E-1,-9.324944E-2],"categories":[],"categories_nodes":[],"categories_segments":[],"categories_sizes":[],"default_left":[true,true,true,false,false,false,false],"id":106,"left_children":[1,3,5,-1,-1,-1,-1],"loss_changes":[3.8057407E1,2.7703629E1,1.2786392E1,0E0,0E0,0E0,0E0],"parents":[2147483647,0,0,1,1,2,2],"right_children":[2,4,6,-1,-1,-1,-1],"split_conditions":[2.4999999E-2,3.95E0,2.75E0,3.6544225E-3,-2.6010904E-3,-4.9589965E-3,-9.3249435E-4],"split_indices":[1,2,2,0,0,0,0],"split_type":[0,0,0,0,0,0,0],"sum_hessian":[7.198758E2,3.8447076E2,3.35405E2,2.919041E2,9.256667E1,1.261656E2,2.0923938E2],"tree_param":{"num_deleted":"0","num_feature":"6","num_nodes":"7","size_leaf_vector":"0"}},{"base_weights":[3.581535E-5,-4.223667E-1,3.2475683E-1,-5.204684E-1,-1.7992215E-1,6.214154E-1,1.621149E-4],"categories":[],"categories_nodes":[],"categories_segments":[],"categories_sizes":[],"default_left":[true,true,true,false,false,false,false],"id":107,"left_children":[1,3,5,-1,-1,-1,-1],"loss_changes":[9.9012085E1,7.368408E0,3.9299095E1,0E0,0E0,0E0,0E0],"parents":[2147483647,0,0,1,1,2,2],"right_children":[2,4,6,-1,-1,-1,-1],"split_conditions":[3.15E0,2.85E0,1.475E1,-5.204684E-3,-1.7992215E-3,6.2141535E-3,1.621149E-6],"split_indices":[2,2,5,0,0,0,0],"split_type":[0,0,0,0,0,0,0],"sum_hessian":[7.1985724E2,3.127396E2,4.071176E2,2.2183179E2,9.090781E1,2.1223454E2,1.9488307E2],"tree_param":{"num_deleted":"0","num_feature":"6","num_nodes":"7","size_leaf_vector":"0"}},{"base_weights":[-9.250359E-5,-5.5160713E-1,3.4054822E-1,2.2205665E0,1.7432746E-1],"categories":[],"categories_nodes":[],"categories_segments":[],"categories_sizes":[],"default_left":[true,false,false,false,false],"id":108,"left_children":[1,-1,3,-1,-1],"loss_changes":[1.3560121E2,0E0,1.3904858E2,0E0,0E0],"parents":[2147483647,0,0,2,2],"right_children":[2,-1,4,-1,-1],"split_conditions":[3.05E0,-5.5160713E-3,1.075E1,2.2205664E-2,1.7432746E-3],"split_indices":[2,0,5,0,0],"split_type":[0,0,0,0,0],"sum_hessian":[7.197886E2,2.7459155E2,4.45197E2,3.5160427E1,4.1003656E2],"tree_param":{"num_deleted":"0","num_feature":"6","num_nodes":"5","size_leaf_vector":"0"}},{"base_weights":[-4.0226342E-4,-5.517113E-1,1.3175696E0,2.9644985E0,-5.472616E-1],"categories":[],"categories_nodes":[],"categories_segments":[],"categories_sizes":[],"default_left":[true,false,true,false,false],"id":109,"left_children":[1,-1,3,-1,-1],"loss_changes":[5.238472E2,0E0,6.546604E2,0E0,0E0],"parents":[2147483647,0,0,2,2],"right_children":[2,-1,4,-1,-1],"split_conditions":[8.5E0,-5.517113E-3,5E-3,2.9644985E-2,-5.472616E-3],"split_indices":[0,0,1,0,0],"split_type":[0,0,0,0,0],"sum_hessian":[7.1894666E2,5.0731686E2,2.1162979E2,1.120675E2,9.95623E1],"tree_param":{"num_deleted":"0","num_feature":"6","num_nodes":"5","size_leaf_vector":"0"}},{"base_weights":[-1.6126703E-5,7.130096E-1,-4.5012292E-1,-2.4097696E-1,1.2753645E0,-2.0642544E-1,-5.317495E-1],"categories":[],"categories_nodes":[],"categories_segments":[],"categories_sizes":[],"default_left":[true,true,false,false,false,false,false],"id":110,"left_children":[1,3,5,-1,-1,-1,-1],"loss_changes":[2.3160118E2,1.5012369E2,8.690147E0,0E0,0E0,0E0,0E0],"parents":[2147483647,0,0,1,1,2,2],"right_children":[2,4,6,-1,-1,-1,-1],"split_conditions":[1.025E1,2.4999999E-2,1.225E1,-2.4097695E-3,1.2753645E-2,-2.0642544E-3,-5.3174947E-3],"split_indices":[5,1,5,0,0,0,0],"split_type":[0,0,0,0,0,0,0],"sum_hessian":[7.19639E2,2.7825848E2,4.413805E2,1.03407715E2,1.7485075E2,1.1163152E2,3.2974896E2],"tree_param":{"num_deleted":"0","num_feature":"6","num_nodes":"7","size_leaf_vector":"0"}},{"base_weights":[1.5392592E-4,5.777064E-1,-2.4406947E-1,4.6952295E-1,1.103596E0,3.0888715E-1,-3.2274374E-1],"categories":[],"categories_nodes":[],"categories_segments":[],"categories_sizes":[],"default_left":[false,true,true,false,false,false,false],"id":111,"left_children":[1,3,5,-1,-1,-1,-1],"loss_changes":[1.0179639E2,1.1684158E1,2.21653E1,0E0,0E0,0E0,0E0],"parents":[2147483647,0,0,1,1,2,2],"right_children":[2,4,6,-1,-1,-1,-1],"split_conditions":[1.025E1,1.75E0,4.5E-1,4.695229E-3,1.1035959E-2,3.0888715E-3,-3.2274374E-3],"split_indices":[5,4,4,0,0,0,0],"split_type":[0,0,0,0,0,0,0],"sum_hessian":[7.196953E2,2.1348029E2,5.06215E2,1.7862686E2,3.4853424E1,6.2688335E1,4.4352667E2],"tree_param":{"num_deleted":"0","num_feature":"6","num_nodes":"7","size_leaf_vector":"0"}},{"base_weights":[5.3822212E-5,2.4239857E-1,-3.2602912E-1,-1.6563773E-2,3.631522E-1,4.1244775E-1,-4.0038624E-1],"categories":[],"categories_nodes":[],"categories_segments":[],"categories_sizes":[],"default_left":[true,true,true,false,false,false,false],"id":112,"left_children":[1,3,5,-1,-1,-1,-1],"loss_changes":[5.7040897E1,1.2954355E1,1.7063423E1,0E0,0E0,0E0,0E0],"parents":[2147483647,0,0,1,1,2,2],"right_children":[2,4,6,-1,-1,-1,-1],"split_conditions":[1.275E1,1.5E-2,4.5E-1,-1.6563773E-4,3.631522E-3,4.1244775E-3,-4.0038624E-3],"split_indices":[5,1,4,0,0,0,0],"split_type":[0,0,0,0,0,0,0],"sum_hessian":[7.198128E2,4.1307343E2,3.067394E2,1.3163603E2,2.814374E2,2.7644226E1,2.7909518E2],"tree_param":{"num_deleted":"0","num_feature":"6","num_nodes":"7","size_leaf_vector":"0"}},{"base_weights":[1.0673537E-4,1.7189233E-1,-2.2387964E-1,-7.7820435E-2,2.222848E-1,2.2504847E-2,-4.1267958E-1],"categories":[],"categories_nodes":[],"categories_segments":[],"categories_sizes":[],"default_left":[true,false,true,false,false,false,false],"id":113,"left_children":[1,3,5,-1,-1,-1,-1],"loss_changes":[2.7773746E1,5.157836E0,1.4583441E1,0E0,0E0,0E0,0E0],"parents":[2147483647,0,0,1,1,2,2],"right_children":[2,4,6,-1,-1,-1,-1],"split_conditions":[1.45E0,7.75E0,1.275E1,-7.7820435E-4,2.222848E-3,2.2504847E-4,-4.1267956E-3],"split_indices":[4,5,5,0,0,0,0],"split_type":[0,0,0,0,0,0,0],"sum_hessian":[7.198152E2,4.075096E2,3.1230557E2,6.833597E1,3.3917365E2,1.3587244E2,1.7643312E2],"tree_param":{"num_deleted":"0","num_feature":"6","num_nodes":"7","size_leaf_vector":"0"}},{"base_weights":[8.563972E-5,7.930226E-2,-3.2785654E-1,-1.518851E-1,1.6340177E-1,4.8697722E-1,-4.7814134E-1],"categories":[],"categories_nodes":[],"categories_segments":[],"categories_sizes":[],"default_left":[true,true,true,false,false,false,false],"id":114,"left_children":[1,3,5,-1,-1,-1,-1],"loss_changes":[1.8752226E1,1.1328753E1,1.7430763E1,0E0,0E0,0E0,0E0],"parents":[2147483647,0,0,1,1,2,2],"right_children":[2,4,6,-1,-1,-1,-1],"split_conditions":[3.95E0,2.55E0,1.45E0,-1.518851E-3,1.6340177E-3,4.869772E-3,-4.7814134E-3],"split_indices":[2,2,4,0,0,0,0],"split_type":[0,0,0,0,0,0,0],"sum_hessian":[7.1983636E2,5.8039606E2,1.3944035E2,1.5459964E2,4.257964E2,2.1364288E1,1.1807606E2],"tree_param":{"num_deleted":"0","num_feature":"6","num_nodes":"7","size_leaf_vector":"0"}},{"base_weights":[7.6352124E-5,2.0689191E-1,-1.9066335E-1,-5.2245952E-2,4.455886E-1,-3.9099115E-1,-1.9984547E-2],"categories":[],"categories_nodes":[],"categories_segments":[],"categories_sizes":[],"default_left":[true,true,true,false,false,false,false],"id":115,"left_children":[1,3,5,-1,-1,-1,-1],"loss_changes":[2.8475159E1,2.14454E1,1.2831701E1,0E0,0E0,0E0,0E0],"parents":[2147483647,0,0,1,1,2,2],"right_children":[2,4,6,-1,-1,-1,-1],"split_conditions":[9.15E0,1.075E1,9.75E0,-5.224595E-4,4.455886E-3,-3.9099115E-3,-1.9984547E-4],"split_indices":[3,5,3,0,0,0,0],"split_type":[0,0,0,0,0,0,0],"sum_hessian":[7.1984155E2,3.453261E2,3.7451544E2,1.6594801E2,1.7937811E2,1.7169919E2,2.0281624E2],"tree_param":{"num_deleted":"0","num_feature":"6","num_nodes":"7","size_leaf_vector":"0"}},{"base_weights":[5.7064502E-5,-2.3574139E-1,1.8637663E-1,-5.4648554E-1,-1.4382838E-1,4.1762462E-1,-2.3671299E-1],"categories":[],"categories_nodes":[],"categories_segments":[],"categories_sizes":[],"default_left":[true,true,true,false,false,false,false],"id":116,"left_children":[1,3,5,-1,-1,-1,-1],"loss_changes":[3.1713785E1,9.02165E0,3.955057E1,0E0,0E0,0E0,0E0],"parents":[2147483647,0,0,1,1,2,2],"right_children":[2,4,6,-1,-1,-1,-1],"split_conditions":[3.15E0,4.5E-1,3.95E0,-5.464855E-3,-1.4382837E-3,4.176246E-3,-2.3671298E-3],"split_indices":[2,4,2,0,0,0,0],"split_type":[0,0,0,0,0,0,0],"sum_hessian":[7.198528E2,3.1762027E2,4.022325E2,7.137304E1,2.4624724E2,2.6008878E2,1.4214374E2],"tree_param":{"num_deleted":"0","num_feature":"6","num_nodes":"7","size_leaf_vector":"0"}},{"base_weights":[4.558506E-5,-4.2163762E-1,3.2213053E-1,-5.200278E-1,-1.7913532E-1,5.5065876E-1,-9.045461E-2],"categories":[],"categories_nodes":[],"categories_segments":[],"categories_sizes":[],"default_left":[true,true,true,false,false,false,false],"id":117,"left_children":[1,3,5,-1,-1,-1,-1],"loss_changes":[9.803669E1,7.3650208E0,3.863619E1,0E0,0E0,0E0,0E0],"parents":[2147483647,0,0,1,1,2,2],"right_children":[2,4,6,-1,-1,-1,-1],"split_conditions":[3.15E0,2.85E0,3.95E0,-5.200278E-3,-1.7913532E-3,5.5065877E-3,-9.0454606E-4],"split_indices":[2,2,2,0,0,0,0],"split_type":[0,0,0,0,0,0,0],"sum_hessian":[7.1982495E2,3.115826E2,4.0824234E2,2.2083786E2,9.074475E1,2.6250684E2,1.457355E2],"tree_param":{"num_deleted":"0","num_feature":"6","num_nodes":"7","size_leaf_vector":"0"}},{"base_weights":[-8.370749E-5,-5.517978E-1,4.6625707E-1,1.531638E0,-5.5160606E-1],"categories":[],"categories_nodes":[],"categories_segments":[],"categories_sizes":[],"default_left":[true,false,true,false,false],"id":118,"left_children":[1,-1,3,-1,-1],"loss_changes":[1.856953E2,0E0,4.2499606E2,0E0,0E0],"parents":[2147483647,0,0,2,2],"right_children":[2,-1,4,-1,-1],"split_conditions":[9.15E0,-5.5179778E-3,9.75E0,1.531638E-2,-5.5160606E-3],"split_indices":[3,0,3,0,0],"split_type":[0,0,0,0,0],"sum_hessian":[7.197444E2,3.2960965E2,3.9013477E2,1.9037135E2,1.997634E2],"tree_param":{"num_deleted":"0","num_feature":"6","num_nodes":"5","size_leaf_vector":"0"}},{"base_weights":[-4.799795E-4,-5.5143976E-1,1.7750822E0,-5.453622E-1,3.0413117E0],"categories":[],"categories_nodes":[],"categories_segments":[],"categories_sizes":[],"default_left":[true,false,true,false,false],"id":119,"left_children":[1,-1,3,-1,-1],"loss_changes":[7.050617E2,0E0,5.031551E2,0E0,0E0],"parents":[2147483647,0,0,2,2],"right_children":[2,-1,4,-1,-1],"split_conditions":[3.95E0,-5.5143973E-3,8.5E0,-5.4536215E-3,3.0413117E-2],"split_indices":[2,0,0,0,0],"split_type":[0,0,0,0,0],"sum_hessian":[7.1872736E2,5.490467E2,1.6968063E2,6.0104576E1,1.0957606E2],"tree_param":{"num_deleted":"0","num_feature":"6","num_nodes":"5","size_leaf_vector":"0"}},{"base_weights":[-3.23106E-5,-4.633273E-1,4.772392E-1,-4.8143402E-1,-2.2825289E-1,1.2406222E0,2.6196447E-1],"categories":[],"categories_nodes":[],"categories_segments":[],"categories_sizes":[],"default_left":[true,true,true,false,false,false,false],"id":120,"left_children":[1,3,5,-1,-1,-1,-1],"loss_changes":[1.595541E2,1.4486008E0,5.808516E1,0E0,0E0,0E0,0E0],"parents":[2147483647,0,0,1,1,2,2],"right_children":[2,4,6,-1,-1,-1,-1],"split_conditions":[2.4999999E-2,1.75E0,4.5E-1,-4.8143403E-3,-2.282529E-3,1.2406222E-2,2.6196446E-3],"split_indices":[1,4,4,0,0,0,0],"split_type":[0,0,0,0,0,0,0],"sum_hessian":[7.1958057E2,3.6515146E2,3.5442908E2,3.3806393E2,2.7087526E1,7.691584E1,2.7751324E2],"tree_param":{"num_deleted":"0","num_feature":"6","num_nodes":"7","size_leaf_vector":"0"}},{"base_weights":[1.703481E-4,5.1016486E-1,-3.5063785E-1,6.4091456E-1,3.228981E-1,-1.6265754E-1,-5.058376E-1],"categories":[],"categories_nodes":[],"categories_segments":[],"categories_sizes":[],"default_left":[true,false,true,false,false,false,false],"id":121,"left_children":[1,3,5,-1,-1,-1,-1],"loss_changes":[1.291103E2,6.9940567E0,1.2391308E1,0E0,0E0,0E0,0E0],"parents":[2147483647,0,0,1,1,2,2],"right_children":[2,4,6,-1,-1,-1,-1],"split_conditions":[3.05E0,9.25E0,3.65E0,6.4091454E-3,3.2289808E-3,-1.6265754E-3,-5.058376E-3],"split_indices":[2,5,2,0,0,0,0],"split_type":[0,0,0,0,0,0,0],"sum_hessian":[7.1964856E2,2.930977E2,4.265509E2,1.7116661E2,1.2193107E2,1.9382964E2,2.3272127E2],"tree_param":{"num_deleted":"0","num_feature":"6","num_nodes":"7","size_leaf_vector":"0"}},{"base_weights":[6.4319895E-5,2.4046229E-1,-3.2512546E-1,3.5489845E-1,1.1989712E-2,4.0954363E-1,-3.995823E-1],"categories":[],"categories_nodes":[],"categories_segments":[],"categories_sizes":[],"default_left":[true,true,true,false,false,false,false],"id":122,"left_children":[1,3,5,-1,-1,-1,-1],"loss_changes":[5.642513E1,1.0845978E1,1.6945202E1,0E0,0E0,0E0,0E0],"parents":[2147483647,0,0,1,1,2,2],"right_children":[2,4,6,-1,-1,-1,-1],"split_conditions":[1.275E1,1.45E0,4.5E-1,3.5489844E-3,1.19897115E-4,4.095436E-3,-3.9958227E-3],"split_indices":[5,4,4,0,0,0,0],"split_type":[0,0,0,0,0,0,0],"sum_hessian":[7.1978E2,4.139938E2,3.057862E2,2.754663E2,1.3852751E2,2.772472E1,2.780615E2],"tree_param":{"num_deleted":"0","num_feature":"6","num_nodes":"7","size_leaf_vector":"0"}},{"base_weights":[1.15595045E-4,3.168952E-1,-1.4416435E-1,1.2552054E-1,4.2144057E-1,-3.1948066E-1,1.691564E-1],"categories":[],"categories_nodes":[],"categories_segments":[],"categories_sizes":[],"default_left":[true,true,true,false,false,false,false],"id":123,"left_children":[1,3,5,-1,-1,-1,-1],"loss_changes":[3.2989513E1,4.4661884E0,2.7295155E1,0E0,0E0,0E0,0E0],"parents":[2147483647,0,0,1,1,2,2],"right_children":[2,4,6,-1,-1,-1,-1],"split_conditions":[6.6499996E0,8.75E0,1.005E1,1.2552054E-3,4.2144055E-3,-3.1948064E-3,1.691564E-3],"split_indices":[3,5,3,0,0,0,0],"split_type":[0,0,0,0,0,0,0],"sum_hessian":[7.197936E2,2.2487154E2,4.9492203E2,8.0222176E1,1.4464935E2,3.1733817E2,1.7758388E2],"tree_param":{"num_deleted":"0","num_feature":"6","num_nodes":"7","size_leaf_vector":"0"}},{"base_weights":[9.3765026E-5,2.0380682E-1,-1.5746962E-1,5.850714E-3,2.5065914E-1,-3.6100718E-1,1.0797441E-1],"categories":[],"categories_nodes":[],"categories_segments":[],"categories_sizes":[],"default_left":[true,true,true,false,false,false,false],"id":124,"left_children":[1,3,5,-1,-1,-1,-1],"loss_changes":[2.3168566E1,2.9182463E0,2.2028816E1,0E0,0E0,0E0,0E0],"parents":[2147483647,0,0,1,1,2,2],"right_children":[2,4,6,-1,-1,-1,-1],"split_conditions":[8.55E0,4.5E-1,1.005E1,5.850714E-5,2.5065914E-3,-3.6100717E-3,1.0797441E-3],"split_indices":[3,4,3,0,0,0,0],"split_type":[0,0,0,0,0,0,0],"sum_hessian":[7.1981354E2,3.1380405E2,4.0600946E2,6.027223E1,2.5353183E2,2.2959799E2,1.7641148E2],"tree_param":{"num_deleted":"0","num_feature":"6","num_nodes":"7","size_leaf_vector":"0"}},{"base_weights":[8.4823674E-5,2.0511003E-1,-1.8979244E-1,-5.2095495E-2,4.4094253E-1,-3.899186E-1,-2.0120276E-2],"categories":[],"categories_nodes":[],"categories_segments":[],"categories_sizes":[],"default_left":[true,true,true,false,false,false,false],"id":125,"left_children":[1,3,5,-1,-1,-1,-1],"loss_changes":[2.8100065E1,2.1075E1,1.2717197E1,0E0,0E0,0E0,0E0],"parents":[2147483647,0,0,1,1,2,2],"right_children":[2,4,6,-1,-1,-1,-1],"split_conditions":[9.15E0,1.075E1,9.75E0,-5.2095496E-4,4.409425E-3,-3.899186E-3,-2.0120275E-4],"split_indices":[3,5,3,0,0,0,0],"split_type":[0,0,0,0,0,0,0],"sum_hessian":[7.19817E2,3.4606433E2,3.7375272E2,1.6590395E2,1.8016039E2,1.7089096E2,2.0286176E2],"tree_param":{"num_deleted":"0","num_feature":"6","num_nodes":"7","size_leaf_vector":"0"}},{"base_weights":[6.277951E-5,-2.9973748E-1,1.4986943E-1,-5.4831195E-1,-1.2695304E-1,3.67258E-1,-3.204787E-2],"categories":[],"categories_nodes":[],"categories_segments":[],"categories_sizes":[],"default_left":[false,true,true,false,false,false,false],"id":126,"left_children":[1,3,5,-1,-1,-1,-1],"loss_changes":[3.2418964E1,1.0260273E1,1.9046452E1,0E0,0E0,0E0,0E0],"parents":[2147483647,0,0,1,1,2,2],"right_children":[2,4,6,-1,-1,-1,-1],"split_conditions":[1.075E1,7.25E0,9.15E0,-5.4831193E-3,-1.2695303E-3,3.67258E-3,-3.2047872E-4],"split_indices":[5,3,3,0,0,0,0],"split_type":[0,0,0,0,0,0,0],"sum_hessian":[7.198316E2,2.3951062E2,4.80321E2,9.732364E1,1.4218698E2,2.1836232E2,2.6195868E2],"tree_param":{"num_deleted":"0","num_feature":"6","num_nodes":"7","size_leaf_vector":"0"}},{"base_weights":[5.6046734E-5,2.8434876E-1,-3.295311E-1,-8.564065E-2,6.873866E-1,-4.3800077E-1,-5.8808684E-2],"categories":[],"categories_nodes":[],"categories_segments":[],"categories_sizes":[],"default_left":[true,true,true,false,false,false,false],"id":127,"left_children":[1,3,5,-1,-1,-1,-1],"loss_changes":[6.763099E1,5.784606E1,9.79002E0,0E0,0E0,0E0,0E0],"parents":[2147483647,0,0,1,1,2,2],"right_children":[2,4,6,-1,-1,-1,-1],"split_conditions":[2.4999999E-2,5E-3,1.55E0,-8.5640646E-4,6.8738656E-3,-4.3800077E-3,-5.8808684E-4],"split_indices":[1,1,4,0,0,0,0],"split_type":[0,0,0,0,0,0,0],"sum_hessian":[7.1978815E2,3.8652216E2,3.33266E2,2.0193394E2,1.845882E2,2.3749255E2,9.5773445E1],"tree_param":{"num_deleted":"0","num_feature":"6","num_nodes":"7","size_leaf_vector":"0"}},{"base_weights":[-9.727728E-5,5.3805E-1,-5.524414E-1,9.726708E-2,2.792774E0],"categories":[],"categories_nodes":[],"categories_segments":[],"categories_sizes":[],"default_left":[true,true,false,false,false],"id":128,"left_children":[1,3,-1,-1,-1],"loss_changes":[2.1451207E2,3.6301257E2,0E0,0E0,0E0],"parents":[2147483647,0,0,1,1],"right_children":[2,4,-1,-1,-1],"split_conditions":[5.5E0,3.95E0,-5.524414E-3,9.7267074E-4,2.792774E-2],"split_indices":[0,2,0,0,0],"split_type":[0,0,0,0,0],"sum_hessian":[7.196736E2,3.6453452E2,3.5513904E2,3.0579657E2,5.8737976E1],"tree_param":{"num_deleted":"0","num_feature":"6","num_nodes":"5","size_leaf_vector":"0"}},{"base_weights":[-5.1909155E-4,-5.5113024E-1,1.7418913E0,3.0685701E0,-5.445745E-1],"categories":[],"categories_nodes":[],"categories_segments":[],"categories_sizes":[],"default_left":[true,false,true,false,false],"id":129,"left_children":[1,-1,3,-1,-1],"loss_changes":[6.911869E2,0E0,5.264394E2,0E0,0E0],"parents":[2147483647,0,0,2,2],"right_children":[2,-1,4,-1,-1],"split_conditions":[3.95E0,-5.511302E-3,5E-3,3.06857E-2,-5.445745E-3],"split_indices":[2,0,1,0,0],"split_type":[0,0,0,0,0],"sum_hessian":[7.1844305E2,5.4644666E2,1.7199641E2,1.086261E2,6.337031E1],"tree_param":{"num_deleted":"0","num_feature":"6","num_nodes":"5","size_leaf_vector":"0"}},{"base_weights":[-1.8751125E-5,1.0642357E0,