{"learner":{"attributes":{"scikit_learn":"{\"use_label_encoder\": true, \"n_estimators\": 25, \"objective\": \"multi:softprob\", \"max_depth\": 2, \"learning_rate\": 0.01, \"verbosity\": null, \"booster\": null, \"tree_method\": null, \"gamma\": 0.0, \"min_child_weight\": 1, \"max_delta_step\": null, \"subsample\": null, \"colsample_bytree\": 0.5, \"colsample_bylevel\": null, \"colsample_bynode\": null, \"reg_alpha\": null, \"reg_lambda\": null, \"scale_pos_weight\": null, \"base_score\": null, \"missing\": NaN, \"num_parallel_tree\": null, \"kwargs\": {}, \"random_state\": null, \"n_jobs\": null, \"monotone_constraints\": null, \"interaction_constraints\": null, \"importance_type\": \"gain\", \"gpu_id\": null, \"validate_parameters\": null, \"classes_\": [1, 2, 3, 4, 5, 6, 7, 8, 9, 10], \"_le\": {\"classes_\": [1, 2, 3, 4, 5, 6, 7, 8, 9, 10]}, \"n_classes_\": 10, \"_features_count\": 6, \"n_features_in_\": 6, \"type\": \"XGBClassifier\"}"},"gradient_booster":{"model":{"gbtree_model_param":{"num_trees":"250","size_leaf_vector":"0"},"tree_info":[0,1,2,3,4,5,6,7,8,9,0,1,2,3,4,5,6,7,8,9,0,1,2,3,4,5,6,7,8,9,0,1,2,3,4,5,6,7,8,9,0,1,2,3,4,5,6,7,8,9,0,1,2,3,4,5,6,7,8,9,0,1,2,3,4,5,6,7,8,9,0,1,2,3,4,5,6,7,8,9,0,1,2,3,4,5,6,7,8,9,0,1,2,3,4,5,6,7,8,9,0,1,2,3,4,5,6,7,8,9,0,1,2,3,4,5,6,7,8,9,0,1,2,3,4,5,6,7,8,9,0,1,2,3,4,5,6,7,8,9,0,1,2,3,4,5,6,7,8,9,0,1,2,3,4,5,6,7,8,9,0,1,2,3,4,5,6,7,8,9,0,1,2,3,4,5,6,7,8,9,0,1,2,3,4,5,6,7,8,9,0,1,2,3,4,5,6,7,8,9,0,1,2,3,4,5,6,7,8,9,0,1,2,3,4,5,6,7,8,9,0,1,2,3,4,5,6,7,8,9,0,1,2,3,4,5,6,7,8,9,0,1,2,3,4,5,6,7,8,9],"trees":[{"base_weights":[4.155291E-9,1.03183E0,-3.5372216E-1,-1.2787072E-1,1.7006446E0,7.396784E-2,-4.884087E-1],"categories":[],"categories_nodes":[],"categories_segments":[],"categories_sizes":[],"default_left":[false,true,true,false,false,false,false],"id":0,"left_children":[1,3,5,-1,-1,-1,-1],"loss_changes":[3.2921295E2,1.788241E2,3.8730263E1,0E0,0E0,0E0,0E0],"parents":[2147483647,0,0,1,1,2,2],"right_children":[2,4,6,-1,-1,-1,-1],"split_conditions":[9.75E0,2.4999999E-2,1.075E1,-1.2787072E-3,1.7006446E-2,7.3967833E-4,-4.884087E-3],"split_indices":[5,1,5,0,0,0,0],"split_type":[0,0,0,0,0,0,0],"sum_hessian":[8.9999994E2,2.2927454E2,6.707254E2,8.415741E1,1.4511713E2,1.6074359E2,5.0998184E2],"tree_param":{"num_deleted":"0","num_feature":"6","num_nodes":"7","size_leaf_vector":"0"}},{"base_weights":[-4.3268773E-8,6.399899E-1,-2.5628924E-1,5.246586E-1,1.2265809E0,3.0897325E-1,-3.34729E-1],"categories":[],"categories_nodes":[],"categories_segments":[],"categories_sizes":[],"default_left":[false,true,true,false,false,false,false],"id":1,"left_children":[1,3,5,-1,-1,-1,-1],"loss_changes":[1.479483E2,1.6805687E1,2.8661087E1,0E0,0E0,0E0,0E0],"parents":[2147483647,0,0,1,1,2,2],"right_children":[2,4,6,-1,-1,-1,-1],"split_conditions":[1.025E1,1.75E0,4.5E-1,5.246586E-3,1.2265808E-2,3.0897325E-3,-3.3472897E-3],"split_indices":[5,4,4,0,0,0,0],"split_type":[0,0,0,0,0,0,0],"sum_hessian":[8.9999994E2,2.5692505E2,6.430749E2,2.1629341E2,4.0631634E1,7.800516E1,5.6506976E2],"tree_param":{"num_deleted":"0","num_feature":"6","num_nodes":"7","size_leaf_vector":"0"}},{"base_weights":[-4.3268773E-8,2.800351E-1,-4.3070734E-1,6.181921E-2,4.723659E-1,-5.2672595E-1,-2.4401166E-1],"categories":[],"categories_nodes":[],"categories_segments":[],"categories_sizes":[],"default_left":[true,true,true,false,false,false,false],"id":2,"left_children":[1,3,5,-1,-1,-1,-1],"loss_changes":[1.0879309E2,2.2911762E1,6.2423096E0,0E0,0E0,0E0,0E0],"parents":[2147483647,0,0,1,1,2,2],"right_children":[2,4,6,-1,-1,-1,-1],"split_conditions":[3.55E0,2.4999999E-2,2.4999999E-2,6.181921E-4,4.723659E-3,-5.267259E-3,-2.4401166E-3],"split_indices":[2,1,1,0,0,0,0],"split_type":[0,0,0,0,0,0,0],"sum_hessian":[8.9999994E2,5.4560864E2,3.5439133E2,2.5622296E2,2.8938568E2,2.328262E2,1.2156512E2],"tree_param":{"num_deleted":"0","num_feature":"6","num_nodes":"7","size_leaf_vector":"0"}},{"base_weights":[-2.8012034E-8,1.9725554E-1,-2.419431E-1,2.9840827E-1,1.5555112E-1,-3.6267635E-1,1.8581192E-1],"categories":[],"categories_nodes":[],"categories_segments":[],"categories_sizes":[],"default_left":[true,true,true,false,false,false,false],"id":3,"left_children":[1,3,5,-1,-1,-1,-1],"loss_changes":[4.30476E1,2.0497112E0,2.0989086E1,0E0,0E0,0E0,0E0],"parents":[2147483647,0,0,1,1,2,2],"right_children":[2,4,6,-1,-1,-1,-1],"split_conditions":[1.45E0,4.5E-1,1.75E0,2.9840826E-3,1.5555111E-3,-3.6267634E-3,1.8581192E-3],"split_indices":[4,4,4,0,0,0,0],"split_type":[0,0,0,0,0,0,0],"sum_hessian":[8.9999994E2,4.9588824E2,4.041117E2,1.4296817E2,3.529201E2,3.1527728E2,8.8834435E1],"tree_param":{"num_deleted":"0","num_feature":"6","num_nodes":"7","size_leaf_vector":"0"}},{"base_weights":[-5.2162335E-8,7.4200764E-2,-3.2462412E-1,-1.5994793E-1,1.600093E-1,-5.9648372E-2,-4.8011866E-1],"categories":[],"categories_nodes":[],"categories_segments":[],"categories_sizes":[],"default_left":[true,true,true,false,false,false,false],"id":4,"left_children":[1,3,5,-1,-1,-1,-1],"loss_changes":[2.1726807E1,1.4776791E1,6.8857574E0,0E0,0E0,0E0,0E0],"parents":[2147483647,0,0,1,1,2,2],"right_children":[2,4,6,-1,-1,-1,-1],"split_conditions":[3.95E0,2.55E0,8.5E0,-1.5994792E-3,1.6000929E-3,-5.964837E-4,-4.8011867E-3],"split_indices":[2,2,0,0,0,0,0],"split_type":[0,0,0,0,0,0,0],"sum_hessian":[8.9999994E2,7.3318414E2,1.6681583E2,1.9639912E2,5.36785E2,6.2201996E1,1.0461384E2],"tree_param":{"num_deleted":"0","num_feature":"6","num_nodes":"7","size_leaf_vector":"0"}},{"base_weights":[-1.6087798E-8,2.4582043E-1,-1.5225916E-1,-1.3354407E-1,5.149385E-1,-5.931499E-2,-4.100213E-1],"categories":[],"categories_nodes":[],"categories_segments":[],"categories_sizes":[],"default_left":[true,true,true,false,false,false,false],"id":5,"left_children":[1,3,5,-1,-1,-1,-1],"loss_changes":[3.376042E1,3.5291206E1,1.3319981E1,0E0,0E0,0E0,0E0],"parents":[2147483647,0,0,1,1,2,2],"right_children":[2,4,6,-1,-1,-1,-1],"split_conditions":[9.5E-1,4.5E-1,3.95E0,-1.3354407E-3,5.1493845E-3,-5.9314986E-4,-4.100213E-3],"split_indices":[4,4,2,0,0,0,0],"split_type":[0,0,0,0,0,0,0],"sum_hessian":[8.9999994E2,3.440007E2,5.5599927E2,1.4296817E2,2.0103253E2,4.095525E2,1.4644678E2],"tree_param":{"num_deleted":"0","num_feature":"6","num_nodes":"7","size_leaf_vector":"0"}},{"base_weights":[9.799044E-10,-2.8498462E-1,1.790285E-1,-5.179627E-1,-1.3446416E-1,3.4810886E-1,-2.1212445E-1],"categories":[],"categories_nodes":[],"categories_segments":[],"categories_sizes":[],"default_left":[false,true,true,false,false,false,false],"id":6,"left_children":[1,3,5,-1,-1,-1,-1],"loss_changes":[4.602037E1,1.2134544E1,3.671232E1,0E0,0E0,0E0,0E0],"parents":[2147483647,0,0,1,1,2,2],"right_children":[2,4,6,-1,-1,-1,-1],"split_conditions":[1.125E1,7.05E0,3.95E0,-5.179627E-3,-1.3446416E-3,3.4810884E-3,-2.1212446E-3],"split_indices":[5,3,2,0,0,0,0],"split_type":[0,0,0,0,0,0,0],"sum_hessian":[8.9999994E2,3.4701538E2,5.5298456E2,1.3524294E2,2.1177245E2,3.8616876E2,1.6681583E2],"tree_param":{"num_deleted":"0","num_feature":"6","num_nodes":"7","size_leaf_vector":"0"}},{"base_weights":[-1.9544338E-8,-4.6732962E-1,2.5302997E-1,-5.5275536E-1,-3.215173E-1,-4.761011E-1,3.9035913E-1],"categories":[],"categories_nodes":[],"categories_segments":[],"categories_sizes":[],"default_left":[false,true,true,false,false,false,false],"id":7,"left_children":[1,3,5,-1,-1,-1,-1],"loss_changes":[1.06660065E2,3.768776E0,5.8779263E1,0E0,0E0,0E0,0E0],"parents":[2147483647,0,0,1,1,2,2],"right_children":[2,4,6,-1,-1,-1,-1],"split_conditions":[1.075E1,6.5E0,5.5E-1,-5.5275536E-3,-3.2151728E-3,-4.761011E-3,3.9035913E-3],"split_indices":[5,0,4,0,0,0,0],"split_type":[0,0,0,0,0,0,0],"sum_hessian":[8.9999994E2,3.158321E2,5.8416785E2,1.9739517E2,1.1843693E2,9.219639E1,4.9197147E2],"tree_param":{"num_deleted":"0","num_feature":"6","num_nodes":"7","size_leaf_vector":"0"}},{"base_weights":[-3.9320214E-9,-5.542102E-1,4.6792313E-1,1.3026901E0,-5.5303836E-1],"categories":[],"categories_nodes":[],"categories_segments":[],"categories_sizes":[],"default_left":[true,false,true,false,false],"id":8,"left_children":[1,-1,3,-1,-1],"loss_changes":[2.3391364E2,0E0,4.1753998E2,0E0,0E0],"parents":[2147483647,0,0,2,2],"right_children":[2,-1,4,-1,-1],"split_conditions":[8.95E0,-5.542102E-3,1.005E1,1.30269015E-2,-5.5303834E-3],"split_indices":[3,0,3,0,0],"split_type":[0,0,0,0,0],"sum_hessian":[8.9999994E2,4.1192722E2,4.8807275E2,2.6836996E2,2.197028E2],"tree_param":{"num_deleted":"0","num_feature":"6","num_nodes":"5","size_leaf_vector":"0"}},{"base_weights":[-8.16587E-9,-5.547989E-1,2.4272115E0,4.540368E0,-5.476853E-1],"categories":[],"categories_nodes":[],"categories_segments":[],"categories_sizes":[],"default_left":[true,false,true,false,false],"id":9,"left_children":[1,-1,3,-1,-1],"loss_changes":[1.214646E3,0E0,1.0574479E3,0E0,0E0],"parents":[2147483647,0,0,2,2],"right_children":[2,-1,4,-1,-1],"split_conditions":[3.95E0,-5.5479887E-3,5E-3,4.5403678E-2,-5.4768533E-3],"split_indices":[2,0,1,0,0],"split_type":[0,0,0,0,0],"sum_hessian":[8.9999994E2,7.3318414E2,1.6681583E2,9.7226654E1,6.958917E1],"tree_param":{"num_deleted":"0","num_feature":"6","num_nodes":"5","size_leaf_vector":"0"}},{"base_weights":[1.0297512E-6,1.1873792E0,-4.853018E-1,-8.64673E-2,1.909437E0,1.1103575E-1,-5.507085E-1],"categories":[],"categories_nodes":[],"categories_segments":[],"categories_sizes":[],"default_left":[true,true,true,false,false,false,false],"id":10,"left_children":[1,3,5,-1,-1,-1,-1],"loss_changes":[5.197626E2,2.4087381E2,2.5035446E1,0E0,0E0,0E0,0E0],"parents":[2147483647,0,0,1,1,2,2],"right_children":[2,4,6,-1,-1,-1,-1],"split_conditions":[2.75E0,2.4999999E-2,2.95E0,-8.64673E-4,1.9094368E-2,1.1103575E-3,-5.5070845E-3],"split_indices":[2,1,2,0,0,0,0],"split_type":[0,0,0,0,0,0,0],"sum_hessian":[8.9999286E2,2.6069943E2,6.392934E2,9.46316E1,1.6606783E2,6.31187E1,5.7617474E2],"tree_param":{"num_deleted":"0","num_feature":"6","num_nodes":"7","size_leaf_vector":"0"}},{"base_weights":[1.385717E-5,6.332255E-1,-2.5548226E-1,8.538183E-1,4.936576E-1,-4.8655075E-1,1.0847395E-1],"categories":[],"categories_nodes":[],"categories_segments":[],"categories_sizes":[],"default_left":[false,true,true,false,false,false,false],"id":11,"left_children":[1,3,5,-1,-1,-1,-1],"loss_changes":[1.4592476E2,7.562088E0,5.4100273E1,0E0,0E0,0E0,0E0],"parents":[2147483647,0,0,1,1,2,2],"right_children":[2,4,6,-1,-1,-1,-1],"split_conditions":[1.025E1,6.05E0,2.4999999E-2,8.538183E-3,4.936576E-3,-4.8655076E-3,1.0847395E-3],"split_indices":[5,3,1,0,0,0,0],"split_type":[0,0,0,0,0,0,0],"sum_hessian":[8.999777E2,2.5831107E2,6.416666E2,9.811646E1,1.6019461E2,3.9227942E2,2.4938719E2],"tree_param":{"num_deleted":"0","num_feature":"6","num_nodes":"7","size_leaf_vector":"0"}},{"base_weights":[2.9433675E-6,2.776892E-1,-4.299265E-1,6.100742E-2,4.6816435E-1,-5.261935E-1,-2.4351636E-1],"categories":[],"categories_nodes":[],"categories_segments":[],"categories_sizes":[],"default_left":[true,true,true,false,false,false,false],"id":12,"left_children":[1,3,5,-1,-1,-1,-1],"loss_changes":[1.0768498E2,2.2589947E1,6.2238235E0,0E0,0E0,0E0,0E0],"parents":[2147483647,0,0,1,1,2,2],"right_children":[2,4,6,-1,-1,-1,-1],"split_conditions":[3.55E0,2.4999999E-2,2.4999999E-2,6.100742E-4,4.6816436E-3,-5.261935E-3,-2.4351636E-3],"split_indices":[2,1,1,0,0,0,0],"split_type":[0,0,0,0,0,0,0],"sum_hessian":[8.9999384E2,5.470287E2,3.5296515E2,2.5652728E2,2.905014E2,2.315592E2,1.2140593E2],"tree_param":{"num_deleted":"0","num_feature":"6","num_nodes":"7","size_leaf_vector":"0"}},{"base_weights":[8.238108E-6,1.9571222E-1,-2.4104661E-1,-8.804293E-2,2.6934868E-1,2.1160842E-1,-3.923425E-1],"categories":[],"categories_nodes":[],"categories_segments":[],"categories_sizes":[],"default_left":[true,true,true,false,false,false,false],"id":13,"left_children":[1,3,5,-1,-1,-1,-1],"loss_changes":[4.255159E1,1.0425573E1,2.7762173E1,0E0,0E0,0E0,0E0],"parents":[2147483647,0,0,1,1,2,2],"right_children":[2,4,6,-1,-1,-1,-1],"split_conditions":[1.45E0,2.35E0,3.05E0,-8.804293E-4,2.6934869E-3,2.116084E-3,-3.923425E-3],"split_indices":[4,2,2,0,0,0,0],"split_type":[0,0,0,0,0,0,0],"sum_hessian":[8.99987E2,4.968224E2,4.031646E2,1.0232424E2,3.9449814E2,1.00897E2,3.022676E2],"tree_param":{"num_deleted":"0","num_feature":"6","num_nodes":"7","size_leaf_vector":"0"}},{"base_weights":[3.1212464E-6,2.1931459E-1,-1.6531996E-1,2.040256E-1,9.7153056E-1,-3.637978E-1,1.0008131E-1],"categories":[],"categories_nodes":[],"categories_segments":[],"categories_sizes":[],"default_left":[true,true,true,false,false,false,false],"id":14,"left_children":[1,3,5,-1,-1,-1,-1],"loss_changes":[3.2703835E1,4.2605057E0,2.7127838E1,0E0,0E0,0E0,0E0],"parents":[2147483647,0,0,1,1,2,2],"right_children":[2,4,6,-1,-1,-1,-1],"split_conditions":[8.55E0,8.35E0,1.005E1,2.0402558E-3,9.715306E-3,-3.637978E-3,1.0008131E-3],"split_indices":[3,3,3,0,0,0,0],"split_type":[0,0,0,0,0,0,0],"sum_hessian":[8.999943E2,3.8669394E2,5.133004E2,3.8023676E2,6.4571824E0,2.9346478E2,2.1983562E2],"tree_param":{"num_deleted":"0","num_feature":"6","num_nodes":"7","size_leaf_vector":"0"}},{"base_weights":[5.431102E-6,2.438768E-1,-1.5159659E-1,-1.3310541E-1,5.0988257E-1,9.3783244E-2,-3.204195E-1],"categories":[],"categories_nodes":[],"categories_segments":[],"categories_sizes":[],"default_left":[true,true,true,false,false,false,false],"id":15,"left_children":[1,3,5,-1,-1,-1,-1],"loss_changes":[3.334786E1,3.474169E1,2.3071827E1,0E0,0E0,0E0,0E0],"parents":[2147483647,0,0,1,1,2,2],"right_children":[2,4,6,-1,-1,-1,-1],"split_conditions":[9.5E-1,4.5E-1,8.95E0,-1.3310541E-3,5.098826E-3,9.378324E-4,-3.2041948E-3],"split_indices":[4,4,3,0,0,0,0],"split_type":[0,0,0,0,0,0,0],"sum_hessian":[8.999909E2,3.44772E2,5.552189E2,1.4283975E2,2.0193227E2,2.2648016E2,3.287387E2],"tree_param":{"num_deleted":"0","num_feature":"6","num_nodes":"7","size_leaf_vector":"0"}},{"base_weights":[2.179029E-6,-2.8412774E-1,1.7776516E-1,-8.410207E-2,-4.4538966E-1,3.259159E-1,-1.08211316E-1],"categories":[],"categories_nodes":[],"categories_segments":[],"categories_sizes":[],"default_left":[false,true,true,false,false,false,false],"id":16,"left_children":[1,3,5,-1,-1,-1,-1],"loss_changes":[4.5557785E1,1.1160061E1,2.3543186E1,0E0,0E0,0E0,0E0],"parents":[2147483647,0,0,1,1,2,2],"right_children":[2,4,6,-1,-1,-1,-1],"split_conditions":[1.125E1,2.4999999E-2,8.5E0,-8.410207E-4,-4.4538965E-3,3.259159E-3,-1.0821131E-3],"split_indices":[5,1,0,0,0,0,0],"split_type":[0,0,0,0,0,0,0],"sum_hessian":[8.9999536E2,3.4613974E2,5.538556E2,1.5517976E2,1.9095998E2,3.647542E2,1.8910141E2],"tree_param":{"num_deleted":"0","num_feature":"6","num_nodes":"7","size_leaf_vector":"0"}},{"base_weights":[-1.8660465E-6,-4.6666384E-1,2.5102818E-1,-2.5206673E-1,-5.527642E-1,5.4178226E-1,-8.03748E-2],"categories":[],"categories_nodes":[],"categories_segments":[],"categories_sizes":[],"default_left":[false,true,true,false,false,false,false],"id":17,"left_children":[1,3,5,-1,-1,-1,-1],"loss_changes":[1.0566594E2,5.690056E0,5.65572E1,0E0,0E0,0E0,0E0],"parents":[2147483647,0,0,1,1,2,2],"right_children":[2,4,6,-1,-1,-1,-1],"split_conditions":[1.075E1,1.5E-2,9.45E0,-2.5206672E-3,-5.5276416E-3,5.4178224E-3,-8.03748E-4],"split_indices":[5,1,3,0,0,0,0],"split_type":[0,0,0,0,0,0,0],"sum_hessian":[9.000007E2,3.1449643E2,5.855042E2,9.117611E1,2.2332034E2,3.1154108E2,2.7396317E2],"tree_param":{"num_deleted":"0","num_feature":"6","num_nodes":"7","size_leaf_vector":"0"}},{"base_weights":[-5.555565E-6,-5.53907E-1,4.6396968E-1,1.2830213E0,-5.5271184E-1],"categories":[],"categories_nodes":[],"categories_segments":[],"categories_sizes":[],"default_left":[true,false,true,false,false],"id":18,"left_children":[1,-1,3,-1,-1],"loss_changes":[2.3181143E2,0E0,4.0944348E2,0E0,0E0],"parents":[2147483647,0,0,2,2],"right_children":[2,-1,4,-1,-1],"split_conditions":[8.95E0,-5.5390694E-3,1.005E1,1.2830213E-2,-5.527118E-3],"split_indices":[3,0,3,0,0],"split_type":[0,0,0,0,0],"sum_hessian":[9.000021E2,4.1015652E2,4.8984558E2,2.7114542E2,2.1870016E2],"tree_param":{"num_deleted":"0","num_feature":"6","num_nodes":"5","size_leaf_vector":"0"}},{"base_weights":[-2.9412255E-5,1.5728279E0,-5.544037E-1,-5.508156E-1,3.8913689E0],"categories":[],"categories_nodes":[],"categories_segments":[],"categories_sizes":[],"default_left":[true,true,false,false,false],"id":19,"left_children":[1,3,-1,-1,-1],"loss_changes":[7.8651807E2,1.1595901E3,0E0,0E0,0E0],"parents":[2147483647,0,0,1,1],"right_children":[2,4,-1,-1,-1],"split_conditions":[5E-3,1.475E1,-5.544037E-3,-5.5081556E-3,3.891369E-2],"split_indices":[1,5,0,0,0],"split_type":[0,0,0,0,0],"sum_hessian":[9.0002014E2,2.3407399E2,6.6594617E2,1.2256985E2,1.1150414E2],"tree_param":{"num_deleted":"0","num_feature":"6","num_nodes":"5","size_leaf_vector":"0"}},{"base_weights":[-3.471257E-6,-4.6296927E-1,5.429898E-1,-5.32346E-1,-1.5870787E-1,2.0098609E-1,1.2823654E0],"categories":[],"categories_nodes":[],"categories_segments":[],"categories_sizes":[],"default_left":[true,true,true,false,false,false,false],"id":20,"left_children":[1,3,5,-1,-1,-1,-1],"loss_changes":[2.2674638E2,1.019265E1,1.0471138E2,0E0,0E0,0E0,0E0],"parents":[2147483647,0,0,1,1,2,2],"right_children":[2,4,6,-1,-1,-1,-1],"split_conditions":[2.4999999E-2,1.005E1,1.005E1,-5.32346E-3,-1.5870787E-3,2.009861E-3,1.2823654E-2],"split_indices":[1,3,3,0,0,0,0],"split_type":[0,0,0,0,0,0,0],"sum_hessian":[8.999802E2,4.858679E2,4.141123E2,3.9504202E2,9.0825874E1,2.8401218E2,1.3010013E2],"tree_param":{"num_deleted":"0","num_feature":"6","num_nodes":"7","size_leaf_vector":"0"}},{"base_weights":[2.3152777E-5,5.5596614E-1,-3.615618E-1,1.009782E0,4.0868244E-1,-4.3103328E-1,1.3121226E-2],"categories":[],"categories_nodes":[],"categories_segments":[],"categories_sizes":[],"default_left":[true,true,true,false,false,false,false],"id":21,"left_children":[1,3,5,-1,-1,-1,-1],"loss_changes":[1.8131223E2,2.334542E1,1.4231178E1,0E0,0E0,0E0,0E0],"parents":[2147483647,0,0,1,1,2,2],"right_children":[2,4,6,-1,-1,-1,-1],"split_conditions":[3.05E0,4.5E-1,1.055E1,1.0097819E-2,4.086824E-3,-4.3103327E-3,1.3121226E-4],"split_indices":[2,4,3,0,0,0,0],"split_type":[0,0,0,0,0,0,0],"sum_hessian":[8.999584E2,3.544492E2,5.455092E2,8.541363E1,2.6903555E2,4.6005765E2,8.5451546E1],"tree_param":{"num_deleted":"0","num_feature":"6","num_nodes":"7","size_leaf_vector":"0"}},{"base_weights":[6.572619E-6,2.7546525E-1,-4.2917824E-1,6.015271E-2,4.643076E-1,-5.2570045E-1,-2.429271E-1],"categories":[],"categories_nodes":[],"categories_segments":[],"categories_sizes":[],"default_left":[true,true,true,false,false,false,false],"id":22,"left_children":[1,3,5,-1,-1,-1,-1],"loss_changes":[1.06634926E2,2.2309963E1,6.2111664E0,0E0,0E0,0E0,0E0],"parents":[2147483647,0,0,1,1,2,2],"right_children":[2,4,6,-1,-1,-1,-1],"split_conditions":[3.55E0,2.4999999E-2,2.4999999E-2,6.015271E-4,4.643076E-3,-5.2570044E-3,-2.429271E-3],"split_indices":[2,1,1,0,0,0,0],"split_type":[0,0,0,0,0,0,0],"sum_hessian":[8.999836E2,5.4838086E2,3.5160272E2,2.5684836E2,2.915325E2,2.3038579E2,1.2121694E2],"tree_param":{"num_deleted":"0","num_feature":"6","num_nodes":"7","size_leaf_vector":"0"}},{"base_weights":[1.5114405E-5,3.2106626E-1,-1.437395E-1,1.6267754E-1,3.4874094E-1,-3.2141426E-1,1.8026033E-1],"categories":[],"categories_nodes":[],"categories_segments":[],"categories_sizes":[],"default_left":[true,true,true,false,false,false,false],"id":23,"left_children":[1,3,5,-1,-1,-1,-1],"loss_changes":[4.1628445E1,1.1660557E0,3.5922653E1,0E0,0E0,0E0,0E0],"parents":[2147483647,0,0,1,1,2,2],"right_children":[2,4,6,-1,-1,-1,-1],"split_conditions":[6.6499996E0,9.5E-1,1.005E1,1.6267754E-3,3.4874093E-3,-3.2141425E-3,1.8026032E-3],"split_indices":[3,3,3,0,0,0,0],"split_type":[0,0,0,0,0,0,0],"sum_hessian":[8.999743E2,2.7796158E2,6.220127E2,4.2366467E1,2.3559512E2,4.0172375E2,2.2028894E2],"tree_param":{"num_deleted":"0","num_feature":"6","num_nodes":"7","size_leaf_vector":"0"}},{"base_weights":[1.4764434E-5,7.31018E-2,-3.225063E-1,-1.3857259E-1,1.6645043E-1,-5.9576664E-2,-4.7850642E-1],"categories":[],"categories_nodes":[],"categories_segments":[],"categories_sizes":[],"default_left":[true,true,true,false,false,false,false],"id":24,"left_children":[1,3,5,-1,-1,-1,-1],"loss_changes":[2.1261457E1,1.45529995E1,6.8064213E0,0E0,0E0,0E0,0E0],"parents":[2147483647,0,0,1,1,2,2],"right_children":[2,4,6,-1,-1,-1,-1],"split_conditions":[3.95E0,2.65E0,8.5E0,-1.3857258E-3,1.6645042E-3,-5.9576664E-4,-4.785064E-3],"split_indices":[2,2,0,0,0,0,0],"split_type":[0,0,0,0,0,0,0],"sum_hessian":[8.99975E2,7.343386E2,1.6563634E2,2.2458723E2,5.0975137E2,6.219387E1,1.03442474E2],"tree_param":{"num_deleted":"0","num_feature":"6","num_nodes":"7","size_leaf_vector":"0"}},{"base_weights":[1.25168335E-5,2.4208379E-1,-1.5097857E-1,-1.325602E-1,5.050155E-1,-6.3187316E-2,-3.2629192E-1],"categories":[],"categories_nodes":[],"categories_segments":[],"categories_sizes":[],"default_left":[true,true,true,false,false,false,false],"id":25,"left_children":[1,3,5,-1,-1,-1,-1],"loss_changes":[3.2967808E1,3.4197792E1,8.528939E0,0E0,0E0,0E0,0E0],"parents":[2147483647,0,0,1,1,2,2],"right_children":[2,4,6,-1,-1,-1,-1],"split_conditions":[9.5E-1,4.5E-1,8.5E0,-1.325602E-3,5.050155E-3,-6.3187315E-4,-3.2629191E-3],"split_indices":[4,4,0,0,0,0,0],"split_type":[0,0,0,0,0,0,0],"sum_hessian":[8.999772E2,3.4548572E2,5.5449146E2,1.4268034E2,2.0280537E2,3.7037842E2,1.8411305E2],"tree_param":{"num_deleted":"0","num_feature":"6","num_nodes":"7","size_leaf_vector":"0"}},{"base_weights":[5.4755865E-6,1.7166162E-1,-2.04597E-1,5.6323516E-1,-4.726641E-2,-3.5629654E-1,7.3666856E-2],"categories":[],"categories_nodes":[],"categories_segments":[],"categories_sizes":[],"default_left":[true,true,true,false,false,false,false],"id":26,"left_children":[1,3,5,-1,-1,-1,-1],"loss_changes":[3.1678928E1,4.2074047E1,1.7396824E1,0E0,0E0,0E0,0E0],"parents":[2147483647,0,0,1,1,2,2],"right_children":[2,4,6,-1,-1,-1,-1],"split_conditions":[2.4999999E-2,9.5E-1,1.45E0,5.6323516E-3,-4.7266408E-4,-3.5629652E-3,7.3666853E-4],"split_indices":[1,4,4,0,0,0,0],"split_type":[0,0,0,0,0,0,0],"sum_hessian":[8.9998694E2,4.894838E2,4.1050314E2,1.7496664E2,3.1451715E2,2.6548807E2,1.4501506E2],"tree_param":{"num_deleted":"0","num_feature":"6","num_nodes":"7","size_leaf_vector":"0"}},{"base_weights":[-8.122635E-7,-4.6599782E-1,2.4905057E-1,-5.5211294E-1,-3.1922358E-1,-4.7605294E-1,3.8483983E-1],"categories":[],"categories_nodes":[],"categories_segments":[],"categories_sizes":[],"default_left":[false,true,true,false,false,false,false],"id":27,"left_children":[1,3,5,-1,-1,-1,-1],"loss_changes":[1.0468288E2,3.794632E0,5.8061615E1,0E0,0E0,0E0,0E0],"parents":[2147483647,0,0,1,1,2,2],"right_children":[2,4,6,-1,-1,-1,-1],"split_conditions":[1.075E1,6.5E0,5.5E-1,-5.5211294E-3,-3.1922357E-3,-4.7605294E-3,3.8483983E-3],"split_indices":[5,0,4,0,0,0,0],"split_type":[0,0,0,0,0,0,0],"sum_hessian":[8.9999384E2,3.1316452E2,5.8682935E2,1.9562569E2,1.1753882E2,9.216577E1,4.9466357E2],"tree_param":{"num_deleted":"0","num_feature":"6","num_nodes":"7","size_leaf_vector":"0"}},{"base_weights":[-1.413454E-5,-5.533561E-1,3.1864053E-1,2.2039452E0,9.529232E-2],"categories":[],"categories_nodes":[],"categories_segments":[],"categories_sizes":[],"default_left":[true,false,false,false,false],"id":28,"left_children":[1,-1,3,-1,-1],"loss_changes":[1.5904433E2,0E0,2.4080667E2,0E0,0E0],"parents":[2147483647,0,0,2,2],"right_children":[2,-1,4,-1,-1],"split_conditions":[1.025E1,-5.533561E-3,1.075E1,2.203945E-2,9.529232E-4],"split_indices":[5,0,5,0,0],"split_type":[0,0,0,0,0],"sum_hessian":[8.999953E2,3.286171E2,5.7137823E2,5.9581028E1,5.1179718E2],"tree_param":{"num_deleted":"0","num_feature":"6","num_nodes":"5","size_leaf_vector":"0"}},{"base_weights":[-5.916934E-5,-5.5419433E-1,2.315404E0,4.202248E0,-5.471329E-1],"categories":[],"categories_nodes":[],"categories_segments":[],"categories_sizes":[],"default_left":[true,false,true,false,false],"id":29,"left_children":[1,-1,3,-1,-1],"loss_changes":[1.157343E3,0E0,9.4308386E2,0E0,0E0],"parents":[2147483647,0,0,2,2],"right_children":[2,-1,4,-1,-1],"split_conditions":[3.95E0,-5.541943E-3,5E-3,4.202248E-2,-5.4713287E-3],"split_indices":[2,0,1,0,0],"split_type":[0,0,0,0,0],"sum_hessian":[9.00004E2,7.268221E2,1.7318195E2,1.0409777E2,6.908417E1],"tree_param":{"num_deleted":"0","num_feature":"6","num_nodes":"5","size_leaf_vector":"0"}},{"base_weights":[-1.3689325E-6,1.1653683E0,-4.8460177E-1,-8.4725685E-2,1.8570874E0,1.09180994E-1,-5.502788E-1],"categories":[],"categories_nodes":[],"categories_segments":[],"categories_sizes":[],"default_left":[true,true,true,false,false,false,false],"id":30,"left_children":[1,3,5,-1,-1,-1,-1],"loss_changes":[5.0937347E2,2.2922775E2,2.4903854E1,0E0,0E0,0E0,0E0],"parents":[2147483647,0,0,1,1,2,2],"right_children":[2,4,6,-1,-1,-1,-1],"split_conditions":[2.75E0,2.4999999E-2,2.95E0,-8.4725686E-4,1.8570874E-2,1.09181E-3,-5.502788E-3],"split_indices":[2,1,2,0,0,0,0],"split_type":[0,0,0,0,0,0,0],"sum_hessian":[8.9996326E2,2.6390887E2,6.360543E2,9.432309E1,1.695858E2,6.328007E1,5.727743E2],"tree_param":{"num_deleted":"0","num_feature":"6","num_nodes":"7","size_leaf_vector":"0"}},{"base_weights":[2.9042552E-5,6.203888E-1,-2.5392666E-1,6.8650067E-1,3.418884E-1,-4.8561522E-1,1.0858214E-1],"categories":[],"categories_nodes":[],"categories_segments":[],"categories_sizes":[],"default_left":[false,false,true,false,false,false,false],"id":31,"left_children":[1,3,5,-1,-1,-1,-1],"loss_changes":[1.4209521E2,4.588913E0,5.380249E1,0E0,0E0,0E0,0E0],"parents":[2147483647,0,0,1,1,2,2],"right_children":[2,4,6,-1,-1,-1,-1],"split_conditions":[1.025E1,9.25E0,2.4999999E-2,6.8650064E-3,3.418884E-3,-4.856152E-3,1.0858214E-3],"split_indices":[5,5,1,0,0,0,0],"split_type":[0,0,0,0,0,0,0],"sum_hessian":[8.9994055E2,2.609797E2,6.389608E2,2.0972832E2,5.125138E1,3.89611E2,2.4934985E2],"tree_param":{"num_deleted":"0","num_feature":"6","num_nodes":"7","size_leaf_vector":"0"}},{"base_weights":[8.971678E-6,2.732634E-1,-4.2843097E-1,5.9514314E-2,4.6020508E-1,-5.2521557E-1,-2.4229473E-1],"categories":[],"categories_nodes":[],"categories_segments":[],"categories_sizes":[],"default_left":[true,true,true,false,false,false,false],"id":32,"left_children":[1,3,5,-1,-1,-1,-1],"loss_changes":[1.0559669E2,2.1978832E1,6.200493E0,0E0,0E0,0E0,0E0],"parents":[2147483647,0,0,1,1,2,2],"right_children":[2,4,6,-1,-1,-1,-1],"split_conditions":[3.55E0,2.4999999E-2,2.4999999E-2,5.951431E-4,4.602051E-3,-5.2521555E-3,-2.4229472E-3],"split_indices":[2,1,1,0,0,0,0],"split_type":[0,0,0,0,0,0,0],"sum_hessian":[8.9997217E2,5.497254E2,3.5024677E2,2.5708862E2,2.9263675E2,2.2923213E2,1.2101465E2],"tree_param":{"num_deleted":"0","num_feature":"6","num_nodes":"7","size_leaf_vector":"0"}},{"base_weights":[2.3593853E-5,1.9372982E-1,-2.3987895E-1,-8.8156156E-2,2.666803E-1,2.0942196E-1,-3.91195E-1],"categories":[],"categories_nodes":[],"categories_segments":[],"categories_sizes":[],"default_left":[true,true,true,false,false,false,false],"id":33,"left_children":[1,3,5,-1,-1,-1,-1],"loss_changes":[4.191458E1,1.0285343E1,2.7475866E1,0E0,0E0,0E0,0E0],"parents":[2147483647,0,0,1,1,2,2],"right_children":[2,4,6,-1,-1,-1,-1],"split_conditions":[1.45E0,2.35E0,3.05E0,-8.8156154E-4,2.6668028E-3,2.0942197E-3,-3.9119497E-3],"split_indices":[4,2,2,0,0,0,0],"split_type":[0,0,0,0,0,0,0],"sum_hessian":[8.9995874E2,4.9802628E2,4.0193243E2,1.0234588E2,3.956804E2,1.0116386E2,3.007686E2],"tree_param":{"num_deleted":"0","num_feature":"6","num_nodes":"7","size_leaf_vector":"0"}},{"base_weights":[1.76698E-5,2.1697693E-1,-1.6433822E-1,2.6895937E-2,3.5753438E-1,-3.6258075E-1,9.918367E-2],"categories":[],"categories_nodes":[],"categories_segments":[],"categories_sizes":[],"default_left":[true,true,true,false,false,false,false],"id":34,"left_children":[1,3,5,-1,-1,-1,-1],"loss_changes":[3.2162823E1,1.0377249E1,2.6846058E1,0E0,0E0,0E0,0E0],"parents":[2147483647,0,0,1,1,2,2],"right_children":[2,4,6,-1,-1,-1,-1],"split_conditions":[8.55E0,9.75E0,1.005E1,2.6895935E-4,3.5753436E-3,-3.6258074E-3,9.918367E-4],"split_indices":[3,5,3,0,0,0,0],"split_type":[0,0,0,0,0,0,0],"sum_hessian":[8.9996716E2,3.8776923E2,5.121979E2,1.6535075E2,2.2241849E2,2.92089E2,2.201089E2],"tree_param":{"num_deleted":"0","num_feature":"6","num_nodes":"7","size_leaf_vector":"0"}},{"base_weights":[1.8001652E-5,1.9012879E-1,-1.6153643E-1,4.6317834E-1,-7.019847E-2,-3.2917207E-1,-2.272483E-2],"categories":[],"categories_nodes":[],"categories_segments":[],"categories_sizes":[],"default_left":[true,true,true,false,false,false,false],"id":35,"left_children":[1,3,5,-1,-1,-1,-1],"loss_changes":[2.770224E1,2.9486214E1,1.1338938E1,0E0,0E0,0E0,0E0],"parents":[2147483647,0,0,1,1,2,2],"right_children":[2,4,6,-1,-1,-1,-1],"split_conditions":[8.95E0,2.4999999E-2,9.75E0,4.6317833E-3,-7.019847E-4,-3.2917208E-3,-2.272483E-4],"split_indices":[3,1,3,0,0,0,0],"split_type":[0,0,0,0,0,0,0],"sum_hessian":[8.9996423E2,4.1336084E2,4.8660336E2,2.0137029E2,2.1199055E2,2.1979584E2,2.6680753E2],"tree_param":{"num_deleted":"0","num_feature":"6","num_nodes":"7","size_leaf_vector":"0"}},{"base_weights":[1.2449762E-5,-2.8315255E-1,1.7635438E-1,-8.526269E-2,-4.4414425E-1,3.2218927E-1,-1.0695252E-1],"categories":[],"categories_nodes":[],"categories_segments":[],"categories_sizes":[],"default_left":[false,true,true,false,false,false,false],"id":36,"left_children":[1,3,5,-1,-1,-1,-1],"loss_changes":[4.5039032E1,1.0989819E1,2.2999119E1,0E0,0E0,0E0,0E0],"parents":[2147483647,0,0,1,1,2,2],"right_children":[2,4,6,-1,-1,-1,-1],"split_conditions":[1.125E1,2.4999999E-2,8.5E0,-8.526269E-4,-4.4414424E-3,3.2218928E-3,-1.0695251E-3],"split_indices":[5,1,0,0,0,0,0],"split_type":[0,0,0,0,0,0,0],"sum_hessian":[8.9997375E2,3.4514453E2,5.548292E2,1.5551556E2,1.8962897E2,3.6619147E2,1.8863777E2],"tree_param":{"num_deleted":"0","num_feature":"6","num_nodes":"7","size_leaf_vector":"0"}},{"base_weights":[-3.4333393E-6,-4.310323E-1,3.3004746E-1,-1.4600517E-1,-5.528929E-1,-5.4480445E-1,4.2999822E-1],"categories":[],"categories_nodes":[],"categories_segments":[],"categories_sizes":[],"default_left":[true,true,true,false,false,false,false],"id":37,"left_children":[1,3,5,-1,-1,-1,-1],"loss_changes":[1.2831836E2,1.35056E1,4.4902454E1,0E0,0E0,0E0,0E0],"parents":[2147483647,0,0,1,1,2,2],"right_children":[2,4,6,-1,-1,-1,-1],"split_conditions":[3.15E0,1.5E-2,4.5E-1,-1.4600516E-3,-5.528929E-3,-5.4480443E-3,4.299982E-3],"split_indices":[2,1,4,0,0,0,0],"split_type":[0,0,0,0,0,0,0],"sum_hessian":[8.9998956E2,3.9015802E2,5.0983154E2,1.1750848E2,2.7264954E2,5.1818897E1,4.5801263E2],"tree_param":{"num_deleted":"0","num_feature":"6","num_nodes":"7","size_leaf_vector":"0"}},{"base_weights":[-4.9896257E-6,-3.853596E-1,4.6664333E-1,-5.5329293E-1,-3.836703E-2,1.0795665E0,-1.4651695E-1],"categories":[],"categories_nodes":[],"categories_segments":[],"categories_sizes":[],"default_left":[true,true,true,false,false,false,false],"id":38,"left_children":[1,3,5,-1,-1,-1,-1],"loss_changes":[1.621969E2,2.8765884E1,1.5347571E2,0E0,0E0,0E0,0E0],"parents":[2147483647,0,0,1,1,2,2],"right_children":[2,4,6,-1,-1,-1,-1],"split_conditions":[1.45E0,1.275E1,6.5E0,-5.532929E-3,-3.836703E-4,1.0795665E-2,-1.4651695E-3],"split_indices":[4,5,0,0,0,0,0],"split_type":[0,0,0,0,0,0,0],"sum_hessian":[8.9997046E2,4.930159E2,4.0695453E2,3.3182745E2,1.6118846E2,2.0313622E2,2.0381833E2],"tree_param":{"num_deleted":"0","num_feature":"6","num_nodes":"7","size_leaf_vector":"0"}},{"base_weights":[-9.993856E-5,1.5160987E0,-5.5375177E-1,-5.5025405E-1,3.620977E0],"categories":[],"categories_nodes":[],"categories_segments":[],"categories_sizes":[],"default_left":[true,true,false,false,false],"id":39,"left_children":[1,3,-1,-1,-1],"loss_changes":[7.571432E2,1.0513281E3,0E0,0E0,0E0],"parents":[2147483647,0,0,1,1],"right_children":[2,4,-1,-1,-1],"split_conditions":[5E-3,1.475E1,-5.5375174E-3,-5.50254E-3,3.620977E-2],"split_indices":[1,5,0,0,0],"split_type":[0,0,0,0,0],"sum_hessian":[8.999555E2,2.4025868E2,6.5969684E2,1.2161155E2,1.18647125E2],"tree_param":{"num_deleted":"0","num_feature":"6","num_nodes":"5","size_leaf_vector":"0"}},{"base_weights":[-4.971922E-6,-4.617413E-1,5.3271204E-1,-5.315685E-1,-1.5702058E-1,1.9656469E-1,1.2515683E0],"categories":[],"categories_nodes":[],"categories_segments":[],"categories_sizes":[],"default_left":[true,true,true,false,false,false,false],"id":40,"left_children":[1,3,5,-1,-1,-1,-1],"loss_changes":[2.2185178E2,1.019696E1,1.00947754E2,0E0,0E0,0E0,0E0],"parents":[2147483647,0,0,1,1,2,2],"right_children":[2,4,6,-1,-1,-1,-1],"split_conditions":[2.4999999E-2,1.005E1,1.005E1,-5.315685E-3,-1.5702058E-3,1.9656469E-3,1.2515683E-2],"split_indices":[1,3,3,0,0,0,0],"split_type":[0,0,0,0,0,0,0],"sum_hessian":[8.9992896E2,4.8215277E2,4.1777618E2,3.9165903E2,9.0493744E1,2.8553122E2,1.3224496E2],"tree_param":{"num_deleted":"0","num_feature":"6","num_nodes":"7","size_leaf_vector":"0"}},{"base_weights":[3.9330982E-5,6.142299E-1,-2.5316188E-1,8.290872E-1,4.7799423E-1,-3.567025E-1,2.320325E-1],"categories":[],"categories_nodes":[],"categories_segments":[],"categories_sizes":[],"default_left":[false,true,true,false,false,false,false],"id":41,"left_children":[1,3,5,-1,-1,-1,-1],"loss_changes":[1.402599E2,7.3101807E0,3.216607E1,0E0,0E0,0E0,0E0],"parents":[2147483647,0,0,1,1,2,2],"right_children":[2,4,6,-1,-1,-1,-1],"split_conditions":[1.025E1,6.05E0,1.055E1,8.290872E-3,4.7799423E-3,-3.567025E-3,2.3203248E-3],"split_indices":[5,3,3,0,0,0,0],"split_type":[0,0,0,0,0,0,0],"sum_hessian":[8.99913E2,2.6227826E2,6.376347E2,9.979925E1,1.6247903E2,5.257124E2,1.11922356E2],"tree_param":{"num_deleted":"0","num_feature":"6","num_nodes":"7","size_leaf_vector":"0"}},{"base_weights":[1.5161247E-5,2.711607E-1,-4.277071E-1,5.8832917E-2,4.563948E-1,-5.247524E-1,-2.4164397E-1],"categories":[],"categories_nodes":[],"categories_segments":[],"categories_sizes":[],"default_left":[true,true,true,false,false,false,false],"id":42,"left_children":[1,3,5,-1,-1,-1,-1],"loss_changes":[1.0460396E2,2.1684074E1,6.1918716E0,0E0,0E0,0E0,0E0],"parents":[2147483647,0,0,1,1,2,2],"right_children":[2,4,6,-1,-1,-1,-1],"split_conditions":[3.55E0,2.4999999E-2,2.4999999E-2,5.8832916E-4,4.5639477E-3,-5.2475235E-3,-2.4164396E-3],"split_indices":[2,1,1,0,0,0,0],"split_type":[0,0,0,0,0,0,0],"sum_hessian":[8.9995276E2,5.5101465E2,3.4893808E2,2.5734555E2,2.936691E2,2.2813109E2,1.2080701E2],"tree_param":{"num_deleted":"0","num_feature":"6","num_nodes":"7","size_leaf_vector":"0"}},{"base_weights":[3.2254215E-5,1.06777795E-1,-2.8260243E-1,1.4870949E-1,3.840967E-2,-4.4930312E-1,7.012403E-2],"categories":[],"categories_nodes":[],"categories_segments":[],"categories_sizes":[],"default_left":[true,false,true,false,false,false,false],"id":43,"left_children":[1,3,5,-1,-1,-1,-1],"loss_changes":[2.7211552E1,1.8711209E0,1.4570335E1,0E0,0E0,0E0,0E0],"parents":[2147483647,0,0,1,1,2,2],"right_children":[2,4,6,-1,-1,-1,-1],"split_conditions":[1.475E1,1.225E1,2.4999999E-2,1.4870949E-3,3.8409667E-4,-4.493031E-3,7.0124026E-4],"split_indices":[5,5,1,0,0,0,0],"split_type":[0,0,0,0,0,0,0],"sum_hessian":[8.9994073E2,6.5368066E2,2.4626007E2,4.0444836E2,2.4923228E2,1.6704146E2,7.921861E1],"tree_param":{"num_deleted":"0","num_feature":"6","num_nodes":"7","size_leaf_vector":"0"}},{"base_weights":[2.6934124E-5,1.4009604E-1,-1.7276388E-1,2.532223E-1,4.1468173E-2,-2.5100866E-1,1.0273387E-1],"categories":[],"categories_nodes":[],"categories_segments":[],"categories_sizes":[],"default_left":[true,true,true,false,false,false,false],"id":44,"left_children":[1,3,5,-1,-1,-1,-1],"loss_changes":[2.182956E1,5.5474596E0,8.730367E0,0E0,0E0,0E0,0E0],"parents":[2147483647,0,0,1,1,2,2],"right_children":[2,4,6,-1,-1,-1,-1],"split_conditions":[1.45E0,2.4999999E-2,1.75E0,2.5322228E-3,4.1468174E-4,-2.5100866E-3,1.0273387E-3],"split_indices":[4,1,4,0,0,0,0],"split_type":[0,0,0,0,0,0,0],"sum_hessian":[8.999488E2,4.9714127E2,4.0280753E2,2.3082146E2,2.6631982E2,3.1377924E2,8.90283E1],"tree_param":{"num_deleted":"0","num_feature":"6","num_nodes":"7","size_leaf_vector":"0"}},{"base_weights":[2.6687998E-5,2.3947015E-1,-1.500659E-1,-1.3245344E-1,4.9906856E-1,9.245845E-2,-3.1836563E-1],"categories":[],"categories_nodes":[],"categories_segments":[],"categories_sizes":[],"default_left":[true,true,true,false,false,false,false],"id":45,"left_children":[1,3,5,-1,-1,-1,-1],"loss_changes":[3.2414795E1,3.3620415E1,2.2658947E1,0E0,0E0,0E0,0E0],"parents":[2147483647,0,0,1,1,2,2],"right_children":[2,4,6,-1,-1,-1,-1],"split_conditions":[9.5E-1,4.5E-1,8.95E0,-1.3245344E-3,4.9906853E-3,9.2458446E-4,-3.1836564E-3],"split_indices":[4,4,3,0,0,0,0],"split_type":[0,0,0,0,0,0,0],"sum_hessian":[8.9994714E2,3.465302E2,5.5341693E2,1.4264877E2,2.0388145E2,2.2689946E2,3.2651746E2],"tree_param":{"num_deleted":"0","num_feature":"6","num_nodes":"7","size_leaf_vector":"0"}},{"base_weights":[1.7043765E-5,-3.790902E-1,1.2514605E-1,-1.4969128E-1,-5.0343716E-1,3.248381E-1,-8.505076E-2],"categories":[],"categories_nodes":[],"categories_segments":[],"categories_sizes":[],"default_left":[true,true,true,false,false,false,false],"id":46,"left_children":[1,3,5,-1,-1,-1,-1],"loss_changes":[4.2786575E1,6.3093033E0,2.8492046E1,0E0,0E0,0E0,0E0],"parents":[2147483647,0,0,1,1,2,2],"right_children":[2,4,6,-1,-1,-1,-1],"split_conditions":[2.65E0,2.4999999E-2,9.45E0,-1.4969128E-3,-5.0343713E-3,3.248381E-3,-8.505076E-4],"split_indices":[2,1,3,0,0,0,0],"split_type":[0,0,0,0,0,0,0],"sum_hessian":[8.9996027E2,2.2282645E2,6.771338E2,7.91015E1,1.4372495E2,3.469641E2,3.301697E2],"tree_param":{"num_deleted":"0","num_feature":"6","num_nodes":"7","size_leaf_vector":"0"}},{"base_weights":[-4.990142E-6,-4.3025568E-1,3.2711735E-1,-5.520121E-1,-2.6685065E-1,6.994833E-1,-4.6660293E-2],"categories":[],"categories_nodes":[],"categories_segments":[],"categories_sizes":[],"default_left":[true,true,true,false,false,false,false],"id":47,"left_children":[1,3,5,-1,-1,-1,-1],"loss_changes":[1.26948975E2,7.6036377E0,7.134953E1,0E0,0E0,0E0,0E0],"parents":[2147483647,0,0,1,1,2,2],"right_children":[2,4,6,-1,-1,-1,-1],"split_conditions":[3.15E0,2.65E0,9.45E0,-5.5201207E-3,-2.6685065E-3,6.994833E-3,-4.666029E-4],"split_indices":[2,2,3,0,0,0,0],"split_type":[0,0,0,0,0,0,0],"sum_hessian":[8.99981E2,3.88581E2,5.1140002E2,2.2130443E2,1.6727657E2,2.5574728E2,2.5565274E2],"tree_param":{"num_deleted":"0","num_feature":"6","num_nodes":"7","size_leaf_vector":"0"}},{"base_weights":[-4.759773E-6,-5.531283E-1,3.48768E-1,-2.131576E-1,7.933174E-1],"categories":[],"categories_nodes":[],"categories_segments":[],"categories_sizes":[],"default_left":[true,false,true,false,false],"id":48,"left_children":[1,-1,3,-1,-1],"loss_changes":[1.740006E2,0E0,1.3835077E2,0E0,0E0],"parents":[2147483647,0,0,2,2],"right_children":[2,-1,4,-1,-1],"split_conditions":[3.05E0,-5.531283E-3,1.45E0,-2.131576E-3,7.933173E-3],"split_indices":[2,0,4,0,0],"split_type":[0,0,0,0,0],"sum_hessian":[8.999574E2,3.477964E2,5.52161E2,2.441136E2,3.0804742E2],"tree_param":{"num_deleted":"0","num_feature":"6","num_nodes":"5","size_leaf_vector":"0"}},{"base_weights":[-1.4268719E-4,-5.5359226E-1,2.2123406E0,-5.467228E-1,3.6624904E0],"categories":[],"categories_nodes":[],"categories_segments":[],"categories_sizes":[],"default_left":[true,false,true,false,false],"id":49,"left_children":[1,-1,3,-1,-1],"loss_changes":[1.1043458E3,0E0,7.240369E2,0E0,0E0],"parents":[2147483647,0,0,2,2],"right_children":[2,-1,4,-1,-1],"split_conditions":[3.95E0,-5.5359225E-3,8.5E0,-5.467228E-3,3.6624905E-2],"split_indices":[2,0,0,0,0],"split_type":[0,0,0,0,0],"sum_hessian":[8.998762E2,7.2041516E2,1.7946104E2,6.2042194E1,1.1741885E2],"tree_param":{"num_deleted":"0","num_feature":"6","num_nodes":"5","size_leaf_vector":"0"}},{"base_weights":[-6.5807317E-6,1.1434406E0,-4.8388517E-1,-8.3096296E-2,1.8062441E0,1.0670557E-1,-5.498359E-1],"categories":[],"categories_nodes":[],"categories_segments":[],"categories_sizes":[],"default_left":[true,true,true,false,false,false,false],"id":50,"left_children":[1,3,5,-1,-1,-1,-1],"loss_changes":[4.9901398E2,2.1816568E2,2.4742249E1,0E0,0E0,0E0,0E0],"parents":[2147483647,0,0,1,1,2,2],"right_children":[2,4,6,-1,-1,-1,-1],"split_conditions":[2.75E0,2.4999999E-2,2.95E0,-8.3096296E-4,1.806244E-2,1.0670556E-3,-5.498359E-3],"split_indices":[2,1,2,0,0,0,0],"split_type":[0,0,0,0,0,0,0],"sum_hessian":[8.9990375E2,2.6717737E2,6.327264E2,9.403589E1,1.7314146E2,6.34964E1,5.6923E2],"tree_param":{"num_deleted":"0","num_feature":"6","num_nodes":"7","size_leaf_vector":"0"}},{"base_weights":[4.628439E-5,5.419635E-1,-3.594791E-1,9.830512E-1,3.9796674E-1,-2.3818439E-1,-5.517188E-1],"categories":[],"categories_nodes":[],"categories_segments":[],"categories_sizes":[],"default_left":[true,true,true,false,false,false,false],"id":51,"left_children":[1,3,5,-1,-1,-1,-1],"loss_changes":[1.7571716E2,2.245533E1,1.2511047E1,0E0,0E0,0E0,0E0],"parents":[2147483647,0,0,1,1,2,2],"right_children":[2,4,6,-1,-1,-1,-1],"split_conditions":[3.05E0,4.5E-1,3.85E0,9.830511E-3,3.9796676E-3,-2.381844E-3,-5.5171875E-3],"split_indices":[2,4,2,0,0,0,0],"split_type":[0,0,0,0,0,0,0],"sum_hessian":[8.99886E2,3.5870218E2,5.4118384E2,8.684712E1,2.7185504E2,3.331929E2,2.0799094E2],"tree_param":{"num_deleted":"0","num_feature":"6","num_nodes":"7","size_leaf_vector":"0"}},{"base_weights":[1.5880903E-5,2.3999411E-1,-3.217205E-1,4.7698975E-2,3.9792213E-1,-4.5804158E-1,-6.2139783E-2],"categories":[],"categories_nodes":[],"categories_segments":[],"categories_sizes":[],"default_left":[true,true,true,false,false,false,false],"id":52,"left_children":[1,3,5,-1,-1,-1,-1],"loss_changes":[6.9638306E1,1.566976E1,1.3606937E1,0E0,0E0,0E0,0E0],"parents":[2147483647,0,0,1,1,2,2],"right_children":[2,4,6,-1,-1,-1,-1],"split_conditions":[1.275E1,2.4999999E-2,2.4999999E-2,4.7698975E-4,3.979221E-3,-4.580416E-3,-6.213978E-4],"split_indices":[5,1,1,0,0,0,0],"split_type":[0,0,0,0,0,0,0],"sum_hessian":[8.99937E2,5.156074E2,3.843296E2,2.3309277E2,2.8251465E2,2.5149188E2,1.3283769E2],"tree_param":{"num_deleted":"0","num_feature":"6","num_nodes":"7","size_leaf_vector":"0"}},{"base_weights":[3.8676768E-5,3.1701842E-1,-1.4278732E-1,1.15416795E-1,4.5077246E-1,-3.2007268E-1,1.7827028E-1],"categories":[],"categories_nodes":[],"categories_segments":[],"categories_sizes":[],"default_left":[true,true,true,false,false,false,false],"id":53,"left_children":[1,3,5,-1,-1,-1,-1],"loss_changes":[4.083287E1,7.5024567E0,3.5447353E1,0E0,0E0,0E0,0E0],"parents":[2147483647,0,0,1,1,2,2],"right_children":[2,4,6,-1,-1,-1,-1],"split_conditions":[6.6499996E0,2.75E0,1.005E1,1.1541679E-3,4.5077247E-3,-3.2007268E-3,1.7827027E-3],"split_indices":[3,2,3,0,0,0,0],"split_type":[0,0,0,0,0,0,0],"sum_hessian":[8.999266E2,2.7915857E2,6.20768E2,1.1208327E2,1.670753E2,3.9993195E2,2.2083604E2],"tree_param":{"num_deleted":"0","num_feature":"6","num_nodes":"7","size_leaf_vector":"0"}},{"base_weights":[3.615632E-5,2.1505041E-1,-1.6351412E-1,2.6447373E-2,3.541297E-1,-3.614901E-1,9.81949E-2],"categories":[],"categories_nodes":[],"categories_segments":[],"categories_sizes":[],"default_left":[true,true,true,false,false,false,false],"id":54,"left_children":[1,3,5,-1,-1,-1,-1],"loss_changes":[3.171701E1,1.0211699E1,2.6577417E1,0E0,0E0,0E0,0E0],"parents":[2147483647,0,0,1,1,2,2],"right_children":[2,4,6,-1,-1,-1,-1],"split_conditions":[8.55E0,9.75E0,1.005E1,2.6447373E-4,3.541297E-3,-3.6149009E-3,9.819489E-4],"split_indices":[3,5,3,0,0,0,0],"split_type":[0,0,0,0,0,0,0],"sum_hessian":[8.999319E2,3.8865924E2,5.112726E2,1.6546506E2,2.2319418E2,2.9086197E2,2.2041066E2],"tree_param":{"num_deleted":"0","num_feature":"6","num_nodes":"7","size_leaf_vector":"0"}},{"base_weights":[3.383837E-5,1.8763003E-1,-1.6030207E-1,-6.413459E-2,4.3099663E-1,2.5894788E-1,-2.5091583E-1],"categories":[],"categories_nodes":[],"categories_segments":[],"categories_sizes":[],"default_left":[true,true,true,false,false,false,false],"id":55,"left_children":[1,3,5,-1,-1,-1,-1],"loss_changes":[2.7128565E1,2.549383E1,1.8539305E1,0E0,0E0,0E0,0E0],"parents":[2147483647,0,0,1,1,2,2],"right_children":[2,4,6,-1,-1,-1,-1],"split_conditions":[8.95E0,1.075E1,3.5E0,-6.4134586E-4,4.309966E-3,2.5894786E-3,-2.509158E-3],"split_indices":[3,5,0,0,0,0,0],"split_type":[0,0,0,0,0,0,0],"sum_hessian":[8.9992834E2,4.1463132E2,4.8529706E2,2.0416132E2,2.1046999E2,8.591757E1,3.993795E2],"tree_param":{"num_deleted":"0","num_feature":"6","num_nodes":"7","size_leaf_vector":"0"}},{"base_weights":[2.2174381E-5,-2.8184968E-1,1.7447971E-1,-8.545734E-2,-4.4284323E-1,4.2791152E-1,2.9819032E-2],"categories":[],"categories_nodes":[],"categories_segments":[],"categories_sizes":[],"default_left":[false,true,true,false,false,false,false],"id":56,"left_children":[1,3,5,-1,-1,-1,-1],"loss_changes":[4.4352932E1,1.0864634E1,2.0412413E1,0E0,0E0,0E0,0E0],"parents":[2147483647,0,0,1,1,2,2],"right_children":[2,4,6,-1,-1,-1,-1],"split_conditions":[1.125E1,2.4999999E-2,9.5E-1,-8.545734E-4,-4.4284323E-3,4.2791152E-3,2.981903E-4],"split_indices":[5,1,4,0,0,0,0],"split_type":[0,0,0,0,0,0,0],"sum_hessian":[8.9994666E2,3.438198E2,5.5612683E2,1.5557195E2,1.8824785E2,2.013764E2,3.5475043E2],"tree_param":{"num_deleted":"0","num_feature":"6","num_nodes":"7","size_leaf_vector":"0"}},{"base_weights":[5.807577E-7,-4.2961562E-1,3.2474774E-1,-1.4442262E-1,-5.522571E-1,-5.448296E-1,4.235229E-1],"categories":[],"categories_nodes":[],"categories_segments":[],"categories_sizes":[],"default_left":[true,true,true,false,false,false,false],"id":57,"left_children":[1,3,5,-1,-1,-1,-1],"loss_changes":[1.2583841E2,1.3501129E1,4.435153E1,0E0,0E0,0E0,0E0],"parents":[2147483647,0,0,1,1,2,2],"right_children":[2,4,6,-1,-1,-1,-1],"split_conditions":[3.15E0,1.5E-2,4.5E-1,-1.4442261E-3,-5.522571E-3,-5.4482957E-3,4.235229E-3],"split_indices":[2,1,4,0,0,0,0],"split_type":[0,0,0,0,0,0,0],"sum_hessian":[8.999598E2,3.872862E2,5.126736E2,1.17117165E2,2.7016904E2,5.1833775E1,4.6083984E2],"tree_param":{"num_deleted":"0","num_feature":"6","num_nodes":"7","size_leaf_vector":"0"}},{"base_weights":[-3.8072799E-6,-5.534004E-1,4.5735407E-1,1.2483294E0,-5.520572E-1],"categories":[],"categories_nodes":[],"categories_segments":[],"categories_sizes":[],"default_left":[true,false,true,false,false],"id":58,"left_children":[1,-1,3,-1,-1],"loss_changes":[2.2828036E2,0E0,3.949629E2,0E0,0E0],"parents":[2147483647,0,0,2,2],"right_children":[2,-1,4,-1,-1],"split_conditions":[8.95E0,-5.534004E-3,1.005E1,1.2483294E-2,-5.520572E-3],"split_indices":[3,0,3,0,0],"split_type":[0,0,0,0,0],"sum_hessian":[8.999364E2,4.071186E2,4.9281778E2,2.761723E2,2.166455E2],"tree_param":{"num_deleted":"0","num_feature":"6","num_nodes":"5","size_leaf_vector":"0"}},{"base_weights":[-1.8322584E-4,1.4669417E0,-5.5315477E-1,-5.505865E-1,3.4655507E0],"categories":[],"categories_nodes":[],"categories_segments":[],"categories_sizes":[],"default_left":[true,true,false,false,false],"id":59,"left_children":[1,3,-1,-1,-1],"loss_changes":[7.315834E2,9.972496E2,0E0,0E0,0E0],"parents":[2147483647,0,0,1,1],"right_children":[2,4,-1,-1,-1],"split_conditions":[5E-3,8.5E0,-5.5315476E-3,-5.505865E-3,3.4655508E-2],"split_indices":[1,0,0,0,0],"split_type":[0,0,0,0,0],"sum_hessian":[8.997659E2,2.4584518E2,6.539207E2,1.2270407E2,1.23141106E2],"tree_param":{"num_deleted":"0","num_feature":"6","num_nodes":"5","size_leaf_vector":"0"}},{"base_weights":[-1.5913938E-5,1.1265053E0,-4.8331368E-1,7.158191E-1,1.8308275E0,1.0589827E-1,-5.494958E-1],"categories":[],"categories_nodes":[],"categories_segments":[],"categories_sizes":[],"default_left":[true,true,true,false,false,false,false],"id":60,"left_children":[1,3,5,-1,-1,-1,-1],"loss_changes":[4.9101047E2,7.700638E1,2.4668167E1,0E0,0E0,0E0,0E0],"parents":[2147483647,0,0,1,1,2,2],"right_children":[2,4,6,-1,-1,-1,-1],"split_conditions":[2.75E0,1.005E1,2.95E0,7.158191E-3,1.8308274E-2,1.0589827E-3,-5.4949583E-3],"split_indices":[2,3,2,0,0,0,0],"split_type":[0,0,0,0,0,0,0],"sum_hessian":[8.9985474E2,2.6975366E2,6.301011E2,1.7167014E2,9.8083534E1,6.3567406E1,5.665336E2],"tree_param":{"num_deleted":"0","num_feature":"6","num_nodes":"7","size_leaf_vector":"0"}},{"base_weights":[5.3128093E-5,6.0177463E-1,-2.5158784E-1,4.902551E-1,1.1691729E0,-3.5521024E-1,2.3028068E-1],"categories":[],"categories_nodes":[],"categories_segments":[],"categories_sizes":[],"default_left":[false,true,true,false,false,false,false],"id":61,"left_children":[1,3,5,-1,-1,-1,-1],"loss_changes":[1.3655698E2,1.625447E1,3.1834557E1,0E0,0E0,0E0,0E0],"parents":[2147483647,0,0,1,1,2,2],"right_children":[2,4,6,-1,-1,-1,-1],"split_conditions":[1.025E1,1.75E0,1.055E1,4.902551E-3,1.1691729E-2,-3.5521023E-3,2.3028068E-3],"split_indices":[5,4,3,0,0,0,0],"split_type":[0,0,0,0,0,0,0],"sum_hessian":[8.998557E2,2.6494067E2,6.3491504E2,2.2297917E2,4.1961506E1,5.227617E2,1.12153366E2],"tree_param":{"num_deleted":"0","num_feature":"6","num_nodes":"7","size_leaf_vector":"0"}},{"base_weights":[2.220253E-5,2.3811264E-1,-3.2083067E-1,4.7068134E-2,3.9466396E-1,-4.5728636E-1,-6.2242895E-2],"categories":[],"categories_nodes":[],"categories_segments":[],"categories_sizes":[],"default_left":[true,true,true,false,false,false,false],"id":62,"left_children":[1,3,5,-1,-1,-1,-1],"loss_changes":[6.889902E1,1.5465828E1,1.3527767E1,0E0,0E0,0E0,0E0],"parents":[2147483647,0,0,1,1,2,2],"right_children":[2,4,6,-1,-1,-1,-1],"split_conditions":[1.275E1,2.4999999E-2,2.4999999E-2,4.7068132E-4,3.9466396E-3,-4.5728637E-3,-6.2242895E-4],"split_indices":[5,1,1,0,0,0,0],"split_type":[0,0,0,0,0,0,0],"sum_hessian":[8.9991394E2,5.167299E2,3.8318408E2,2.3331224E2,2.8341763E2,2.5032185E2,1.3286221E2],"tree_param":{"num_deleted":"0","num_feature":"6","num_nodes":"7","size_leaf_vector":"0"}},{"base_weights":[4.8687467E-5,1.9085896E-1,-2.3816496E-1,-8.844375E-2,2.6287436E-1,2.068367E-1,-3.8956413E-1],"categories":[],"categories_nodes":[],"categories_segments":[],"categories_sizes":[],"default_left":[true,true,true,false,false,false,false],"id":63,"left_children":[1,3,5,-1,-1,-1,-1],"loss_changes":[4.099481E1,1.0095953E1,2.7105585E1,0E0,0E0,0E0,0E0],"parents":[2147483647,0,0,1,1,2,2],"right_children":[2,4,6,-1,-1,-1,-1],"split_conditions":[1.45E0,2.35E0,3.05E0,-8.8443747E-4,2.6287436E-3,2.0683669E-3,-3.895641E-3],"split_indices":[4,2,2,0,0,0,0],"split_type":[0,0,0,0,0,0,0],"sum_hessian":[8.9990424E2,4.9977823E2,4.0012598E2,1.0240095E2,3.973773E2,1.014809E2,2.9864508E2],"tree_param":{"num_deleted":"0","num_feature":"6","num_nodes":"7","size_leaf_vector":"0"}},{"base_weights":[4.267182E-5,2.1328072E-1,-1.6276476E-1,1.9818585E-1,9.5331514E-1,-3.6049134E-1,9.729127E-2],"categories":[],"categories_nodes":[],"categories_segments":[],"categories_sizes":[],"default_left":[true,true,true,false,false,false,false],"id":64,"left_children":[1,3,5,-1,-1,-1,-1],"loss_changes":[3.1311495E1,4.173012E0,2.6332985E1,0E0,0E0,0E0,0E0],"parents":[2147483647,0,0,1,1,2,2],"right_children":[2,4,6,-1,-1,-1,-1],"split_conditions":[8.55E0,8.35E0,1.005E1,1.9818584E-3,9.533151E-3,-3.6049134E-3,9.7291265E-4],"split_indices":[3,3,3,0,0,0,0],"split_type":[0,0,0,0,0,0,0],"sum_hessian":[8.999135E2,3.8947983E2,5.1043365E2,3.8293668E2,6.543159E0,2.8974652E2,2.2068715E2],"tree_param":{"num_deleted":"0","num_feature":"6","num_nodes":"7","size_leaf_vector":"0"}},{"base_weights":[4.3238604E-5,-2.897444E-1,8.111774E-2,6.0938645E-2,-4.7342423E-1,1.8566418E-1,-2.621174E-1],"categories":[],"categories_nodes":[],"categories_segments":[],"categories_sizes":[],"default_left":[true,true,true,false,false,false,false],"id":65,"left_children":[1,3,5,-1,-1,-1,-1],"loss_changes":[2.1189775E1,1.2729044E1,2.5337585E1,0E0,0E0,0E0,0E0],"parents":[2147483647,0,0,1,1,2,2],"right_children":[2,4,6,-1,-1,-1,-1],"split_conditions":[2.55E0,2.4999999E-2,3.95E0,6.093864E-4,-4.7342423E-3,1.8566417E-3,-2.6211739E-3],"split_indices":[2,1,2,0,0,0,0],"split_type":[0,0,0,0,0,0,0],"sum_hessian":[8.999076E2,1.9616695E2,7.0374066E2,6.765936E1,1.2850758E2,5.397857E2,1.6395496E2],"tree_param":{"num_deleted":"0","num_feature":"6","num_nodes":"7","size_leaf_vector":"0"}},{"base_weights":[2.7548196E-5,-3.7775475E-1,1.23818286E-1,-4.657025E-1,-2.4041642E-1,2.3172724E-1,-2.0939502E-1],"categories":[],"categories_nodes":[],"categories_segments":[],"categories_sizes":[],"default_left":[true,true,true,false,false,false,false],"id":66,"left_children":[1,3,5,-1,-1,-1,-1],"loss_changes":[4.2179558E1,2.5767403E0,2.4474918E1,0E0,0E0,0E0,0E0],"parents":[2147483647,0,0,1,1,2,2],"right_children":[2,4,6,-1,-1,-1,-1],"split_conditions":[2.65E0,2.35E0,3.95E0,-4.657025E-3,-2.404164E-3,2.3172724E-3,-2.09395E-3],"split_indices":[2,2,2,0,0,0,0],"split_type":[0,0,0,0,0,0,0],"sum_hessian":[8.999287E2,2.2160059E2,6.783281E2,1.3363403E2,8.796656E1,5.1262305E2,1.6570506E2],"tree_param":{"num_deleted":"0","num_feature":"6","num_nodes":"7","size_leaf_vector":"0"}},{"base_weights":[-7.399856E-7,-4.2886442E-1,3.2197353E-1,-5.514013E-1,-2.650071E-1,-5.44546E-1,4.196949E-1],"categories":[],"categories_nodes":[],"categories_segments":[],"categories_sizes":[],"default_left":[true,true,true,false,false,false,false],"id":67,"left_children":[1,3,5,-1,-1,-1,-1],"loss_changes":[1.2454317E2,7.6196976E0,4.3852024E1,0E0,0E0,0E0,0E0],"parents":[2147483647,0,0,1,1,2,2],"right_children":[2,4,6,-1,-1,-1,-1],"split_conditions":[3.15E0,2.65E0,4.5E-1,-5.514013E-3,-2.650071E-3,-5.44546E-3,4.196949E-3],"split_indices":[2,2,4,0,0,0,0],"split_type":[0,0,0,0,0,0,0],"sum_hessian":[8.999438E2,3.8577145E2,5.141723E2,2.1936171E2,1.6640974E2,5.1645596E1,4.6252673E2],"tree_param":{"num_deleted":"0","num_feature":"6","num_nodes":"7","size_leaf_vector":"0"}},{"base_weights":[-1.1730584E-5,-5.530792E-1,4.5324844E-1,1.2292622E0,-5.517415E-1],"categories":[],"categories_nodes":[],"categories_segments":[],"categories_sizes":[],"default_left":[true,false,true,false,false],"id":68,"left_children":[1,-1,3,-1,-1],"loss_changes":[2.2609274E2,0E0,3.8725064E2,0E0,0E0],"parents":[2147483647,0,0,2,2],"right_children":[2,-1,4,-1,-1],"split_conditions":[8.95E0,-5.530792E-3,1.005E1,1.2292622E-2,-5.517415E-3],"split_indices":[3,0,3,0,0],"split_type":[0,0,0,0,0],"sum_hessian":[8.999053E2,4.0522726E2,4.9467804E2,2.7901242E2,2.1566562E2],"tree_param":{"num_deleted":"0","num_feature":"6","num_nodes":"5","size_leaf_vector":"0"}},{"base_weights":[-2.0915426E-4,1.4426377E0,-5.5284387E-1,-5.496232E-1,3.305907E0],"categories":[],"categories_nodes":[],"categories_segments":[],"categories_sizes":[],"default_left":[true,true,false,false,false],"id":69,"left_children":[1,3,-1,-1,-1],"loss_changes":[7.1891296E2,9.2871155E2,0E0,0E0,0E0],"parents":[2147483647,0,0,1,1],"right_children":[2,4,-1,-1,-1],"split_conditions":[5E-3,1.475E1,-5.5284384E-3,-5.496232E-3,3.3059068E-2],"split_indices":[1,5,0,0,0],"split_type":[0,0,0,0,0],"sum_hessian":[8.9960815E2,2.486942E2,6.5091394E2,1.2052763E2,1.2816656E2],"tree_param":{"num_deleted":"0","num_feature":"6","num_nodes":"5","size_leaf_vector":"0"}},{"base_weights":[-1.923044E-5,-2.228987E-1,6.632615E-1,2.2850344E-1,-5.1682717E-1,1.2883593E0,4.6526915E-1],"categories":[],"categories_nodes":[],"categories_segments":[],"categories_sizes":[],"default_left":[true,true,true,false,false,false,false],"id":70,"left_children":[1,3,5,-1,-1,-1,-1],"loss_changes":[1.3331451E2,8.9675255E1,2.747197E1,0E0,0E0,0E0,0E0],"parents":[2147483647,0,0,1,1,2,2],"right_children":[2,4,6,-1,-1,-1,-1],"split_conditions":[1.005E1,6.3500004E0,4.5E-1,2.2850344E-3,-5.1682717E-3,1.2883592E-2,4.6526915E-3],"split_indices":[3,3,4,0,0,0,0],"split_type":[0,0,0,0,0,0,0],"sum_hessian":[8.997994E2,6.7398645E2,2.2581293E2,2.6588098E2,4.0810547E2,5.299403E1,1.728189E2],"tree_param":{"num_deleted":"0","num_feature":"6","num_nodes":"7","size_leaf_vector":"0"}},{"base_weights":[6.642402E-5,-2.9144505E-1,3.40033E-1,4.133562E-1,-3.8525146E-1,2.4472617E-1,9.576462E-1],"categories":[],"categories_nodes":[],"categories_segments":[],"categories_sizes":[],"default_left":[true,true,true,false,false,false,false],"id":71,"left_children":[1,3,5,-1,-1,-1,-1],"loss_changes":[8.937345E1,3.2258423E1,2.4270634E1,0E0,0E0,0E0,0E0],"parents":[2147483647,0,0,1,1,2,2],"right_children":[2,4,6,-1,-1,-1,-1],"split_conditions":[2.4999999E-2,4.5E-1,1.75E0,4.133562E-3,-3.8525146E-3,2.4472617E-3,9.576461E-3],"split_indices":[1,4,4,0,0,0,0],"split_type":[0,0,0,0,0,0,0],"sum_hessian":[8.998134E2,4.8450613E2,4.1530725E2,5.6511135E1,4.27995E2,3.6099643E2,5.4310825E1],"tree_param":{"num_deleted":"0","num_feature":"6","num_nodes":"7","size_leaf_vector":"0"}},{"base_weights":[2.6262596E-5,2.659249E-1,-4.258831E-1,5.794647E-2,4.4583067E-1,-5.234049E-1,-2.4138005E-1],"categories":[],"categories_nodes":[],"categories_segments":[],"categories_sizes":[],"default_left":[true,true,true,false,false,false,false],"id":72,"left_children":[1,3,5,-1,-1,-1,-1],"loss_changes":[1.0213803E2,2.0749554E1,6.110859E0,0E0,0E0,0E0,0E0],"parents":[2147483647,0,0,1,1,2,2],"right_children":[2,4,6,-1,-1,-1,-1],"split_conditions":[3.55E0,2.4999999E-2,2.4999999E-2,5.7946466E-4,4.458307E-3,-5.2340487E-3,-2.4138005E-3],"split_indices":[2,1,1,0,0,0,0],"split_type":[0,0,0,0,0,0,0],"sum_hessian":[8.998911E2,5.5424634E2,3.456448E2,2.576799E2,2.9656644E2,2.2492213E2,1.2072268E2],"tree_param":{"num_deleted":"0","num_feature":"6","num_nodes":"7","size_leaf_vector":"0"}},{"base_weights":[5.5152705E-5,1.8930617E-1,-2.3723651E-1,4.0979877E-1,3.064549E-2,-3.5827163E-1,1.8290779E-1],"categories":[],"categories_nodes":[],"categories_segments":[],"categories_sizes":[],"default_left":[true,true,true,false,false,false,false],"id":73,"left_children":[1,3,5,-1,-1,-1,-1],"loss_changes":[4.050153E1,1.7539736E1,2.041422E1,0E0,0E0,0E0,0E0],"parents":[2147483647,0,0,1,1,2,2],"right_children":[2,4,6,-1,-1,-1,-1],"split_conditions":[1.45E0,7.25E0,1.75E0,4.0979874E-3,3.064549E-4,-3.5827162E-3,1.8290778E-3],"split_indices":[4,3,4,0,0,0,0],"split_type":[0,0,0,0,0,0,0],"sum_hessian":[8.99884E2,5.0073056E2,3.9915344E2,2.0887363E2,2.9185693E2,3.0999686E2,8.9156586E1],"tree_param":{"num_deleted":"0","num_feature":"6","num_nodes":"7","size_leaf_vector":"0"}},{"base_weights":[5.311615E-5,2.1121426E-1,-1.6187899E-1,-9.137612E-2,3.8263354E-1,-3.5944247E-1,9.6715234E-2],"categories":[],"categories_nodes":[],"categories_segments":[],"categories_sizes":[],"default_left":[true,true,true,false,false,false,false],"id":74,"left_children":[1,3,5,-1,-1,-1,-1],"loss_changes":[3.0838945E1,2.0339022E1,2.6112793E1,0E0,0E0,0E0,0E0],"parents":[2147483647,0,0,1,1,2,2],"right_children":[2,4,6,-1,-1,-1,-1],"split_conditions":[8.55E0,2.75E0,1.005E1,-9.1376115E-4,3.8263353E-3,-3.5944246E-3,9.671523E-4],"split_indices":[3,2,3,0,0,0,0],"split_type":[0,0,0,0,0,0,0],"sum_hessian":[8.99888E2,3.9044254E2,5.0944543E2,1.4136722E2,2.4907532E2,2.8858176E2,2.2086368E2],"tree_param":{"num_deleted":"0","num_feature":"6","num_nodes":"7","size_leaf_vector":"0"}},{"base_weights":[4.6740955E-5,2.3646268E-1,-1.4900178E-1,-1.3241407E-1,4.9239174E-1,-5.913451E-2,-4.045578E-1],"categories":[],"categories_nodes":[],"categories_segments":[],"categories_sizes":[],"default_left":[true,true,true,false,false,false,false],"id":75,"left_children":[1,3,5,-1,-1,-1,-1],"loss_changes":[3.178044E1,3.2988216E1,1.2679936E1,0E0,0E0,0E0,0E0],"parents":[2147483647,0,0,1,1,2,2],"right_children":[2,4,6,-1,-1,-1,-1],"split_conditions":[9.5E-1,4.5E-1,3.95E0,-1.3241407E-3,4.9239174E-3,-5.913451E-4,-4.0455777E-3],"split_indices":[4,4,2,0,0,0,0],"split_type":[0,0,0,0,0,0,0],"sum_hessian":[8.9989404E2,3.4773755E2,5.521565E2,1.4263577E2,2.0510178E2,4.0941537E2,1.4274112E2],"tree_param":{"num_deleted":"0","num_feature":"6","num_nodes":"7","size_leaf_vector":"0"}},{"base_weights":[3.0000821E-5,-2.805981E-1,1.726962E-1,-5.162627E-1,-1.2915966E-1,3.6580607E-1,-4.3627057E-2],"categories":[],"categories_nodes":[],"categories_segments":[],"categories_sizes":[],"default_left":[false,true,true,false,false,false,false],"id":76,"left_children":[1,3,5,-1,-1,-1,-1],"loss_changes":[4.3702293E1,1.2194248E1,2.3341093E1,0E0,0E0,0E0,0E0],"parents":[2147483647,0,0,1,1,2,2],"right_children":[2,4,6,-1,-1,-1,-1],"split_conditions":[1.125E1,7.05E0,9.45E0,-5.162627E-3,-1.2915966E-3,3.6580607E-3,-4.3627055E-4],"split_indices":[5,3,3,0,0,0,0],"split_type":[0,0,0,0,0,0,0],"sum_hessian":[8.9991504E2,3.4255225E2,5.573628E2,1.330673E2,2.0948494E2,2.9411658E2,2.6324625E2],"tree_param":{"num_deleted":"0","num_feature":"6","num_nodes":"7","size_leaf_vector":"0"}},{"base_weights":[-3.34547E-6,2.506107E-1,-3.0237466E-1,6.114516E-1,-1.2784427E-1,-5.5161035E-1,-1.3178833E-1],"categories":[],"categories_nodes":[],"categories_segments":[],"categories_sizes":[],"default_left":[true,true,true,false,false,false,false],"id":77,"left_children":[1,3,5,-1,-1,-1,-1],"loss_changes":[6.8346596E1,6.742665E1,1.7305992E1,0E0,0E0,0E0,0E0],"parents":[2147483647,0,0,1,1,2,2],"right_children":[2,4,6,-1,-1,-1,-1],"split_conditions":[2.4999999E-2,9.35E0,7.25E0,6.114516E-3,-1.2784427E-3,-5.5161035E-3,-1.3178833E-3],"split_indices":[1,3,3,0,0,0,0],"split_type":[0,0,0,0,0,0,0],"sum_hessian":[8.9992584E2,4.921713E2,4.0775458E2,2.516336E2,2.4053769E2,1.6477539E2,2.4297919E2],"tree_param":{"num_deleted":"0","num_feature":"6","num_nodes":"7","size_leaf_vector":"0"}},{"base_weights":[-1.6833512E-5,-5.5278605E-1,4.495414E-1,1.2111069E0,-5.5139655E-1],"categories":[],"categories_nodes":[],"categories_segments":[],"categories_sizes":[],"default_left":[true,false,true,false,false],"id":78,"left_children":[1,-1,3,-1,-1],"loss_changes":[2.2411377E2,0E0,3.7979715E2,0E0,0E0],"parents":[2147483647,0,0,2,2],"right_children":[2,-1,4,-1,-1],"split_conditions":[8.95E0,-5.5278605E-3,1.005E1,1.2111069E-2,-5.513965E-3],"split_indices":[3,0,3,0,0],"split_type":[0,0,0,0,0],"sum_hessian":[8.9985925E2,4.034968E2,4.9636246E2,2.8176843E2,2.1459401E2],"tree_param":{"num_deleted":"0","num_feature":"6","num_nodes":"5","size_leaf_vector":"0"}},{"base_weights":[-2.3839915E-4,-5.5275714E-1,2.0824935E0,3.5698736E0,-5.461486E-1],"categories":[],"categories_nodes":[],"categories_segments":[],"categories_sizes":[],"default_left":[true,false,true,false,false],"id":79,"left_children":[1,-1,3,-1,-1],"loss_changes":[1.0372991E3,0E0,7.4087756E2,0E0,0E0],"parents":[2147483647,0,0,2,2],"right_children":[2,-1,4,-1,-1],"split_conditions":[3.95E0,-5.5275713E-3,5E-3,3.5698734E-2,-5.461486E-3],"split_indices":[2,0,1,0,0],"split_type":[0,0,0,0,0],"sum_hessian":[8.994121E2,7.1141785E2,1.8799428E2,1.19831345E2,6.816293E1],"tree_param":{"num_deleted":"0","num_feature":"6","num_nodes":"5","size_leaf_vector":"0"}},{"base_weights":[-1.5287445E-5,-4.5998812E-1,5.1839143E-1,-5.3022665E-1,-1.5990624E-1,1.9269677E-1,1.1984072E0],"categories":[],"categories_nodes":[],"categories_segments":[],"categories_sizes":[],"default_left":[true,true,true,false,false,false,false],"id":80,"left_children":[1,3,5,-1,-1,-1,-1],"loss_changes":[2.1502818E2,9.986176E0,9.366506E1,0E0,0E0,0E0,0E0],"parents":[2147483647,0,0,1,1,2,2],"right_children":[2,4,6,-1,-1,-1,-1],"split_conditions":[2.4999999E-2,1.005E1,1.005E1,-5.302266E-3,-1.5990624E-3,1.9269676E-3,1.1984072E-2],"split_indices":[1,3,3,0,0,0,0],"split_type":[0,0,0,0,0,0,0],"sum_hessian":[8.9976337E2,4.7681067E2,4.2295273E2,3.8575272E2,9.1057945E1,2.8684918E2,1.3610353E2],"tree_param":{"num_deleted":"0","num_feature":"6","num_nodes":"7","size_leaf_vector":"0"}},{"base_weights":[7.519515E-5,5.9204656E-1,-1.15419835E-1,4.8971552E-1,1.1000549E0,-2.2935085E-1,7.127973E-1],"categories":[],"categories_nodes":[],"categories_segments":[],"categories_sizes":[],"default_left":[true,true,true,false,false,false,false],"id":81,"left_children":[1,3,5,-1,-1,-1,-1],"loss_changes":[6.165476E1,7.114403E0,7.136413E1,0E0,0E0,0E0,0E0],"parents":[2147483647,0,0,1,1,2,2],"right_children":[2,4,6,-1,-1,-1,-1],"split_conditions":[4.5E-1,1.265E1,1.75E0,4.897155E-3,1.10005485E-2,-2.2935085E-3,7.127973E-3],"split_indices":[4,3,4,0,0,0,0],"split_type":[0,0,0,0,0,0,0],"sum_hessian":[8.997847E2,1.4621771E2,7.53567E2,1.233372E2,2.2880522E1,6.630762E2,9.049085E1],"tree_param":{"num_deleted":"0","num_feature":"6","num_nodes":"7","size_leaf_vector":"0"}},{"base_weights":[2.3823484E-5,2.342892E-1,-3.1901184E-1,4.6279386E-2,3.874485E-1,-4.5578116E-1,-6.2205527E-2],"categories":[],"categories_nodes":[],"categories_segments":[],"categories_sizes":[],"default_left":[true,true,true,false,false,false,false],"id":82,"left_children":[1,3,5,-1,-1,-1,-1],"loss_changes":[6.74049E1,1.4956341E1,1.33833885E1,0E0,0E0,0E0,0E0],"parents":[2147483647,0,0,1,1,2,2],"right_children":[2,4,6,-1,-1,-1,-1],"split_conditions":[1.275E1,2.4999999E-2,2.4999999E-2,4.6279383E-4,3.874485E-3,-4.5578117E-3,-6.2205526E-4],"split_indices":[5,1,1,0,0,0,0],"split_type":[0,0,0,0,0,0,0],"sum_hessian":[8.9987036E2,5.190221E2,3.808482E2,2.3358652E2,2.854356E2,2.4799619E2,1.3285204E2],"tree_param":{"num_deleted":"0","num_feature":"6","num_nodes":"7","size_leaf_vector":"0"}},{"base_weights":[6.437513E-5,3.1100672E-1,-1.413622E-1,1.6828567E-1,4.0625408E-1,-3.1822535E-1,1.7611706E-1],"categories":[],"categories_nodes":[],"categories_segments":[],"categories_sizes":[],"default_left":[true,true,true,false,false,false,false],"id":83,"left_children":[1,3,5,-1,-1,-1,-1],"loss_changes":[3.9659718E1,3.7644463E0,3.4864017E1,0E0,0E0,0E0,0E0],"parents":[2147483647,0,0,1,1,2,2],"right_children":[2,4,6,-1,-1,-1,-1],"split_conditions":[6.6499996E0,9.25E0,1.005E1,1.6828566E-3,4.062541E-3,-3.1822536E-3,1.7611706E-3],"split_indices":[3,5,3,0,0,0,0],"split_type":[0,0,0,0,0,0,0],"sum_hessian":[8.998593E2,2.8095306E2,6.189062E2,1.1355946E2,1.6739362E2,3.974758E2,2.2143042E2],"tree_param":{"num_deleted":"0","num_feature":"6","num_nodes":"7","size_leaf_vector":"0"}},{"base_weights":[5.8637244E-5,2.093797E-1,-1.6109133E-1,2.432232E-2,3.4503153E-1,-3.584463E-1,9.598942E-2],"categories":[],"categories_nodes":[],"categories_segments":[],"categories_sizes":[],"default_left":[true,true,true,false,false,false,false],"id":84,"left_children":[1,3,5,-1,-1,-1,-1],"loss_changes":[3.0421852E1,9.839663E0,2.588789E1,0E0,0E0,0E0,0E0],"parents":[2147483647,0,0,1,1,2,2],"right_children":[2,4,6,-1,-1,-1,-1],"split_conditions":[8.55E0,9.75E0,1.005E1,2.432232E-4,3.4503152E-3,-3.584463E-3,9.598942E-4],"split_indices":[3,5,3,0,0,0,0],"split_type":[0,0,0,0,0,0,0],"sum_hessian":[8.998671E2,3.9130002E2,5.085671E2,1.6600876E2,2.2529128E2,2.874806E2,2.2108652E2],"tree_param":{"num_deleted":"0","num_feature":"6","num_nodes":"7","size_leaf_vector":"0"}},{"base_weights":[5.2866577E-5,-2.8906807E-1,8.073418E-2,-3.3963427E-1,-2.2598706E-1,1.832543E-1,-2.5941223E-1],"categories":[],"categories_nodes":[],"categories_segments":[],"categories_sizes":[],"default_left":[true,true,true,false,false,false,false],"id":85,"left_children":[1,3,5,-1,-1,-1,-1],"loss_changes":[2.103768E1,5.5088234E-1,2.4635921E1,0E0,0E0,0E0,0E0],"parents":[2147483647,0,0,1,1,2,2],"right_children":[2,4,6,-1,-1,-1,-1],"split_conditions":[2.55E0,2.25E0,3.95E0,-3.3963425E-3,-2.2598705E-3,1.8325429E-3,-2.5941222E-3],"split_indices":[2,2,2,0,0,0,0],"split_type":[0,0,0,0,0,0,0],"sum_hessian":[8.9987244E2,1.9576546E2,7.04107E2,1.062281E2,8.9537346E1,5.413925E2,1.6271443E2],"tree_param":{"num_deleted":"0","num_feature":"6","num_nodes":"7","size_leaf_vector":"0"}},{"base_weights":[3.8367005E-5,-3.76471E-1,1.22562245E-1,-1.4728296E-1,-5.0179976E-1,3.955872E-1,-6.8203732E-3],"categories":[],"categories_nodes":[],"categories_segments":[],"categories_sizes":[],"default_left":[true,true,true,false,false,false,false],"id":86,"left_children":[1,3,5,-1,-1,-1,-1],"loss_changes":[4.1605553E1,6.2865543E0,2.4039642E1,0E0,0E0,0E0,0E0],"parents":[2147483647,0,0,1,1,2,2],"right_children":[2,4,6,-1,-1,-1,-1],"split_conditions":[2.65E0,2.4999999E-2,8.5E-1,-1.4728295E-3,-5.0179977E-3,3.955872E-3,-6.820373E-5],"split_indices":[2,1,4,0,0,0,0],"split_type":[0,0,0,0,0,0,0],"sum_hessian":[8.998923E2,2.2043489E2,6.7945734E2,7.869709E1,1.417378E2,2.177985E2,4.6165887E2],"tree_param":{"num_deleted":"0","num_feature":"6","num_nodes":"7","size_leaf_vector":"0"}},{"base_weights":[7.346265E-6,-4.6316308E-1,2.4083462E-1,-2.4845763E-1,-5.508512E-1,4.799928E-1,-1.205655E-1],"categories":[],"categories_nodes":[],"categories_segments":[],"categories_sizes":[],"default_left":[false,true,true,false,false,false,false],"id":87,"left_children":[1,3,5,-1,-1,-1,-1],"loss_changes":[1.0060159E2,5.671814E0,5.1344193E1,0E0,0E0,0E0,0E0],"parents":[2147483647,0,0,1,1,2,2],"right_children":[2,4,6,-1,-1,-1,-1],"split_conditions":[1.075E1,1.5E-2,2.4999999E-2,-2.4845763E-3,-5.5085123E-3,4.799928E-3,-1.2056549E-3],"split_indices":[5,1,1,0,0,0,0],"split_type":[0,0,0,0,0,0,0],"sum_hessian":[8.9989996E2,3.0752676E2,5.923732E2,9.028829E1,2.1723846E2,3.5627707E2,2.3609613E2],"tree_param":{"num_deleted":"0","num_feature":"6","num_nodes":"7","size_leaf_vector":"0"}},{"base_weights":[-2.555853E-5,-3.8225108E-1,4.4970694E-1,4.6012023E-1,-5.527804E-1,-1.3998787E-1,9.999975E-1],"categories":[],"categories_nodes":[],"categories_segments":[],"categories_sizes":[],"default_left":[true,true,true,false,false,false,false],"id":88,"left_children":[1,3,5,-1,-1,-1,-1],"loss_changes":[1.550197E2,7.0281815E1,1.3458684E2,0E0,0E0,0E0,0E0],"parents":[2147483647,0,0,1,1,2,2],"right_children":[2,4,6,-1,-1,-1,-1],"split_conditions":[1.45E0,5E-3,1.5E-2,4.601202E-3,-5.5278037E-3,-1.3998786E-3,9.999975E-3],"split_indices":[4,1,1,0,0,0,0],"split_type":[0,0,0,0,0,0,0],"sum_hessian":[8.998056E2,4.8649005E2,4.1331552E2,8.16183E1,4.0487173E2,1.9987444E2,2.134411E2],"tree_param":{"num_deleted":"0","num_feature":"6","num_nodes":"7","size_leaf_vector":"0"}},{"base_weights":[-2.8001043E-4,1.3966856E0,-5.5222964E-1,-5.501891E-1,3.1785069E0],"categories":[],"categories_nodes":[],"categories_segments":[],"categories_sizes":[],"default_left":[true,true,false,false,false],"id":89,"left_children":[1,3,-1,-1,-1],"loss_changes":[6.9485657E2,8.8710645E2,0E0,0E0,0E0],"parents":[2147483647,0,0,1,1],"right_children":[2,4,-1,-1,-1],"split_conditions":[5E-3,8.5E0,-5.5222963E-3,-5.5018906E-3,3.1785067E-2],"split_indices":[1,0,0,0,0],"split_type":[0,0,0,0,0],"sum_hessian":[8.991766E2,2.5422113E2,6.4495544E2,1.2181423E2,1.3240689E2],"tree_param":{"num_deleted":"0","num_feature":"6","num_nodes":"5","size_leaf_vector":"0"}},{"base_weights":[-2.2278815E-5,9.4696045E-1,-3.4864822E-1,5.4778093E-1,1.5892575E0,6.97906E-2,-4.8480126E-1],"categories":[],"categories_nodes":[],"categories_segments":[],"categories_sizes":[],"default_left":[false,true,true,false,false,false,false],"id":90,"left_children":[1,3,5,-1,-1,-1,-1],"loss_changes":[2.9769763E2,6.1339935E1,3.7583076E1,0E0,0E0,0E0,0E0],"parents":[2147483647,0,0,1,1,2,2],"right_children":[2,4,6,-1,-1,-1,-1],"split_conditions":[9.75E0,1.005E1,1.075E1,5.4778093E-3,1.5892575E-2,6.97906E-4,-4.8480127E-3],"split_indices":[5,3,5,0,0,0,0],"split_type":[0,0,0,0,0,0,0],"sum_hessian":[8.9972394E2,2.4163838E2,6.580856E2,1.5016536E2,9.1473015E1,1.6168054E2,4.9640503E2],"tree_param":{"num_deleted":"0","num_feature":"6","num_nodes":"7","size_leaf_vector":"0"}},{"base_weights":[9.086693E-5,5.9156823E-1,-2.5024506E-1,4.833587E-1,1.1349009E0,-4.8340783E-1,1.08783826E-1],"categories":[],"categories_nodes":[],"categories_segments":[],"categories_sizes":[],"default_left":[false,true,true,false,false,false,false],"id":91,"left_children":[1,3,5,-1,-1,-1,-1],"loss_changes":[1.3351984E2,1.5217491E1,5.3091618E1,0E0,0E0,0E0,0E0],"parents":[2147483647,0,0,1,1,2,2],"right_children":[2,4,6,-1,-1,-1,-1],"split_conditions":[1.025E1,1.75E0,2.4999999E-2,4.833587E-3,1.1349009E-2,-4.8340783E-3,1.0878382E-3],"split_indices":[5,4,1,0,0,0,0],"split_type":[0,0,0,0,0,0,0],"sum_hessian":[8.997467E2,2.6715863E2,6.325881E2,2.2436414E2,4.279449E1,3.8331003E2,2.4927802E2],"tree_param":{"num_deleted":"0","num_feature":"6","num_nodes":"7","size_leaf_vector":"0"}},{"base_weights":[2.4805398E-5,2.6210818E-1,-4.2453316E-1,3.8993934E-1,1.39547875E-2,2.6748257E-3,-4.620173E-1],"categories":[],"categories_nodes":[],"categories_segments":[],"categories_sizes":[],"default_left":[true,true,true,false,false,false,false],"id":92,"left_children":[1,3,5,-1,-1,-1,-1],"loss_changes":[1.00348175E2,1.7683304E1,5.5134964E0,0E0,0E0,0E0,0E0],"parents":[2147483647,0,0,1,1,2,2],"right_children":[2,4,6,-1,-1,-1,-1],"split_conditions":[3.55E0,1.45E0,4.5E-1,3.8993934E-3,1.3954788E-4,2.6748257E-5,-4.620173E-3],"split_indices":[2,4,4,0,0,0,0],"split_type":[0,0,0,0,0,0,0],"sum_hessian":[8.9984735E2,5.566222E2,3.4322516E2,3.6699884E2,1.8962337E2,2.776099E1,3.1546417E2],"tree_param":{"num_deleted":"0","num_feature":"6","num_nodes":"7","size_leaf_vector":"0"}},{"base_weights":[7.410589E-5,3.083968E-1,-1.4073622E-1,1.6660136E-1,4.0292966E-1,-3.1741792E-1,1.7521955E-1],"categories":[],"categories_nodes":[],"categories_segments":[],"categories_sizes":[],"default_left":[true,true,true,false,false,false,false],"id":93,"left_children":[1,3,5,-1,-1,-1,-1],"loss_changes":[3.9153137E1,3.7227993E0,3.4615734E1,0E0,0E0,0E0,0E0],"parents":[2147483647,0,0,1,1,2,2],"right_children":[2,4,6,-1,-1,-1,-1],"split_conditions":[6.6499996E0,9.25E0,1.005E1,1.6660136E-3,4.0292963E-3,-3.1741792E-3,1.7521954E-3],"split_indices":[3,5,3,0,0,0,0],"split_type":[0,0,0,0,0,0,0],"sum_hessian":[8.9983417E2,2.8173917E2,6.1809503E2,1.13802475E2,1.6793668E2,3.964157E2,2.2167934E2],"tree_param":{"num_deleted":"0","num_feature":"6","num_nodes":"7","size_leaf_vector":"0"}},{"base_weights":[6.7661094E-5,6.977751E-2,-3.1589937E-1,-1.6025832E-1,1.5343606E-1,-5.8409363E-2,-4.736267E-1],"categories":[],"categories_nodes":[],"categories_segments":[],"categories_sizes":[],"default_left":[true,true,true,false,false,false,false],"id":94,"left_children":[1,3,5,-1,-1,-1,-1],"loss_changes":[1.9863998E1,1.4243105E1,6.592497E0,0E0,0E0,0E0,0E0],"parents":[2147483647,0,0,1,1,2,2],"right_children":[2,4,6,-1,-1,-1,-1],"split_conditions":[3.95E0,2.55E0,8.5E0,-1.6025832E-3,1.5343606E-3,-5.840936E-4,-4.736267E-3],"split_indices":[2,2,0,0,0,0,0],"split_type":[0,0,0,0,0,0,0],"sum_hessian":[8.9984186E2,7.378367E2,1.6200517E2,1.9652805E2,5.4130865E2,6.206094E1,9.994423E1],"tree_param":{"num_deleted":"0","num_feature":"6","num_nodes":"7","size_leaf_vector":"0"}},{"base_weights":[5.49334E-5,-2.8844884E-1,8.037521E-2,6.0858943E-2,-4.725278E-1,1.8192345E-1,-2.5822076E-1],"categories":[],"categories_nodes":[],"categories_segments":[],"categories_sizes":[],"default_left":[true,true,true,false,false,false,false],"id":95,"left_children":[1,3,5,-1,-1,-1,-1],"loss_changes":[2.0898552E1,1.265744E1,2.4303333E1,0E0,0E0,0E0,0E0],"parents":[2147483647,0,0,1,1,2,2],"right_children":[2,4,6,-1,-1,-1,-1],"split_conditions":[2.55E0,2.4999999E-2,3.95E0,6.085894E-4,-4.725278E-3,1.8192345E-3,-2.5822076E-3],"split_indices":[2,1,2,0,0,0,0],"split_type":[0,0,0,0,0,0,0],"sum_hessian":[8.998603E2,1.9540186E2,7.0445844E2,6.766683E1,1.27735016E2,5.4228467E2,1.6217375E2],"tree_param":{"num_deleted":"0","num_feature":"6","num_nodes":"7","size_leaf_vector":"0"}},{"base_weights":[4.7260248E-5,-2.795863E-1,1.7129105E-1,-5.1572245E-1,-1.2838589E-1,3.612894E-1,-4.2820673E-2],"categories":[],"categories_nodes":[],"categories_segments":[],"categories_sizes":[],"default_left":[false,true,true,false,false,false,false],"id":96,"left_children":[1,3,5,-1,-1,-1,-1],"loss_changes":[4.3186474E1,1.2163485E1,2.2769835E1,0E0,0E0,0E0,0E0],"parents":[2147483647,0,0,1,1,2,2],"right_children":[2,4,6,-1,-1,-1,-1],"split_conditions":[1.125E1,7.05E0,9.45E0,-5.1572244E-3,-1.2838588E-3,3.612894E-3,-4.2820672E-4],"split_indices":[5,3,3,0,0,0,0],"split_type":[0,0,0,0,0,0,0],"sum_hessian":[8.998693E2,3.4153125E2,5.583381E2,1.3237877E2,2.0915247E2,2.9546292E2,2.6287515E2],"tree_param":{"num_deleted":"0","num_feature":"6","num_nodes":"7","size_leaf_vector":"0"}},{"base_weights":[1.3569885E-5,2.4692816E-1,-3.0070692E-1,-1.1309269E-1,5.652586E-1,-3.9032757E-1,-6.2304653E-2],"categories":[],"categories_nodes":[],"categories_segments":[],"categories_sizes":[],"default_left":[true,true,true,false,false,false,false],"id":97,"left_children":[1,3,5,-1,-1,-1,-1],"loss_changes":[6.696606E1,5.6821335E1,8.663662E0,0E0,0E0,0E0,0E0],"parents":[2147483647,0,0,1,1,2,2],"right_children":[2,4,6,-1,-1,-1,-1],"split_conditions":[2.4999999E-2,5E-3,1.55E0,-1.1309269E-3,5.652586E-3,-3.9032756E-3,-6.2304654E-4],"split_indices":[1,1,4,0,0,0,0],"split_type":[0,0,0,0,0,0,0],"sum_hessian":[8.998721E2,4.9424112E2,4.0563095E2,2.3223547E2,2.6200565E2,2.943435E2,1.1128745E2],"tree_param":{"num_deleted":"0","num_feature":"6","num_nodes":"7","size_leaf_vector":"0"}},{"base_weights":[-1.9338711E-5,-5.5246097E-1,4.454277E-1,1.1904575E0,-5.5097604E-1],"categories":[],"categories_nodes":[],"categories_segments":[],"categories_sizes":[],"default_left":[true,false,true,false,false],"id":98,"left_children":[1,-1,3,-1,-1],"loss_changes":[2.2191116E2,0E0,3.712598E2,0E0,0E0],"parents":[2147483647,0,0,2,2],"right_children":[2,-1,4,-1,-1],"split_conditions":[8.95E0,-5.5246097E-3,1.005E1,1.1904574E-2,-5.50976E-3],"split_indices":[3,0,3,0,0],"split_type":[0,0,0,0,0],"sum_hessian":[8.9977185E2,4.0154147E2,4.982304E2,2.8496326E2,2.1326714E2],"tree_param":{"num_deleted":"0","num_feature":"6","num_nodes":"5","size_leaf_vector":"0"}},{"base_weights":[-3.319064E-4,1.3742032E0,-5.519194E-1,-5.4900634E-1,3.035384E0],"categories":[],"categories_nodes":[],"categories_segments":[],"categories_sizes":[],"default_left":[true,true,false,false,false],"id":99,"left_children":[1,3,-1,-1,-1],"loss_changes":[6.830744E2,8.259408E2,0E0,0E0,0E0],"parents":[2147483647,0,0,1,1],"right_children":[2,4,-1,-1,-1],"split_conditions":[5E-3,1.475E1,-5.519194E-3,-5.490063E-3,3.0353839E-2],"split_indices":[1,5,0,0,0],"split_type":[0,0,0,0,0],"sum_hessian":[8.989435E2,2.5700513E2,6.4193835E2,1.19418945E2,1.3758617E2],"tree_param":{"num_deleted":"0","num_feature":"6","num_nodes":"5","size_leaf_vector":"0"}},{"base_weights":[-2.4430577E-5,1.0902336E0,-4.8206118E-1,-9.04116E-2,1.7122252E0,1.01929784E-1,-5.4874045E-1],"categories":[],"categories_nodes":[],"categories_segments":[],"categories_sizes":[],"default_left":[true,true,true,false,false,false,false],"id":100,"left_children":[1,3,5,-1,-1,-1,-1],"loss_changes":[4.73865E2,2.0315442E2,2.4402481E1,0E0,0E0,0E0,0E0],"parents":[2147483647,0,0,1,1,2,2],"right_children":[2,4,6,-1,-1,-1,-1],"split_conditions":[2.75E0,2.4999999E-2,2.95E0,-9.04116E-4,1.7122252E-2,1.0192979E-3,-5.4874043E-3],"split_indices":[2,1,2,0,0,0,0],"split_type":[0,0,0,0,0,0,0],"sum_hessian":[8.9966486E2,2.7543393E2,6.2423096E2,9.5332115E1,1.8010182E2,6.3915634E1,5.603153E2],"tree_param":{"num_deleted":"0","num_feature":"6","num_nodes":"7","size_leaf_vector":"0"}},{"base_weights":[1.01260914E-4,5.844602E-1,-1.1477243E-1,4.8357353E-1,1.0832789E0,-2.2827445E-1,7.005361E-1],"categories":[],"categories_nodes":[],"categories_segments":[],"categories_sizes":[],"default_left":[true,true,true,false,false,false,false],"id":101,"left_children":[1,3,5,-1,-1,-1,-1],"loss_changes":[6.0528732E1,6.9309654E0,6.989403E1,0E0,0E0,0E0,0E0],"parents":[2147483647,0,0,1,1,2,2],"right_children":[2,4,6,-1,-1,-1,-1],"split_conditions":[4.5E-1,1.265E1,1.75E0,4.835735E-3,1.0832788E-2,-2.2827445E-3,7.0053604E-3],"split_indices":[4,3,4,0,0,0,0],"split_type":[0,0,0,0,0,0,0],"sum_hessian":[8.996991E2,1.4713582E2,7.5256323E2,1.2402171E2,2.3114107E1,6.6123096E2,9.133231E1],"tree_param":{"num_deleted":"0","num_feature":"6","num_nodes":"7","size_leaf_vector":"0"}},{"base_weights":[2.7967388E-5,2.6003242E-1,-4.237835E-1,3.8643315E-1,1.384937E-2,2.3527725E-3,-4.6135226E-1],"categories":[],"categories_nodes":[],"categories_segments":[],"categories_sizes":[],"default_left":[true,true,true,false,false,false,false],"id":102,"left_children":[1,3,5,-1,-1,-1,-1],"loss_changes":[9.937393E1,1.7387077E1,5.4906197E0,0E0,0E0,0E0,0E0],"parents":[2147483647,0,0,1,1,2,2],"right_children":[2,4,6,-1,-1,-1,-1],"split_conditions":[3.55E0,1.45E0,4.5E-1,3.8643314E-3,1.384937E-4,2.3527724E-5,-4.6135224E-3],"split_indices":[2,4,4,0,0,0,0],"split_type":[0,0,0,0,0,0,0],"sum_hessian":[8.998182E2,5.5792365E2,3.4189456E2,3.6826904E2,1.8965457E2,2.7775768E1,3.141188E2],"tree_param":{"num_deleted":"0","num_feature":"6","num_nodes":"7","size_leaf_vector":"0"}},{"base_weights":[8.4001585E-5,1.0317105E-1,-2.7798784E-1,1.4477886E-1,3.5315458E-2,-4.4590572E-1,7.048312E-2],"categories":[],"categories_nodes":[],"categories_segments":[],"categories_sizes":[],"default_left":[true,false,true,false,false,false,false],"id":103,"left_children":[1,3,5,-1,-1,-1,-1],"loss_changes":[2.5850822E1,1.8523669E0,1.43031025E1,0E0,0E0,0E0,0E0],"parents":[2147483647,0,0,1,1,2,2],"right_children":[2,4,6,-1,-1,-1,-1],"split_conditions":[1.475E1,1.225E1,2.4999999E-2,1.4477886E-3,3.5315458E-4,-4.459057E-3,7.0483115E-4],"split_indices":[5,5,1,0,0,0,0],"split_type":[0,0,0,0,0,0,0],"sum_hessian":[8.998056E2,6.569059E2,2.4289977E2,4.065086E2,2.5039725E2,1.6372562E2,7.917415E1],"tree_param":{"num_deleted":"0","num_feature":"6","num_nodes":"7","size_leaf_vector":"0"}},{"base_weights":[7.065748E-5,1.3603215E-1,-1.6970925E-1,-2.0223685E-1,3.366994E-1,-1.7105281E-2,-4.688265E-1],"categories":[],"categories_nodes":[],"categories_segments":[],"categories_sizes":[],"default_left":[true,true,true,false,false,false,false],"id":104,"left_children":[1,3,5,-1,-1,-1,-1],"loss_changes":[2.0817308E1,3.406135E1,1.82979E1,0E0,0E0,0E0,0E0],"parents":[2147483647,0,0,1,1,2,2],"right_children":[2,4,6,-1,-1,-1,-1],"split_conditions":[1.45E0,2.75E0,3.95E0,-2.0223684E-3,3.366994E-3,-1.7105282E-4,-4.688265E-3],"split_indices":[4,2,2,0,0,0,0],"split_type":[0,0,0,0,0,0,0],"sum_hessian":[8.99825E2,4.9978824E2,4.000368E2,1.8608798E2,3.1370026E2,2.655933E2,1.344435E2],"tree_param":{"num_deleted":"0","num_feature":"6","num_nodes":"7","size_leaf_vector":"0"}},{"base_weights":[6.0066486E-5,2.3370196E-1,-1.4802165E-1,-1.3165675E-1,4.8516935E-1,8.8856705E-2,-3.1504878E-1],"categories":[],"categories_nodes":[],"categories_segments":[],"categories_sizes":[],"default_left":[true,true,true,false,false,false,false],"id":105,"left_children":[1,3,5,-1,-1,-1,-1],"loss_changes":[3.1201963E1,3.220664E1,2.1867563E1,0E0,0E0,0E0,0E0],"parents":[2147483647,0,0,1,1,2,2],"right_children":[2,4,6,-1,-1,-1,-1],"split_conditions":[9.5E-1,4.5E-1,8.95E0,-1.3165675E-3,4.8516933E-3,8.88567E-4,-3.1504878E-3],"split_indices":[4,4,3,0,0,0,0],"split_type":[0,0,0,0,0,0,0],"sum_hessian":[8.9984076E2,3.4885016E2,5.509906E2,1.4241331E2,2.0643684E2,2.2804483E2,3.2294577E2],"tree_param":{"num_deleted":"0","num_feature":"6","num_nodes":"7","size_leaf_vector":"0"}},{"base_weights":[5.4104E-5,-2.7866143E-1,1.7000249E-1,-8.326176E-2,-4.403951E-1,3.2778087E-1,-2.0723642E-1],"categories":[],"categories_nodes":[],"categories_segments":[],"categories_sizes":[],"default_left":[false,true,true,false,false,false,false],"id":106,"left_children":[1,3,5,-1,-1,-1,-1],"loss_changes":[4.2717922E1,1.0759062E1,3.3413315E1,0E0,0E0,0E0,0E0],"parents":[2147483647,0,0,1,1,2,2],"right_children":[2,4,6,-1,-1,-1,-1],"split_conditions":[1.125E1,2.4999999E-2,3.95E0,-8.326176E-4,-4.4039506E-3,3.2778087E-3,-2.072364E-3],"split_indices":[5,1,2,0,0,0,0],"split_type":[0,0,0,0,0,0,0],"sum_hessian":[8.9984485E2,3.4060788E2,5.59237E2,1.5493584E2,1.8567204E2,3.9440857E2,1.648284E2],"tree_param":{"num_deleted":"0","num_feature":"6","num_nodes":"7","size_leaf_vector":"0"}},{"base_weights":[2.3281267E-5,-4.2751172E-1,3.1709602E-1,-5.507775E-1,-2.6350325E-1,-5.4433286E-1,4.1338938E-1],"categories":[],"categories_nodes":[],"categories_segments":[],"categories_sizes":[],"default_left":[true,true,true,false,false,false,false],"id":107,"left_children":[1,3,5,-1,-1,-1,-1],"loss_changes":[1.2225368E2,7.618614E0,4.3177788E1,0E0,0E0,0E0,0E0],"parents":[2147483647,0,0,1,1,2,2],"right_children":[2,4,6,-1,-1,-1,-1],"split_conditions":[3.15E0,2.65E0,4.5E-1,-5.5077747E-3,-2.6350324E-3,-5.4433285E-3,4.1338936E-3],"split_indices":[2,2,4,0,0,0,0],"split_type":[0,0,0,0,0,0,0],"sum_hessian":[8.9984375E2,3.8302783E2,5.168159E2,2.1732909E2,1.6569876E2,5.149499E1,4.6532092E2],"tree_param":{"num_deleted":"0","num_feature":"6","num_nodes":"7","size_leaf_vector":"0"}},{"base_weights":[-2.198612E-5,-5.5189466E-1,3.376066E-1,2.5158565E0,1.02988124E-1],"categories":[],"categories_nodes":[],"categories_segments":[],"categories_sizes":[],"default_left":[true,false,false,false,false],"id":108,"left_children":[1,-1,3,-1,-1],"loss_changes":[1.6801147E2,0E0,2.856468E2,0E0,0E0],"parents":[2147483647,0,0,2,2],"right_children":[2,-1,4,-1,-1],"split_conditions":[3.05E0,-5.5189463E-3,1.075E1,2.5158564E-2,1.0298812E-3],"split_indices":[2,0,5,0,0],"split_type":[0,0,0,0,0],"sum_hessian":[8.9969745E2,3.412579E2,5.584396E2,5.3355175E1,5.050844E2],"tree_param":{"num_deleted":"0","num_feature":"6","num_nodes":"5","size_leaf_vector":"0"}},{"base_weights":[-3.7540763E-4,1.3527747E0,-5.5161375E-1,-5.499295E-1,3.0101173E0],"categories":[],"categories_nodes":[],"categories_segments":[],"categories_sizes":[],"default_left":[true,true,false,false,false],"id":109,"left_children":[1,3,-1,-1,-1],"loss_changes":[6.7180914E2,8.2376184E2,0E0,0E0,0E0],"parents":[2147483647,0,0,1,1],"right_children":[2,4,-1,-1,-1],"split_conditions":[5E-3,8.5E0,-5.5161375E-3,-5.499295E-3,3.0101173E-2],"split_indices":[1,0,0,0,0],"split_type":[0,0,0,0,0],"sum_hessian":[8.986588E2,2.597021E2,6.389567E2,1.2121266E2,1.3848943E2],"tree_param":{"num_deleted":"0","num_feature":"6","num_nodes":"5","size_leaf_vector":"0"}},{"base_weights":[-4.8198784E-5,8.5435206E-1,-3.7456346E-1,-1.8107207E-1,1.4128622E0,-8.489976E-2,-5.3081656E-1],"categories":[],"categories_nodes":[],"categories_segments":[],"categories_sizes":[],"default_left":[false,true,true,false,false,false,false],"id":110,"left_children":[1,3,5,-1,-1,-1,-1],"loss_changes":[2.884958E2,1.5914908E2,2.8325668E1,0E0,0E0,0E0,0E0],"parents":[2147483647,0,0,1,1,2,2],"right_children":[2,4,6,-1,-1,-1,-1],"split_conditions":[1.025E1,2.4999999E-2,1.225E1,-1.8107207E-3,1.4128622E-2,-8.489976E-4,-5.308165E-3],"split_indices":[5,1,5,0,0,0,0],"split_type":[0,0,0,0,0,0,0],"sum_hessian":[8.995889E2,2.7376163E2,6.258273E2,9.616211E1,1.7759953E2,2.1983609E2,4.0599118E2],"tree_param":{"num_deleted":"0","num_feature":"6","num_nodes":"7","size_leaf_vector":"0"}},{"base_weights":[1.2122433E-4,5.841806E-1,-2.4925104E-1,4.785906E-1,1.1086364E0,2.970705E-1,-3.278782E-1],"categories":[],"categories_nodes":[],"categories_segments":[],"categories_sizes":[],"default_left":[false,true,true,false,false,false,false],"id":111,"left_children":[1,3,5,-1,-1,-1,-1],"loss_changes":[1.3132375E2,1.4409317E1,2.7239677E1,0E0,0E0,0E0,0E0],"parents":[2147483647,0,0,1,1,2,2],"right_children":[2,4,6,-1,-1,-1,-1],"split_conditions":[1.025E1,1.75E0,4.5E-1,4.785906E-3,1.1086363E-2,2.970705E-3,-3.278782E-3],"split_indices":[5,4,4,0,0,0,0],"split_type":[0,0,0,0,0,0,0],"sum_hessian":[8.996506E2,2.68784E2,6.308666E2,2.2533025E2,4.345375E1,7.902216E1,5.5184436E2],"tree_param":{"num_deleted":"0","num_feature":"6","num_nodes":"7","size_leaf_vector":"0"}},{"base_weights":[3.7126523E-5,2.2904544E-1,-3.1644726E-1,3.5271394E-1,-1.0187422E-2,4.6023175E-1,-3.971174E-1],"categories":[],"categories_nodes":[],"categories_segments":[],"categories_sizes":[],"default_left":[true,true,true,false,false,false,false],"id":112,"left_children":[1,3,5,-1,-1,-1,-1],"loss_changes":[6.5358795E1,1.548262E1,2.3902908E1,0E0,0E0,0E0,0E0],"parents":[2147483647,0,0,1,1,2,2],"right_children":[2,4,6,-1,-1,-1,-1],"split_conditions":[1.275E1,1.45E0,4.5E-1,3.5271393E-3,-1.0187422E-4,4.602317E-3,-3.971174E-3],"split_indices":[5,4,4,0,0,0,0],"split_type":[0,0,0,0,0,0,0],"sum_hessian":[8.997797E2,5.2219525E2,3.7758453E2,3.439303E2,1.7826494E2,3.5085167E1,3.4249936E2],"tree_param":{"num_deleted":"0","num_feature":"6","num_nodes":"7","size_leaf_vector":"0"}},{"base_weights":[9.671285E-5,1.8596654E-1,-2.3518193E-1,-1.9287203E-2,2.2921358E-1,-3.5621864E-1,1.8033029E-1],"categories":[],"categories_nodes":[],"categories_segments":[],"categories_sizes":[],"default_left":[true,false,true,false,false,false,false],"id":113,"left_children":[1,3,5,-1,-1,-1,-1],"loss_changes":[3.9435802E1,4.4763374E0,2.0080086E1,0E0,0E0,0E0,0E0],"parents":[2147483647,0,0,1,1,2,2],"right_children":[2,4,6,-1,-1,-1,-1],"split_conditions":[1.45E0,7.75E0,1.75E0,-1.9287202E-4,2.2921357E-3,-3.5621864E-3,1.8033029E-3],"split_indices":[4,5,4,0,0,0,0],"split_type":[0,0,0,0,0,0,0],"sum_hessian":[8.997771E2,5.0278625E2,3.9699088E2,8.7597244E1,4.15189E2,3.075467E2,8.9444176E1],"tree_param":{"num_deleted":"0","num_feature":"6","num_nodes":"7","size_leaf_vector":"0"}},{"base_weights":[7.943005E-5,1.3513133E-1,-1.690233E-1,-2.0148665E-1,3.3388287E-1,-1.717613E-2,-4.6811923E-1],"categories":[],"categories_nodes":[],"categories_segments":[],"categories_sizes":[],"default_left":[true,true,true,false,false,false,false],"id":114,"left_children":[1,3,5,-1,-1,-1,-1],"loss_changes":[2.0594973E1,3.3611176E1,1.817781E1,0E0,0E0,0E0,0E0],"parents":[2147483647,0,0,1,1,2,2],"right_children":[2,4,6,-1,-1,-1,-1],"split_conditions":[1.45E0,2.75E0,3.95E0,-2.0148663E-3,3.3388287E-3,-1.717613E-4,-4.6811923E-3],"split_indices":[4,2,2,0,0,0,0],"split_type":[0,0,0,0,0,0,0],"sum_hessian":[8.997992E2,5.0037863E2,3.994206E2,1.8575635E2,3.1462225E2,2.6562408E2,1.3379651E2],"tree_param":{"num_deleted":"0","num_feature":"6","num_nodes":"7","size_leaf_vector":"0"}},{"base_weights":[7.244473E-5,1.823295E-1,-1.5763633E-1,4.4580126E-1,-7.206286E-2,-3.2426703E-1,-2.173359E-2],"categories":[],"categories_nodes":[],"categories_segments":[],"categories_sizes":[],"default_left":[true,true,true,false,false,false,false],"id":115,"left_children":[1,3,5,-1,-1,-1,-1],"loss_changes":[2.5921124E1,2.8071747E1,1.0941238E1,0E0,0E0,0E0,0E0],"parents":[2147483647,0,0,1,1,2,2],"right_children":[2,4,6,-1,-1,-1,-1],"split_conditions":[8.95E0,2.4999999E-2,9.75E0,4.4580125E-3,-7.2062854E-4,-3.2426703E-3,-2.173359E-4],"split_indices":[3,1,3,0,0,0,0],"split_type":[0,0,0,0,0,0,0],"sum_hessian":[8.9980707E2,4.1734445E2,4.8246262E2,2.0464407E2,2.1270036E2,2.1610712E2,2.663555E2],"tree_param":{"num_deleted":"0","num_feature":"6","num_nodes":"7","size_leaf_vector":"0"}},{"base_weights":[6.195286E-5,-3.7476513E-1,1.2092564E-1,-4.6371025E-1,-2.361097E-1,3.8952842E-1,-7.0698815E-3],"categories":[],"categories_nodes":[],"categories_segments":[],"categories_sizes":[],"default_left":[true,true,true,false,false,false,false],"id":116,"left_children":[1,3,5,-1,-1,-1,-1],"loss_changes":[4.0854942E1,2.6023407E0,2.3447357E1,0E0,0E0,0E0,0E0],"parents":[2147483647,0,0,1,1,2,2],"right_children":[2,4,6,-1,-1,-1,-1],"split_conditions":[2.65E0,2.35E0,8.5E-1,-4.6371026E-3,-2.361097E-3,3.8952841E-3,-7.0698814E-5],"split_indices":[2,2,4,0,0,0,0],"split_type":[0,0,0,0,0,0,0],"sum_hessian":[8.998153E2,2.1888867E2,6.8092664E2,1.3191994E2,8.696874E1,2.1909834E2,4.618283E2],"tree_param":{"num_deleted":"0","num_feature":"6","num_nodes":"7","size_leaf_vector":"0"}},{"base_weights":[2.4803534E-5,-4.2680284E-1,3.1456777E-1,-5.5045074E-1,-2.6271328E-1,-5.439697E-1,4.0976408E-1],"categories":[],"categories_nodes":[],"categories_segments":[],"categories_sizes":[],"default_left":[true,true,true,false,false,false,false],"id":117,"left_children":[1,3,5,-1,-1,-1,-1],"loss_changes":[1.2107359E2,7.6183777E0,4.265684E1,0E0,0E0,0E0,0E0],"parents":[2147483647,0,0,1,1,2,2],"right_children":[2,4,6,-1,-1,-1,-1],"split_conditions":[3.15E0,2.65E0,4.5E-1,-5.504507E-3,-2.6271327E-3,-5.439697E-3,4.0976405E-3],"split_indices":[2,2,4,0,0,0,0],"split_type":[0,0,0,0,0,0,0],"sum_hessian":[8.9981384E2,3.8161462E2,5.181992E2,2.1628264E2,1.6533199E2,5.1253174E1,4.6694604E2],"tree_param":{"num_deleted":"0","num_feature":"6","num_nodes":"7","size_leaf_vector":"0"}},{"base_weights":[-6.150608E-6,-5.520926E-1,4.408572E-1,1.168793E0,-5.5055577E-1],"categories":[],"categories_nodes":[],"categories_segments":[],"categories_sizes":[],"default_left":[true,false,true,false,false],"id":118,"left_children":[1,-1,3,-1,-1],"loss_changes":[2.1945178E2,0E0,3.6243256E2,0E0,0E0],"parents":[2147483647,0,0,2,2],"right_children":[2,-1,4,-1,-1],"split_conditions":[8.95E0,-5.520926E-3,1.005E1,1.168793E-2,-5.5055576E-3],"split_indices":[3,0,3,0,0],"split_type":[0,0,0,0,0],"sum_hessian":[8.996293E2,3.993176E2,5.0031165E2,2.8838715E2,2.119245E2],"tree_param":{"num_deleted":"0","num_feature":"6","num_nodes":"5","size_leaf_vector":"0"}},{"base_weights":[-4.4003443E-4,-5.516757E-1,1.9317484E0,-5.4554373E-1,3.0206141E0],"categories":[],"categories_nodes":[],"categories_segments":[],"categories_sizes":[],"default_left":[true,false,true,false,false],"id":119,"left_children":[1,-1,3,-1,-1],"loss_changes":[9.589754E2,0E0,5.4073474E2,0E0,0E0],"parents":[2147483647,0,0,2,2],"right_children":[2,-1,4,-1,-1],"split_conditions":[3.95E0,-5.516757E-3,8.5E0,-5.455437E-3,3.020614E-2],"split_indices":[2,0,0,0,0],"split_type":[0,0,0,0,0],"sum_hessian":[8.983688E2,6.995174E2,1.9885141E2,6.086825E1,1.3798315E2],"tree_param":{"num_deleted":"0","num_feature":"6","num_nodes":"5","size_leaf_vector":"0"}},{"base_weights":[-6.7465786E-5,-4.5794523E-1,5.0228214E-1,-1.4025104E-2,-4.6923307E-1,1.2175022E0,3.011042E-1],"categories":[],"categories_nodes":[],"categories_segments":[],"categories_sizes":[],"default_left":[true,true,true,false,false,false,false],"id":120,"left_children":[1,3,5,-1,-1,-1,-1],"loss_changes":[2.0736284E2,2.3567352E0,6.148786E1,0E0,0E0,0E0,0E0],"parents":[2147483647,0,0,1,1,2,2],"right_children":[2,4,6,-1,-1,-1,-1],"split_conditions":[2.4999999E-2,5E-2,4.5E-1,-1.4025104E-4,-4.6923305E-3,1.2175022E-2,3.0110418E-3],"split_indices":[1,4,4,0,0,0,0],"split_type":[0,0,0,0,0,0,0],"sum_hessian":[8.9951984E2,4.706363E2,4.2888354E2,1.1726023E1,4.5891028E2,9.304428E1,3.3583923E2],"tree_param":{"num_deleted":"0","num_feature":"6","num_nodes":"7","size_leaf_vector":"0"}},{"base_weights":[1.3341528E-4,5.207828E-1,-3.5615265E-1,4.0197664E-1,7.383082E-1,-4.2628872E-1,1.250222E-2],"categories":[],"categories_nodes":[],"categories_segments":[],"categories_sizes":[],"default_left":[true,true,true,false,false,false,false],"id":121,"left_children":[1,3,5,-1,-1,-1,-1],"loss_changes":[1.672462E2,9.169777E0,1.3845818E1,0E0,0E0,0E0,0E0],"parents":[2147483647,0,0,1,1,2,2],"right_children":[2,4,6,-1,-1,-1,-1],"split_conditions":[3.05E0,1.015E1,1.055E1,4.0197666E-3,7.3830816E-3,-4.262887E-3,1.250222E-4],"split_indices":[2,3,3,0,0,0,0],"split_type":[0,0,0,0,0,0,0],"sum_hessian":[8.995962E2,3.653052E2,5.3429095E2,2.3810626E2,1.2719894E2,4.487589E2,8.5532074E1],"tree_param":{"num_deleted":"0","num_feature":"6","num_nodes":"7","size_leaf_vector":"0"}},{"base_weights":[4.3755223E-5,2.2722985E-1,-3.1554034E-1,3.4974357E-1,-1.0402647E-2,4.5606434E-1,-3.962942E-1],"categories":[],"categories_nodes":[],"categories_segments":[],"categories_sizes":[],"default_left":[true,true,true,false,false,false,false],"id":122,"left_children":[1,3,5,-1,-1,-1,-1],"loss_changes":[6.4651764E1,1.5267803E1,2.3699127E1,0E0,0E0,0E0,0E0],"parents":[2147483647,0,0,1,1,2,2],"right_children":[2,4,6,-1,-1,-1,-1],"split_conditions":[1.275E1,1.45E0,4.5E-1,3.4974357E-3,-1.0402647E-4,4.5606433E-3,-3.962942E-3],"split_indices":[5,4,4,0,0,0,0],"split_type":[0,0,0,0,0,0,0],"sum_hessian":[8.9974445E2,5.233032E2,3.7644122E2,3.4497583E2,1.783274E2,3.5224354E1,3.4121686E2],"tree_param":{"num_deleted":"0","num_feature":"6","num_nodes":"7","size_leaf_vector":"0"}},{"base_weights":[1.0487734E-4,3.0394253E-1,-1.3964371E-1,1.637832E-1,3.9720914E-1,-3.1571257E-1,1.7229351E-1],"categories":[],"categories_nodes":[],"categories_segments":[],"categories_sizes":[],"default_left":[true,true,true,false,false,false,false],"id":123,"left_children":[1,3,5,-1,-1,-1,-1],"loss_changes":[3.8289036E1,3.6486092E0,3.3977768E1,0E0,0E0,0E0,0E0],"parents":[2147483647,0,0,1,1,2,2],"right_children":[2,4,6,-1,-1,-1,-1],"split_conditions":[6.6499996E0,9.25E0,1.005E1,1.6378319E-3,3.9720912E-3,-3.1571256E-3,1.7229351E-3],"split_indices":[3,5,3,0,0,0,0],"split_type":[0,0,0,0,0,0,0],"sum_hessian":[8.997489E2,2.830891E2,6.166598E2,1.1421099E2,1.6887813E2,3.941659E2,2.2249387E2],"tree_param":{"num_deleted":"0","num_feature":"6","num_nodes":"7","size_leaf_vector":"0"}},{"base_weights":[7.97466E-5,2.054809E-1,-1.5939057E-1,1.9060837E-1,9.3258756E-1,-3.5628867E-1,9.44008E-2],"categories":[],"categories_nodes":[],"categories_segments":[],"categories_sizes":[],"default_left":[true,true,true,false,false,false,false],"id":124,"left_children":[1,3,5,-1,-1,-1,-1],"loss_changes":[2.9538149E1,4.084341E0,2.5401392E1,0E0,0E0,0E0,0E0],"parents":[2147483647,0,0,1,1,2,2],"right_children":[2,4,6,-1,-1,-1,-1],"split_conditions":[8.55E0,8.35E0,1.005E1,1.9060837E-3,9.325875E-3,-3.5628867E-3,9.44008E-4],"split_indices":[3,3,3,0,0,0,0],"split_type":[0,0,0,0,0,0,0],"sum_hessian":[8.9977997E2,3.931307E2,5.0664926E2,3.864875E2,6.6432285E0,2.8507593E2,2.2157335E2],"tree_param":{"num_deleted":"0","num_feature":"6","num_nodes":"7","size_leaf_vector":"0"}},{"base_weights":[8.033454E-5,1.8065695E-1,-1.5678564E-1,4.410134E-1,-7.191718E-2,-3.230268E-1,-2.1777812E-2],"categories":[],"categories_nodes":[],"categories_segments":[],"categories_sizes":[],"default_left":[true,true,true,false,false,false,false],"id":125,"left_children":[1,3,5,-1,-1,-1,-1],"loss_changes":[2.5544123E1,2.7598532E1,1.0823754E1,0E0,0E0,0E0,0E0],"parents":[2147483647,0,0,1,1,2,2],"right_children":[2,4,6,-1,-1,-1,-1],"split_conditions":[8.95E0,2.4999999E-2,9.75E0,4.4101337E-3,-7.1917183E-4,-3.230268E-3,-2.1777811E-4],"split_indices":[3,1,3,0,0,0,0],"split_type":[0,0,0,0,0,0,0],"sum_hessian":[8.9978033E2,4.1820782E2,4.815725E2,2.0556395E2,2.1264388E2,2.1519754E2,2.6637497E2],"tree_param":{"num_deleted":"0","num_feature":"6","num_nodes":"7","size_leaf_vector":"0"}},{"base_weights":[6.908251E-5,-2.7730155E-1,1.6813311E-1,-5.1482236E-1,-1.2570643E-1,3.533366E-1,-4.2418595E-2],"categories":[],"categories_nodes":[],"categories_segments":[],"categories_sizes":[],"default_left":[false,true,true,false,false,false,false],"id":126,"left_children":[1,3,5,-1,-1,-1,-1],"loss_changes":[4.2037846E1,1.2186604E1,2.1912231E1,0E0,0E0,0E0,0E0],"parents":[2147483647,0,0,1,1,2,2],"right_children":[2,4,6,-1,-1,-1,-1],"split_conditions":[1.125E1,7.05E0,9.45E0,-5.1482236E-3,-1.2570643E-3,3.533366E-3,-4.2418594E-4],"split_indices":[5,3,3,0,0,0,0],"split_type":[0,0,0,0,0,0,0],"sum_hessian":[8.9978937E2,3.3924838E2,5.6054095E2,1.3123383E2,2.0801454E2,2.9786108E2,2.626799E2],"tree_param":{"num_deleted":"0","num_feature":"6","num_nodes":"7","size_leaf_vector":"0"}},{"base_weights":[2.5894824E-5,2.4420556E-1,-2.994722E-1,-1.12593964E-1,5.5726904E-1,-3.8899675E-1,-6.29877E-2],"categories":[],"categories_nodes":[],"categories_segments":[],"categories_sizes":[],"default_left":[true,true,true,false,false,false,false],"id":127,"left_children":[1,3,5,-1,-1,-1,-1],"loss_changes":[6.594838E1,5.5552105E1,8.550087E0,0E0,0E0,0E0,0E0],"parents":[2147483647,0,0,1,1,2,2],"right_children":[2,4,6,-1,-1,-1,-1],"split_conditions":[2.4999999E-2,5E-3,1.55E0,-1.1259397E-3,5.57269E-3,-3.8899675E-3,-6.29877E-4],"split_indices":[1,1,4,0,0,0,0],"split_type":[0,0,0,0,0,0,0],"sum_hessian":[8.997799E2,4.9576733E2,4.0401257E2,2.3199835E2,2.6376895E2,2.9259988E2,1.114127E2],"tree_param":{"num_deleted":"0","num_feature":"6","num_nodes":"7","size_leaf_vector":"0"}},{"base_weights":[-5.3719555E-6,-5.513808E-1,3.3311337E-1,8.23459E-1,-2.3569562E-1],"categories":[],"categories_nodes":[],"categories_segments":[],"categories_sizes":[],"default_left":[true,false,true,false,false],"id":128,"left_children":[1,-1,3,-1,-1],"loss_changes":[1.6558815E2,0E0,1.5694278E2,0E0,0E0],"parents":[2147483647,0,0,2,2],"right_children":[2,-1,4,-1,-1],"split_conditions":[3.05E0,-5.513808E-3,6.5E0,8.23459E-3,-2.356956E-3],"split_indices":[2,0,0,0,0],"split_type":[0,0,0,0,0],"sum_hessian":[8.9953534E2,3.385368E2,5.6099854E2,3.0103854E2,2.5996E2],"tree_param":{"num_deleted":"0","num_feature":"6","num_nodes":"5","size_leaf_vector":"0"}},{"base_weights":[-4.6517132E-4,-5.5137515E-1,1.894576E0,3.1099997E0,-5.452065E-1],"categories":[],"categories_nodes":[],"categories_segments":[],"categories_sizes":[],"default_left":[true,false,true,false,false],"id":129,"left_children":[1,-1,3,-1,-1],